3.823657638883803250e-02
1.392239791936311921e-01
9.658586625805651305e-02
-9.607564945706543319e-03
-8.348287460176286034e-02
-1.273845496961455159e-01
-1.510285313398167517e-01
9.745709874290606201e-02
-9.367547291200175458e-03
-1.066256266031581114e-02
-6.404740915495653157e-03
-3.309487055290651677e-03
-2.240421558126234718e-03
-1.904269404447408607e-03
-1.612776009779478886e-03
3.550180489465540323e-02
-4.203994095376574654e-03
2.059862233634860221e-02
8.295524661013683326e-03
-2.586805053395670228e-04
-5.340882528357599780e-03
-8.034812075988613522e-03
-1.112465611358694033e-02
6.887832128698752050e-05
1.495224162971646280e-02
1.672518087846905713e-02
1.673245614322608696e-03
-6.105854774319689933e-03
-8.733191756025328670e-03
-8.838676902928837772e-03
-1.091318031593904898e-02
1.240235626704767197e-03
-1.354806421695751821e-02
9.924071331122014811e-03
1.591566855348569218e-02
4.268741085685087006e-03
-7.027105944188929802e-03
-1.469509813927783771e-02
-1.620127222467367470e-02
2.136305955480516383e-02
2.344669749014535471e-03
5.108033766681029965e-03
1.603442572208694725e-02
7.781454191988629136e-03
-1.149678453820911911e-02
-1.454336044801707827e-02
-1.903460498585709745e-02
1.380616654231215865e-02
3.675280608949942074e-02
5.504941220754803327e-02
3.230963583289034324e-02
-1.667977533278980004e-02
-4.258614774616037435e-02
-6.097180193763707123e-02
-6.828980637598366932e-02
6.441567726263314198e-02
3.776186843893357056e-04
2.407841913950178100e-03
2.445438083102557253e-03
9.133508233787019726e-05
-1.890618600670033404e-03
-7.382774060031937037e-04
-2.017006284539067228e-03
-6.763314725676449141e-04
2.441004213265261444e-03
1.215275527204382790e-02
1.604072219639034874e-02
2.072306500017275736e-03
-5.658755758980483185e-03
-9.688489330748164749e-03
-1.239851063206582303e-02
-4.961032459922256298e-03
3.644098460357260145e-04
6.230900300667496262e-04
4.001393565153242462e-04
4.699701435103386510e-04
-2.978026652792398524e-04
-4.322169567816227576e-04
-3.116367159590171252e-04
-8.159530381082587486e-04
2.056059841507080002e-02
7.047707268877034630e-03
4.841092829341257634e-04
-4.928330786233419379e-03
-6.878347010934424306e-03
-1.137566762767875522e-02
-1.264163499447048915e-02
7.731565452435125961e-03
4.049029081957953766e-04
1.947543739455251301e-03
2.097794893517190406e-03
-9.829888909656480354e-05
-1.755832245850285148e-03
-5.818586811873443631e-04
-1.812337096599657329e-03
-2.019146284343855899e-04
-9.536828090973316352e-04
1.261424670531799495e-03
4.792793130190737042e-04
-1.264196165004858481e-05
6.795880456633810211e-05
1.925766940155935775e-04
-1.564314120654391235e-04
-8.784832993199866548e-04
-5.090916904835763164e-05
1.066183890580732919e-03
-3.937229823851360710e-04
1.472679324531234947e-05
-1.808757663467873986e-04
7.314356573974598529e-05
2.387161277309642971e-04
-7.672624595164737006e-04
-1.550898372072704451e-03
7.294464132294151181e-04
2.464688428232700095e-04
7.181523640958768252e-04
5.507720015062997961e-04
6.622271120544696941e-04
-7.749583919286483517e-04
-5.812099697079782610e-04
4.349143537251445022e-04
4.468426019324363784e-04
-5.941378719530534961e-04
4.546296763724362632e-04
-4.990799726528934860e-04
-2.019534015781922177e-04
-9.117438318151843473e-04
8.705284459693073519e-04
-2.728422380645983023e-05
4.602981744949249010e-04
3.476431895853668470e-04
1.896339714344351499e-04
-1.347863548197482289e-04
-1.564187248158501538e-04
-2.046691879394102790e-04
-4.744168441332588092e-04
-3.595857432293827084e-04
6.104440070273286145e-04
5.475937031095362778e-04
-5.052114117872723428e-04
5.949141963041570556e-04
-5.450285109768462574e-04
9.821871601113787588e-06
-3.529481120486349199e-04
1.645914602858482105e-04
-6.815201251524279384e-04
2.634245187408802789e-04
4.580201566130402539e-04
4.911543527051792386e-04
-1.870717246013172059e-04
-7.486105396630744584e-04
2.400119010718712955e-04
6.131818318585519545e-04
7.105904616749069477e-04
4.403487231644636344e-05
-1.655489449065405255e-04
-1.422528342910284530e-04
-2.980299072557827640e-04
4.964873352487601714e-07
-7.624719667318012985e-04
-1.734448289868626030e-05
9.135280099457589913e-05
8.518386362404679221e-06
4.670170627377562110e-05
1.819574588026194378e-04
-1.655109655728435024e-04
-9.739065243654257439e-07
-1.447009974374805039e-04
-4.332803670556152034e-04
3.661887542417110314e-03
4.572909291123261784e-03
-4.787819659629071785e-05
-3.841408610168489017e-04
-1.583942048801761319e-03
-3.246180767336687232e-03
-2.539374592733162524e-03
4.393394087498214522e-03
8.435846469870108416e-03
1.382277157896312676e-02
7.484142934811319550e-04
-5.154627784100077569e-03
-9.786121695284854052e-03
-9.503508516030479553e-03
-2.956168434397175252e-03
8.998556057974130436e-05
4.857510316657162781e-05
3.689143411348740098e-04
-1.102336002558273700e-04
-8.487607369202617357e-05
-7.250497270281667172e-05
-6.589862091647672078e-05
-1.739617373140401821e-04
1.632563563810067334e-04
1.116438674999421787e-03
2.733890542527379571e-04
2.061191988770192599e-04
-2.832608676366582339e-04
-3.290435956324852832e-04
-2.424150535191334362e-04
-9.044837677219106547e-04
4.030984725231974452e-04
8.018709475430916157e-04
7.348881040614778067e-04
-3.249375952414982585e-04
-2.584378074844203448e-04
-2.344273320558408556e-04
-4.110044660155558129e-04
-7.110503233304512434e-04
5.013267102131311074e-04
6.792712432056585833e-04
4.825298304581034222e-04
-1.743526357163240311e-05
3.756073077224960413e-05
-2.968351975256341545e-04
-8.011602961416461246e-04
-5.852577574102288795e-04
-7.911307403608017685e-05
-1.810376826128933967e-04
9.047295568541757304e-05
4.928146972319914906e-04
2.657483584825984482e-05
-9.533656399064365319e-05
-5.557961191866593816e-06
-2.488172069341850379e-04
-3.616615431780033818e-04
2.310969285939218007e-03
8.724306593713653359e-05
4.726959343738432987e-04
-5.893413118882751423e-04
-8.503985622466275502e-04
-1.096567982804248255e-03
2.706111386695841787e-05
-8.459693553043143299e-03
1.164943468220345363e-02
1.046885410285793190e-02
-3.772618317523719275e-03
-8.991475452755637310e-03
-1.172364563601851518e-02
-1.223353426710623373e-02
2.306267844138582684e-02
4.632602613276275128e-04
4.491702344616661032e-04
3.231781957356352482e-04
-1.711269861658636386e-04
-2.793958732419167014e-04
-7.905345296789797582e-05
-2.042913767093952854e-04
-5.017410024398553849e-04
-3.374599155908087185e-05
3.920892659219185248e-04
1.950426236785031365e-04
4.251188470825141498e-04
-4.809911614553301199e-05
-1.855806984681531834e-04
-6.683401790238205494e-05
-6.779909126077864924e-04
8.047509080356422470e-04
1.305905966994221241e-03
7.305444688225848837e-04
-2.420556952679266249e-05
-2.036501856720078420e-04
-3.972681711409153417e-04
-4.568074041486338221e-04
-1.759270013364096132e-03
2.249084988855116346e-02
2.039442704749425128e-02
2.872351910896225186e-03
-2.863759862095202093e-03
-1.595220146245993759e-02
-2.352772116957176779e-02
-2.940740731115668027e-02
2.599346095834190878e-02
1.212529184403327367e-02
1.080575508113495488e-02
-3.398465075488570400e-04
-5.642665798399917193e-03
-7.327502381749788525e-03
-7.080359523126459297e-03
-7.791380462821901123e-03
5.250707748478693378e-03
-1.938628058054522798e-05
3.129213077343410152e-04
9.574236676564009481e-05
2.595539832180859276e-04
6.628703918562467521e-04
-2.985818856714755439e-05
-5.639339561197914902e-04
-7.179096243068300558e-04
8.122933513298548130e-05
5.375476210281906163e-03
6.892883541799488777e-03
8.344267493115670956e-04
-6.953895681856737607e-03
-7.291016983559803037e-03
-1.123613141080370692e-02
1.229702823969429717e-02
-4.422233064661443432e-04
8.753852885088102753e-04
4.051657102320552163e-04
-5.600851240559587583e-05
-6.557443084792878921e-04
-2.260706932910240454e-04
-9.509324502764107028e-04
1.050428272177598554e-03
2.313968371436140377e-04
4.004420069462133816e-03
-2.459229775720514466e-04
-1.449450694543666200e-03
-1.072497836390369020e-03
-1.155950013499223213e-03
-1.834162396004304727e-03
1.522167011403863799e-03
-3.929394685492225599e-03
6.722887494736883712e-03
3.506222385600501860e-03
-8.258637525654693914e-04
-2.440990989044132704e-03
-3.842850624731205221e-03
-5.388100830409468453e-03
6.198091001905122084e-03
6.831641709062211349e-04
1.497296744209653278e-03
7.041961727948880222e-04
-3.368741287696374502e-04
-2.632055725997655879e-04
-8.414487878302149768e-04
-8.286960567727185475e-04
-6.144325419384256016e-04
-2.970068177262254975e-03
6.907352250569761404e-04
5.264585187090511063e-03
-8.392406457469486379e-04
-7.495628063304294588e-04
-2.404141325894120981e-04
-2.183340272488625607e-03
1.027305622270187910e-03
1.335193582869401217e-04
-6.151175162524847846e-05
-5.201266907006529979e-07
4.756835842715673179e-05
3.615754119823805902e-05
6.517737614456557097e-05
-6.934719347722977361e-05
-1.510435622637215679e-04
-7.523175504023760880e-04
1.676467170727976089e-03
-7.149759422310932695e-05
2.551965330837928348e-04
-1.464068015679314356e-04
-1.085819076057786418e-04
-3.894862799018057034e-04
-4.633735701107681072e-04
1.050410168415227396e-03
1.799375113137429956e-03
-4.753327021626759527e-05
-1.026483844937670304e-03
4.046955812627042157e-06
-5.791418341309129180e-04
-9.517215626741829535e-04
-2.489517254062502275e-04
4.350539768425677961e-04
-3.167348507242087369e-04
2.742306337150533964e-03
1.572726550457358824e-04
-4.464522500608816293e-04
-5.946928741439304897e-04
-6.700551918528522026e-04
-1.306697802256964963e-03
-7.379550208819002583e-04
1.532487096644451902e-02
1.624668470943620505e-02
-5.803407805075395248e-03
-8.240111249171271773e-03
-1.146507079421282133e-02
-1.180643735168767326e-02
6.481426545148347672e-03
-7.076368004532041390e-04
2.256817599475533821e-03
1.178026267867632792e-03
-2.648979588190855379e-04
-6.470730092528925769e-04
-7.862677592121590682e-04
-1.011711675134246025e-03
-1.725666447157771444e-05
2.899006359802484660e-03
6.329722425287797032e-04
2.237635826765841957e-03
6.883414381379473384e-04
-2.524012570839093833e-03
-2.879696710155243804e-03
-2.200792451562644074e-03
1.146545865321926859e-03
-3.876868709299994067e-03
6.743840143701863854e-03
2.532613981951564730e-03
-3.754250442281835388e-04
-1.677078452523784969e-03
-2.362327259552841462e-03
-1.348259088381317979e-03
3.635044283326934866e-04
-4.425160854962689760e-04
2.090023758214044382e-03
4.905541048434497106e-04
4.116005649913014952e-04
-1.522487722461964975e-04
-5.960927646560977696e-04
-1.079432942806259023e-03
-7.218878628439721022e-04
-9.492313573577641815e-04
2.515365003047258935e-03
3.693972835308710775e-04
-7.488686453510416761e-04
-1.411700947626817184e-03
-2.346612531267806747e-03
-1.738623108221236564e-03
4.310274303246539214e-03
-1.418757774141769714e-04
2.719312588309396412e-04
2.110262319264285917e-04
-1.218973185190092251e-04
1.308195651943499626e-04
-8.064620072689322326e-05
-7.320038603412098728e-05
-1.961573732575176937e-04
-9.000573839895287915e-05
1.645648772929484023e-04
1.810077850699618764e-04
8.472106625536393815e-05
-3.407484973520421705e-05
-9.419528557555424068e-05
-1.073131512748457526e-05
-2.012865397810783251e-04
-4.653841025852070408e-04
1.593476337088861952e-03
2.285820854323114895e-03
1.082145900780621603e-03
-4.961482101180895608e-04
-6.675319782313748809e-04
-1.646475718440134316e-03
-1.685903082817790267e-03
5.572927515971760198e-04
1.638616594603451619e-03
1.324959004979338459e-03
-8.321786570713009474e-04
-6.924060561990161549e-04
-8.905818348469136221e-05
-4.956984890052601499e-04
-1.411526965419696196e-03
2.263440413881548634e-03
-2.674424436008720780e-04
9.141542180287452399e-03
6.947027442677059655e-03
-4.542888856352378033e-03
-7.252343464457263952e-03
-7.798473575053385329e-03
1.509138302617858435e-03
-4.620017709090867538e-04
1.502629076097848409e-03
3.056589025969089365e-04
-4.182683334997259507e-04
2.686353473922239608e-04
-4.604015897899100380e-04
-6.029064297492750697e-04
-1.333452021389830335e-04
-6.778038089997568761e-04
9.395891072949120017e-04
1.939151416773148180e-03
5.993558365320593315e-05
1.841024443546855952e-04
-6.129544600589114040e-04
-3.424187790432981198e-04
-1.489601503973986578e-03
6.377477050671844644e-04
-4.009955089534125825e-04
3.970008430043988181e-04
2.381129898461330511e-04
-2.604628296349091533e-04
-2.617544441469560313e-04
-4.935600865588460123e-04
1.439113313764071747e-04
8.431301466106029844e-04
1.264705586265893120e-03
8.681882922640114840e-04
-3.828238622464788781e-04
5.455289648929327910e-04
-6.874146181923313252e-04
-9.296756721919570768e-04
-1.521638837402674617e-03
1.125015688643170959e-03
1.805946837572465274e-03
2.487170535021781897e-04
-9.064534254807840043e-05
-5.722010968842386881e-05
-4.862500475934059701e-04
-7.379280551570536204e-04
-1.807636024730850015e-03
-6.878646874340324513e-03
-1.957290296474158142e-03
1.005940105685108893e-04
5.554167660864368049e-03
-3.778044092014296289e-03
-9.191565790253016302e-03
-7.656970388306057369e-03
2.380775576995497120e-02
-4.841301132569528864e-06
-3.901970917434537675e-04
2.048876910700973928e-04
1.742870781300474555e-04
-2.430300791650000312e-04
1.327740299203418386e-04
1.694643438130434131e-04
-4.334467089250678161e-05
1.503145507695031091e-04
-2.593112419875828899e-05
-4.669264620035382585e-05
-1.679604372410662544e-04
1.883963027453074645e-04
1.401690247278350606e-04
-7.016808733706732986e-05
-1.681275832654000198e-04
-9.054327063313065546e-05
1.513728065915963164e-04
5.180609406135734094e-06
4.836281715931431218e-04
6.221045502962719350e-05
2.244441357941273207e-04
-3.277981320866653033e-04
-5.084947756948336294e-04
-1.896166358863622540e-03
4.615346490219776436e-03
1.225720598053748039e-03
1.670869015805139489e-03
-3.556444459732757365e-04
-1.642048651670782993e-03
-1.856892162422507913e-03
-1.761184485148477872e-03
0.000000000000000000e+00
0.000000000000000000e+00
0.000000000000000000e+00
0.000000000000000000e+00
0.000000000000000000e+00
0.000000000000000000e+00
0.000000000000000000e+00
0.000000000000000000e+00
3.644098460357260145e-04
6.230900300667496262e-04
4.001393565153242462e-04
4.699701435103386510e-04
-2.978026652792398524e-04
-4.322169567816227576e-04
-3.116367159590171252e-04
-8.159530381082587486e-04
6.001832521287479025e-04
1.065583886221942124e-03
2.411571737401139656e-03
1.684922294697043183e-04
-9.084959933262070362e-04
2.652316788785746553e-05
-1.334810757313235636e-03
-2.029047522469946182e-03
-1.952803439329526885e-04
8.819598532333102620e-04
-3.137768438839477867e-04
-2.667911185662693793e-04
-8.473362525240781115e-04
-6.083818490752020353e-04
-4.775263392864218556e-04
1.827132894035562137e-03
-9.536828090973316352e-04
1.261424670531799495e-03
4.792793130190737042e-04
-1.264196165004858481e-05
6.795880456633810211e-05
1.925766940155935775e-04
-1.564314120654391235e-04
-8.784832993199866548e-04
-3.576439220481365637e-04
-4.098964707180045939e-04
-4.750496038628395181e-05
4.544089554711489270e-04
3.331692366813113443e-04
-7.327935835829143358e-05
-5.196121110671697281e-05
1.527077304649729600e-04
-5.090916904835763164e-05
1.066183890580732919e-03
-3.937229823851360710e-04
1.472679324531234947e-05
-1.808757663467873986e-04
7.314356573974598529e-05
2.387161277309642971e-04
-7.672624595164737006e-04
-2.588609867905049657e-04
1.642185333634398319e-03
1.906441594846145469e-04
-1.524752768033451440e-04
-2.736620259285901498e-04
-1.215409427254714631e-04
-3.816728762945507578e-04
-6.446173845765507246e-04
-9.985193618322963423e-04
-4.877513827205936332e-04
1.161593811889566851e-04
4.248024068315379704e-04
4.975133225067057945e-04
8.622819626229517344e-04
-3.366626472204675377e-04
-7.782368137679431886e-05
6.412589859823294655e-05
-1.509106696638491808e-05
-1.282973746401747738e-05
-8.583721403465170488e-06
-6.248531753127014141e-06
-5.234549484719597647e-06
-4.661657306913259604e-06
-1.147663421960549990e-05
7.108981753895561324e-04
1.571002556828390417e-03
-7.847162284481205006e-05
4.040984855888366976e-04
-2.657254818500049591e-04
-9.704509663107552427e-04
-8.310722415542653877e-04
-5.402789052469472199e-04
-2.759838216644120096e-04
-1.124159954895955068e-03
-5.156662491082409988e-04
5.053119078359942328e-05
-2.333544908028891232e-04
7.684975647325626184e-04
-8.067159026091927137e-05
1.410807351216254680e-03
-2.728422380645983023e-05
4.602981744949249010e-04
3.476431895853668470e-04
1.896339714344351499e-04
-1.347863548197482289e-04
-1.564187248158501538e-04
-2.046691879394102790e-04
-4.744168441332588092e-04
-3.595857432293827084e-04
6.104440070273286145e-04
5.475937031095362778e-04
-5.052114117872723428e-04
5.949141963041570556e-04
-5.450285109768462574e-04
9.821871601113787588e-06
-3.529481120486349199e-04
1.645914602858482105e-04
-6.815201251524279384e-04
2.634245187408802789e-04
4.580201566130402539e-04
4.911543527051792386e-04
-1.870717246013172059e-04
-7.486105396630744584e-04
2.400119010718712955e-04
6.131818318585519545e-04
7.105904616749069477e-04
4.403487231644636344e-05
-1.655489449065405255e-04
-1.422528342910284530e-04
-2.980299072557827640e-04
4.964873352487601714e-07
-7.624719667318012985e-04
-2.834577048834675266e-05
8.686945035118112256e-05
-4.724540742038182067e-05
6.388488510792087556e-05
1.587927284540418453e-04
-5.684599811231673693e-05
-5.174098983471972556e-05
-1.253688980573788110e-04
1.184794080027890537e-05
-4.286960836379918264e-05
-9.191462041326315053e-06
-3.364536540034969463e-05
6.791481209702130372e-05
-7.000859671508417566e-05
1.116525092565710807e-05
6.478702869760218465e-05
-8.466532106184023156e-07
4.735295900719401342e-05
6.495525582411279292e-05
1.646218656620443340e-05
-4.475008174844375189e-05
-3.865637074544252879e-05
3.960183238469716210e-05
-8.411912807770371492e-05
-9.891488808749322650e-04
3.016930480705113434e-03
3.721461629639189871e-03
1.611365009180406184e-04
-1.646528534760535923e-05
-8.160901342329778159e-04
-2.007870237040260825e-03
-3.069954073766567246e-03
1.340235360084332744e-03
1.816948738573286818e-03
2.855066023070079121e-04
-2.952318522979354809e-04
-5.803808395026838641e-04
-5.332846044128007048e-04
-7.394515953125393006e-04
-1.294341809438666118e-03
-1.426275166101319183e-03
-2.434289123856066533e-03
-3.974830549153503321e-04
3.062308822185340123e-04
6.613787253414473962e-04
-1.125768227268502493e-03
-2.159120389099766020e-04
4.632118003491231782e-03
4.131345608940028527e-04
2.622121244109548374e-03
2.011552640696055022e-03
1.752282111638343398e-04
-5.142993232113014356e-04
-1.201196254705068312e-03
-1.619780460069012535e-03
-1.886760618878058956e-03
-7.262622828594290014e-04
-1.117445329720848828e-03
-2.889994635810655865e-04
6.973197266681575683e-04
7.619867391768901394e-04
-5.665220227312983648e-04
-4.131842350057248750e-04
1.653106868053320086e-03
-1.753815207408178671e-03
3.567925820636461999e-03
2.698510250899753549e-03
9.015875021603451250e-04
-1.221462818886544710e-03
-1.432948514097553451e-03
-1.405067781345125180e-03
-1.354729251959164733e-03
8.534609424433185071e-03
5.766478716868035648e-03
6.442997752039205869e-03
-1.274565032056340511e-03
-4.253151455869259162e-03
-4.951934699678567538e-03
-5.203550647134522547e-03
-5.060884058601743118e-03
-5.561771444333739637e-05
-8.359816366900857084e-05
3.297127440474976329e-03
-1.418412011834730921e-04
-9.862383860007243978e-04
-5.028056090603099390e-04
-7.034573246334827447e-04
-8.235690414846406080e-04
1.938371346892710017e-04
7.554118055501072182e-05
2.773434704797337756e-04
1.191977512093779913e-04
1.282732418139763777e-04
-2.071960976366795434e-04
-3.583987741183225647e-05
-5.511568036988583530e-04
3.368693008951491590e-05
-3.096105532911941975e-06
3.913676919241687807e-04
-9.315318776876122680e-05
-7.136277914375722877e-05
-6.095312911780500711e-05
-5.542608112941836983e-05
-1.410633393210299611e-04
5.629863049022642234e-05
5.167120869948350372e-05
-2.245335078929490652e-05
-1.708041248706615334e-05
-1.351329454826892278e-05
-1.155184358501163750e-05
-1.047253978705833401e-05
-3.289839799301003798e-05
-2.129220532088656908e-04
1.007642670841608446e-04
5.301599933866677286e-04
8.823616739350174292e-05
-4.427810459365586490e-05
-1.631495830290135424e-04
-1.872763179641416705e-04
-1.115343690686538864e-04
3.761784095898726139e-04
1.015674407915261946e-03
-2.567709391339299883e-04
1.178830314835173408e-04
-2.389827630430023961e-04
-1.658940126034716325e-04
-5.513873555499188098e-05
-7.929493986532566057e-04
4.030984725231974452e-04
8.018709475430916157e-04
7.348881040614778067e-04
-3.249375952414982585e-04
-2.584378074844203448e-04
-2.344273320558408556e-04
-4.110044660155558129e-04
-7.110503233304512434e-04
5.013267102131311074e-04
6.792712432056585833e-04
4.825298304581034222e-04
-1.743526357163240311e-05
3.756073077224960413e-05
-2.968351975256341545e-04
-8.011602961416461246e-04
-5.852577574102288795e-04
-7.911307403608017685e-05
-1.810376826128933967e-04
9.047295568541757304e-05
4.928146972319914906e-04
2.657483584825984482e-05
-9.533656399064365319e-05
-5.557961191866593816e-06
-2.488172069341850379e-04
-2.381459382347916344e-04
1.403314637107968069e-03
2.786869293992883185e-04
3.327631373988549604e-04
-8.311798351499090050e-04
-6.097166404472688416e-04
-8.765014994868049062e-04
5.407792094126626873e-04
-2.310826822349588690e-05
1.111953102647608184e-04
-2.705695217260697537e-05
-1.532366353374931678e-05
-1.063668288167313221e-05
-8.840110602892230194e-06
-8.035322435586602637e-06
-1.819431041475661165e-05
-1.004073367197158605e-04
7.964593385664879002e-04
-1.643869112895447824e-04
1.552564605087375805e-04
2.524752061433065782e-04
-2.318418111964674932e-04
-2.120311608818570477e-04
-4.955237851309477696e-04
4.632602613276275128e-04
4.491702344616661032e-04
3.231781957356352482e-04
-1.711269861658636386e-04
-2.793958732419167014e-04
-7.905345296789797582e-05
-2.042913767093952854e-04
-5.017410024398553849e-04
-3.374599155908087185e-05
3.920892659219185248e-04
1.950426236785031365e-04
4.251188470825141498e-04
-4.809911614553301199e-05
-1.855806984681531834e-04
-6.683401790238205494e-05
-6.779909126077864924e-04
-5.479607933093883464e-04
1.361591291273768880e-03
9.923720218412311264e-04
1.872580372029928719e-04
-1.824838357107448226e-04
-3.500210917072233059e-04
-2.828530606902496572e-04
-1.177902568900386854e-03
1.352711701345030593e-03
-5.568532427954730606e-05
-2.618275530186463512e-04
-2.114636067297855310e-04
-2.116634996126296516e-05
-4.724707943369210359e-05
-1.739543434583845172e-04
-5.813674444637117718e-04
1.808944618703515334e-03
7.728532441466465577e-03
3.177754563315800121e-04
-3.010056986313984690e-04
-1.693046169460666554e-03
-1.880839759841945475e-03
-2.060835230562214297e-03
-3.919525658005330870e-03
6.539966526210022092e-03
3.693250587661283703e-03
-2.520157121937875245e-04
-2.503202371756694383e-03
-2.416664333211753554e-03
-1.786189028269078360e-03
-1.981748432577361274e-03
-1.293397235862628857e-03
4.153607010385635193e-03
-2.319104856402803925e-03
-9.348830952571524945e-04
-2.109812458630619132e-03
-2.846212103255288742e-03
-2.157369950840548785e-03
-2.466978923751536948e-03
8.680754377752319603e-03
0.000000000000000000e+00
0.000000000000000000e+00
0.000000000000000000e+00
0.000000000000000000e+00
0.000000000000000000e+00
0.000000000000000000e+00
0.000000000000000000e+00
0.000000000000000000e+00
-3.772263112658968834e-04
1.703076908410014944e-03
5.292768435705034547e-04
-7.286452693811997340e-04
-3.715797758220834167e-04
-1.255960784174888628e-03
-1.281817875930787521e-03
1.782876264594337404e-03
-1.938628058054522798e-05
3.129213077343410152e-04
9.574236676564009481e-05
2.595539832180859276e-04
6.628703918562467521e-04
-2.985818856714755439e-05
-5.639339561197914902e-04
-7.179096243068300558e-04
3.592744935795313889e-04
-5.707906461352779334e-04
7.709102560752216320e-05
-3.015997473439203068e-04
-5.448709383071720109e-04
-4.279066438803424141e-04
-5.467245733149870158e-04
1.955527029794645356e-03
7.674136203309092456e-04
4.713213961313409903e-03
1.300089578347421969e-03
6.755293224147943150e-04
-2.590549635050950344e-03
-2.072145048917329885e-03
-3.253545960584823538e-03
4.599941621465614507e-04
-3.627326082880005320e-04
-1.010609220905486164e-03
-5.325357286748018089e-04
3.280684124583190355e-05
-5.957670795174299433e-04
-1.063687749864972425e-03
2.021589719644918269e-04
3.330366574040367292e-03
-1.025518281616890834e-03
1.113691937922808850e-03
2.373648630618445821e-03
-3.943678230868207738e-04
-1.138124760560041068e-03
-8.018487496584055267e-04
-7.728420296345636133e-04
6.453610760154682288e-04
2.159329828236831745e-03
8.707551648872951904e-04
-1.174224911513138377e-03
-5.997422857760016093e-04
-4.933422815550187954e-04
-1.283023844587099799e-03
-2.210094520581201965e-03
2.730342850888333069e-03
-1.323734572165876765e-03
1.691297716151538705e-03
4.065559053363121920e-03
7.898527387652274452e-04
-9.031475809375807875e-04
-1.693880939130648503e-03
-3.730351471543834601e-03
1.104405055498054213e-03
2.815513128841671446e-04
7.707316130620771549e-05
2.092441701456141686e-05
1.405263775244094688e-04
-6.527770791873713154e-05
3.824689916271201639e-04
-3.832286489549978641e-04
-4.540379034827305414e-04
-8.019859556475299276e-04
-1.322600239257998289e-04
2.233880091592205925e-04
3.254012717391207990e-04
-1.163103337970132228e-05
2.070650750298231311e-04
-4.523906282359561469e-05
2.352617198484618542e-04
5.433583624803562480e-04
-1.378496748898517957e-03
-6.385655773081957238e-04
3.779608090058242522e-05
-5.601193490008994505e-04
-6.006204209286486592e-04
1.198398363731224001e-04
2.476807816382201131e-03
-3.727823820410127538e-04
-1.170222764151187915e-03
-2.968151802559593932e-05
-7.443675281666869373e-05
-3.648308202029973462e-05
7.449611310715418969e-04
-6.221767317129880525e-05
1.000863041154521470e-03
-6.409301632250873678e-04
1.558517668751035383e-03
1.096999751390501907e-04
1.173566965927016857e-04
-2.256463288950703996e-05
-5.788172909638715112e-04
-3.391824694280305653e-04
-2.040797839762924356e-04
-2.147274229060286161e-04
5.262025088559331128e-04
1.068697959884148664e-04
-1.336720028809314860e-04
-3.278111000340441002e-04
-1.899648035055647225e-04
-4.562484591978865022e-04
6.893514836801071903e-04
4.400474435631017862e-05
8.077871108968713533e-04
-7.191569427873402831e-06
1.258360882280860167e-04
-3.823914103763149529e-04
-4.304041774343660902e-04
-5.652633276106882373e-04
4.076225413679756843e-04
1.469972677613655453e-03
-1.255681705804810675e-03
-1.222903912423582880e-03
-4.723925569375566464e-04
9.391457159126248989e-05
5.875181402287329036e-04
-2.160128442160391617e-05
8.211740701539013872e-04
-1.282580584826352671e-03
4.452314664370069126e-03
9.841725042794044302e-04
-1.102894225834195408e-03
-7.840209976053154860e-04
-1.313063976293588021e-03
-1.247297783972011083e-03
2.933703998819860224e-04
-3.369897278827796959e-03
2.075525540761926063e-03
1.886067986527288414e-03
7.008046446131302020e-04
-8.896144087848412878e-05
-8.016213605082291461e-04
-8.265667079008347804e-04
4.246486162129981261e-04
2.693946808297663733e-04
1.408145543288840968e-03
-1.210215835800522704e-03
-1.216596095998916409e-03
-6.816233528891503177e-04
-1.693350512863879553e-03
-2.059139036576991197e-03
5.183384610010850942e-03
-8.288920874941976694e-04
3.239216410686111911e-03
2.830370234873737668e-03
-3.100723011796828596e-04
-1.670406195276495859e-03
-1.347878751359099774e-03
-2.502395085931639115e-03
5.900577756812711190e-04
9.292367461809752764e-05
1.417166060666093979e-04
1.609243437939688042e-04
2.945922660549889541e-04
3.223592779307077669e-05
-2.607806464199350564e-04
-3.085112515893712179e-05
-4.307610467478635466e-04
2.660261124907113976e-04
-5.301910587323005507e-04
-9.487688854890232045e-05
-2.102819798986018101e-04
2.256176285282635930e-04
-5.480507137510579171e-05
-2.326618917791497664e-04
6.311731493150853165e-04
3.242143837974117353e-04
1.885771196875345515e-03
6.381487175498212674e-04
-4.211844149260248111e-04
-5.210591289211000728e-04
-5.258630700351742777e-04
-5.651830398346329061e-04
-8.148446445056477510e-04
7.814488947067687588e-04
5.542292042002371728e-04
1.375764263469804157e-03
-1.123590828768017370e-03
-5.158144417796284688e-04
-5.883883712401286091e-04
-6.936543267860110487e-04
2.100056061969766009e-04
-3.031324585968115347e-03
7.034858104142609854e-04
2.128968445277899368e-03
-2.946181074751990053e-04
-3.199906259518443710e-04
5.079408674059103556e-04
-1.091861120115034632e-03
1.397399316412124056e-03
-5.104881761242101822e-04
1.321573339234707314e-04
1.820637921908613635e-03
8.381862207741207335e-05
-1.353782866474911883e-04
-3.331679503480938298e-04
-3.567133373243256290e-04
-7.008661274653779551e-04
-2.097043098766995599e-04
-6.991371234809906892e-04
-6.078544356581213384e-05
4.951496684188557047e-04
2.216205480485347861e-04
1.732013215928999311e-04
-4.111148826325526656e-05
1.207668271264674716e-04
1.335193582869401217e-04
-6.151175162524847846e-05
-5.201266907006529979e-07
4.756835842715673179e-05
3.615754119823805902e-05
6.517737614456557097e-05
-6.934719347722977361e-05
-1.510435622637215679e-04
-7.523175504023760880e-04
1.676467170727976089e-03
-7.149759422310932695e-05
2.551965330837928348e-04
-1.464068015679314356e-04
-1.085819076057786418e-04
-3.894862799018057034e-04
-4.633735701107681072e-04
-1.303222686864967340e-04
4.517635900967020704e-04
3.072688165589994801e-04
-2.337830455495789955e-04
1.703220823991985348e-04
-4.901034518441840912e-05
-1.571641055749387126e-04
-3.590747240594680608e-04
1.180732437101724699e-03
1.347611523040726476e-03
-3.548020867752669670e-04
-7.927007993880923111e-04
-1.662751265865715909e-04
-5.301314889464943869e-04
-7.945574570992444035e-04
1.101229986532178197e-04
4.350539768425677961e-04
-3.167348507242087369e-04
2.742306337150533964e-03
1.572726550457358824e-04
-4.464522500608816293e-04
-5.946928741439304897e-04
-6.700551918528522026e-04
-1.306697802256964963e-03
-1.357783453953378353e-03
-5.876663584397573073e-05
1.038347607484146114e-03
2.649349910373715602e-04
2.138722779464046766e-04
-2.476449485688256356e-04
-4.005746176016623068e-04
5.476147794999189095e-04
-7.610024703784255438e-05
5.394222406921308447e-04
-1.324043557678732520e-04
-7.004127851629391973e-05
-2.946153003789962234e-04
-4.178409077805765636e-05
-1.408013986594928372e-04
2.163244304464255713e-04
7.262469005380167144e-04
1.776161994627377481e-03
2.720830161513602551e-04
-4.597916713401635036e-04
-5.663299868203012198e-04
-4.968387198652759931e-04
-4.703356588730911794e-04
-7.811958744179221207e-04
-7.269717890666475011e-04
-9.504865763916459532e-04
-8.670311208690423006e-04
-5.263848281532226142e-04
-3.977603859791321601e-04
3.648933426961792863e-05
6.523159308531367500e-05
3.366913773104759922e-03
-2.396124434578810348e-03
3.174500712665277290e-03
2.489722773695526685e-03
-2.420949292129642673e-04
-6.873825735085632846e-04
-1.471580107777025262e-03
-6.415657624519058386e-04
-2.254756788315359780e-04
-7.537724856545344838e-04
4.519826007428228397e-03
9.099223291250791530e-04
3.930547131380034511e-04
-5.919354930360903920e-04
-9.272364860454334039e-04
-7.719249190147252186e-04
-2.777933665940528207e-03
-3.378687094806696466e-04
3.964002540327059895e-05
2.403907246604124540e-04
1.485266228975027638e-04
3.658140859903187656e-04
-3.259252102837559783e-05
-3.417795352371292574e-04
-8.213069320532995850e-05
7.518759670005272801e-05
4.332908832684391497e-04
2.164767819994711513e-04
-3.717707181341528788e-05
-6.620433854971427731e-06
-7.688890565124067370e-05
-3.389071121338571308e-05
-5.703781394349498801e-04
1.473035431576557295e-05
-1.808990059639835563e-04
5.993855374399117286e-05
1.149031309771877214e-04
3.037623154205835964e-04
2.355888012769358900e-05
-4.002781467700721211e-05
-2.959664139442307182e-04
-1.870880432314441085e-04
1.342186177783696822e-03
1.729712635972292627e-03
8.062631692357198274e-04
-1.139500926501393506e-03
-5.647542842930666209e-04
-1.215434787802625481e-03
-7.713839411631791265e-04
-3.034530088891162393e-05
-4.074174340256275643e-05
3.930215794694864905e-05
4.963004948362661892e-05
-1.960325117262626176e-05
-1.685514738638571968e-05
-1.534286950998690638e-05
3.395610492989798666e-05
-4.425160854962689760e-04
2.090023758214044382e-03
4.905541048434497106e-04
4.116005649913014952e-04
-1.522487722461964975e-04
-5.960927646560977696e-04
-1.079432942806259023e-03
-7.218878628439721022e-04
-2.687901601929030301e-04
3.652767395114353468e-03
1.373842196901645931e-03
-2.344332007913293742e-04
-1.124311442654297348e-03
-2.284121291608343443e-03
-1.714502394214373945e-03
5.995488974452433230e-04
-6.804411971648608804e-04
-1.137402392067098653e-03
-1.004444913370773499e-03
-5.144354445597123290e-04
-2.873895049725204323e-04
-6.249123965946427970e-05
-2.412071400686154889e-05
3.710725405801290362e-03
-1.418757774141769714e-04
2.719312588309396412e-04
2.110262319264285917e-04
-1.218973185190092251e-04
1.308195651943499626e-04
-8.064620072689322326e-05
-7.320038603412098728e-05
-1.961573732575176937e-04
-9.000573839895287915e-05
1.645648772929484023e-04
1.810077850699618764e-04
8.472106625536393815e-05
-3.407484973520421705e-05
-9.419528557555424068e-05
-1.073131512748457526e-05
-2.012865397810783251e-04
5.451572980846885498e-04
1.178041561775376332e-03
1.222670433157177581e-03
-8.011832409605405998e-04
-6.766399207522768699e-04
1.113081815039411617e-04
-4.666837447908237587e-04
-1.112670568017543873e-03
-3.795741288895157408e-05
5.187996754491225413e-04
6.273594605618505336e-05
-1.815672852472621627e-04
3.841310120357144920e-05
-1.551494043841302004e-04
1.144671697820655025e-05
-2.567213371667412605e-04
5.009286640143918642e-05
-5.822464262104665053e-05
3.955262576597477390e-05
1.505718691365017610e-04
-5.417923665031099849e-05
-4.521696060450218117e-05
-4.046146119264390034e-05
-4.213506023541213304e-05
-5.961229657298329444e-04
-8.789173134658987471e-04
-6.370196520837913224e-04
-3.727016880607458794e-04
-1.022613372580386372e-04
-2.158606484646975309e-04
4.829321690071910583e-05
2.754590388162286938e-03
1.266936311613188568e-03
9.428206949305271067e-04
1.250258821968651315e-03
-3.306567826050071392e-04
-6.386624281779734562e-04
-5.342579479146730833e-04
-5.944056799735699618e-04
-1.362032989841144162e-03
-3.490165352221498646e-04
-2.157728938083421997e-05
-2.984480840744680222e-04
1.700950736100859258e-04
-4.505927408398928619e-05
-2.462743346054675948e-05
-2.792217249004052344e-04
8.478552675123078846e-04
-4.867284830425054826e-04
-3.984349197259072235e-04
-1.642098698015213485e-04
1.891149485494193414e-04
-2.867413729196428363e-04
-3.382154072060879679e-04
-7.545989982675896421e-06
1.492761094128921672e-03
-1.127667925168910181e-03
-7.949074869901515171e-04
4.992477690913849509e-04
2.368348955333172533e-03
-3.220003750512954338e-04
-1.470273291649349225e-03
-7.501924976554602466e-04
1.597444852090603752e-03
1.377438012384541019e-03
9.438379290808674663e-04
1.473798922945763340e-03
7.959015834171854478e-04
-1.599544898513443171e-03
-7.433849895432027323e-04
-2.794004975819653052e-03
5.459584160479411408e-04
-1.879794566137527869e-03
-3.278554307227085418e-05
2.101655224309214014e-03
2.468148459147123403e-03
1.850120643890734967e-04
-6.213144076846140217e-04
-4.298543118010181860e-04
-1.791066919149981399e-03
3.740940087078213020e-03
1.326304479000378796e-03
1.753629165889360013e-03
-1.639210529500197480e-03
-1.166354643520343438e-03
-1.532735740228400407e-03
-1.584889772083443969e-03
-8.976830466355688104e-04
-9.791768788353859797e-04
-4.943662255449540136e-04
1.068890581979780414e-03
1.688263491304261123e-03
1.417583006726478786e-04
-5.745503803439558268e-04
-7.596165058340485429e-04
-9.120238339834598796e-05
1.557060480186191458e-03
-1.937941751460076501e-04
1.767347475989110598e-03
1.002565027888451064e-03
-8.658795787016554521e-04
-3.269269185262436246e-04
-6.120236979091525122e-04
-2.328348613780695589e-03
-2.604271232442717542e-04
-6.656225932866252767e-04
3.263918240739665491e-04
6.071589035933050004e-04
1.568446868122760289e-04
-8.701962994355010809e-04
-3.501163599467769946e-05
7.408622374815281584e-04
-4.620017709090867538e-04
1.502629076097848409e-03
3.056589025969089365e-04
-4.182683334997259507e-04
2.686353473922239608e-04
-4.604015897899100380e-04
-6.029064297492750697e-04
-1.333452021389830335e-04
-6.778038089997568761e-04
9.395891072949120017e-04
1.939151416773148180e-03
5.993558365320593315e-05
1.841024443546855952e-04
-6.129544600589114040e-04
-3.424187790432981198e-04
-1.489601503973986578e-03
-6.986963225707211716e-04
-1.101875252505710992e-04
4.355789730705754469e-04
-5.333339136811840811e-04
-3.231130087158176536e-04
-5.457597696393056325e-05
-2.299818498898351365e-04
1.514309624001483872e-03
1.356119365196965364e-03
-2.435337368837695666e-04
-7.934695768554108123e-05
6.238179663491577381e-04
4.556179075386670990e-05
-1.585185088422702288e-04
-2.947894935855948674e-04
-1.249310425302813153e-03
-1.967533755905960305e-05
-4.727424681907205895e-05
4.076882761936462181e-05
1.476289371781597465e-04
1.708838832704213931e-05
-4.865995834075527985e-05
3.121125691658423553e-05
-1.210878673222638149e-04
8.431301466106029844e-04
1.264705586265893120e-03
8.681882922640114840e-04
-3.828238622464788781e-04
5.455289648929327910e-04
-6.874146181923313252e-04
-9.296756721919570768e-04
-1.521638837402674617e-03
1.125015688643170959e-03
1.805946837572465274e-03
2.487170535021781897e-04
-9.064534254807840043e-05
-5.722010968842386881e-05
-4.862500475934059701e-04
-7.379280551570536204e-04
-1.807636024730850015e-03
-4.480149156844865114e-04
4.506203420219941059e-04
2.132286129259667803e-03
2.361833330411793226e-04
7.033295756697982223e-04
-2.952589717673555062e-04
-7.191153907745950714e-04
-2.060030101766205293e-03
2.040658110048262919e-03
2.976350276186919691e-03
3.898685516230983024e-04
1.456323838724019959e-03
-1.078587807654561494e-03
-1.664864562481216392e-03
-1.228270442711154251e-03
-2.891477963735369656e-03
-8.561003393930155829e-04
-1.044365152487428073e-03
-9.724343783305030957e-04
-5.931805231462849819e-04
-5.838862563214316766e-04
-5.077843005290061428e-04
-9.609076027150801767e-05
4.653841710479176066e-03
-4.046132184575280651e-04
-4.346855932289509644e-04
2.092723146622252968e-04
3.695647661278616864e-04
-1.298951555829986487e-04
4.337209233273291056e-04
-3.346522272218368393e-04
2.912881903738986185e-04
3.839134912021073586e-04
1.389688969628265301e-03
2.240906445407519435e-03
-5.768823057087314656e-04
-7.134925501310906710e-04
-8.955299615317375292e-04
-6.155209590427206069e-04
-1.213083129823610195e-03
-1.397188690512792073e-03
-1.336115980049007576e-03
-5.777691902702242763e-04
6.732110114970666151e-03
1.592618725894074088e-03
-1.535496583780488920e-03
-2.363922423531959575e-03
-1.114235972720268144e-03
-1.705136377426777873e-03
-2.558988447561149054e-03
-1.636439468142619671e-03
2.187462588279345582e-04
-3.727059857173432834e-04
-7.146639165958640263e-04
-7.164935511813314646e-05
6.840837291733951886e-03
4.782167730758324657e-04
2.023218367411011142e-03
1.596104096524373879e-03
-6.187399754949325387e-05
-1.052274951740988932e-03
-1.321171184081795487e-03
-4.580165253170441508e-04
-1.204202578321894850e-03
-1.719015697638489140e-04
9.137181827518879454e-04
7.777976372238049659e-04
7.583506786855411181e-04
-2.227555796112735726e-04
-2.933729016019776697e-04
-1.199930123025160248e-03
-5.619063246589715106e-04
-1.003986912695171724e-03
2.476080243813091539e-03
-5.873947694984909488e-04
2.133676171596394252e-04
-7.773400078824260024e-04
-9.109353574399121738e-04
-7.657426319818064339e-04
1.355951818525076916e-03
-2.442766366448668471e-04
-3.345487884565459254e-04
-2.058570521561061122e-04
-2.045063508746276890e-04
-1.624572727427672206e-05
-7.289747789635905883e-05
-6.582385683461996204e-05
1.144155890137402371e-03
-2.406649172518825902e-03
-4.823744974370877854e-03
-5.810805331445433649e-04
-1.829492255287831727e-03
-1.325690671409182023e-04
-1.271257493239187153e-03
-1.211854806191529172e-03
1.225664830189372202e-02
-4.841301132569528864e-06
-3.901970917434537675e-04
2.048876910700973928e-04
1.742870781300474555e-04
-2.430300791650000312e-04
1.327740299203418386e-04
1.694643438130434131e-04
-4.334467089250678161e-05
1.503145507695031091e-04
-2.593112419875828899e-05
-4.669264620035382585e-05
-1.679604372410662544e-04
1.883963027453074645e-04
1.401690247278350606e-04
-7.016808733706732986e-05
-1.681275832654000198e-04
-8.450284937762397863e-04
3.192766006373094854e-03
2.120639836918358084e-03
1.451471898870348130e-03
-1.522252846071203963e-03
-3.246051707706608825e-03
-2.542108186379512039e-03
1.390563491771766580e-03
3.192091761328588913e-03
-1.095797536573191394e-03
-2.288737036500999595e-03
-9.853212321475105732e-04
-1.073879116256310374e-03
-9.463945524294088913e-04
-1.141947747422334888e-03
4.339985460001171032e-03
9.601045386014942992e-03
4.899827376214452648e-03
-1.801952157908407598e-03
-2.635085963679692587e-03
-7.495541765735799083e-04
-3.451295773838095656e-03
-4.754291122867449620e-03
-1.108693567362170271e-03
1.021728565668347799e-02
3.657197692544645706e-04
1.226710947085101313e-03
-2.376539940643285047e-03
-2.072925529784446115e-03
-2.326778283153875179e-03
-2.942455008551806903e-03
-2.091017610889639358e-03
-6.721470807408249423e-04
-8.889649225806334253e-04
-9.281672041491907492e-04
-4.601693232165614982e-04
-5.853411314003777394e-04
-4.208047317252335646e-04
-3.726445210580984612e-04
4.328238914870920218e-03
-1.087969299540457371e-03
-1.345127146400655377e-04
1.207125601772695775e-03
7.433670290150667026e-04
-4.715650589171887976e-04
-2.455944737687976512e-04
-3.385339275138537726e-04
3.276828435926015196e-04
1.553204851012961250e-04
7.086692908289258163e-04
9.484892957165685879e-04
-6.660532544317872717e-04
-4.028291519313180057e-04
-7.387481050567458636e-04
-5.496544806774223508e-04
5.448059204504838299e-04
-1.118389016716129581e-03
-2.088681616541386305e-03
-8.041673304343968046e-04
9.705350632753433158e-04
-1.979287636549164492e-04
-2.923572682752449345e-04
-3.920411385745574645e-04
3.923030070921285431e-03
-1.198450615194264013e-03
1.627513175233986746e-03
2.710315670500374873e-03
-3.998898954887029444e-04
-8.900565557438961783e-04
-2.922170693589182374e-04
-8.004516568201507695e-04
-7.567630531284290970e-04
-5.597197121955336391e-04
-1.497664797139390417e-03
1.011963904088070522e-03
1.355000920135239842e-04
3.100509805138557378e-04
7.287149052609412305e-05
-8.081849821691880877e-05
6.078165404102962204e-04
-2.059987661246234520e-03
-2.052878447458011350e-03
-7.816436436121424738e-04
-7.735946993924160315e-05
9.747601743752851242e-04
4.667949644347793559e-04
-9.348192211802526974e-05
3.623796005563590696e-03
1.421799016090830557e-03
-1.674405425424138529e-03
-2.524999965905339212e-03
-1.545755193586432694e-03
-1.011261303304145966e-03
-4.022644244521705642e-04
-8.435108442350322576e-04
6.580398140816425684e-03
-4.828186090652011007e-03
1.392078328613531937e-02
5.422307403624281909e-03
-1.288043119199456946e-03
-2.856093138322872774e-03
-3.895605025873644274e-03
-4.047380872782320102e-03
-2.427782442929295962e-03
9.917172062857398246e-04
2.421064729908318364e-03
3.080906788464888007e-03
-1.385754608498008167e-03
-1.030846273949676071e-03
-2.598649860679252445e-03
-1.374036817412472482e-03
-1.044011641195340763e-04
-1.547171254823007059e-03
-1.597774753302534005e-03
1.380716281440748676e-03
7.754512132045134239e-04
1.432289572393802550e-04
-5.011089367772660020e-04
-1.158069653108602127e-04
1.462465458329024288e-03
-9.318971607256958806e-04
-9.526223694641733136e-04
-1.067581035859647238e-03
-1.120797679281336485e-04
-5.028910620663357882e-04
-2.159635235845714431e-05
7.038224611204599020e-05
3.518285502290397545e-03
4.945203552078886525e-03
1.251322998912869546e-03
1.272978900175431559e-04
-1.135393552019334489e-03
-1.042770843016555590e-03
-1.124427858537057094e-03
-8.087664771003142674e-04
-2.212465710336037217e-03
5.007855718164388277e-04
-2.885462813470781676e-05
7.026185620273331075e-04
-3.215266639974845297e-04
-4.280721217212661947e-04
-1.011333706158009348e-03
-1.170520159099981217e-03
1.756903145267675473e-03
-1.982484588377774522e-03
1.546527740049541736e-04
2.670941590039107335e-04
1.381154885401354444e-04
-1.124081483449400088e-04
-1.920260743558819194e-04
-8.131133013756666836e-04
2.540169690905262796e-03
-1.288614286638957137e-03
-1.757444499239460252e-03
-1.157675138362265809e-03
1.069647332505877825e-03
-6.912730069000205466e-04
-9.509232185009825009e-04
-5.115594777520722096e-05
4.827438764911017206e-03
3.730658922272452396e-03
-2.933295997897380873e-03
-4.272877080852062470e-03
-1.171280820751592362e-03
-1.649731414238866066e-03
-1.324637480175366953e-03
-2.036369660719964964e-03
9.657533532362774786e-03
-2.268720917916651220e-03
3.105819562681882973e-03
2.489415019683296690e-03
2.986365515703500947e-05
-6.121959050779595757e-04
-1.928924537297030698e-03
-1.926440749932417998e-03
1.111183872701844129e-03
5.479777501292225524e-03
-1.929878504357878050e-04
-7.857932437126720219e-04
-6.775588926741609700e-05
-1.457867165780002416e-03
-1.174322657591932509e-03
-1.690148968704279593e-03
-1.109017258001318427e-04
-7.071765897740075243e-04
2.768420336968076875e-03
4.521755482855819262e-03
1.592975898795391792e-03
-8.100011110015828972e-04
-1.659818106379510423e-03
-1.222061145155125747e-03
-4.484094766309063181e-03
1.040780375027789730e-02
2.475625004907713519e-03
4.790916331786941254e-05
-2.396906078090024598e-04
-2.364867780128098937e-03
-2.537708664154691811e-03
-2.885885657581693450e-03
-4.903185208829996707e-03
-1.259586312210610919e-03
-2.518824232257006832e-03
-6.970299815489976224e-04
6.338915584821599655e-04
5.758547002008352397e-04
3.124933487315347024e-04
-1.308936941901958683e-03
4.262137860504045667e-03
2.001518407787559670e-03
-2.616200716529713550e-03
-1.152283968921422735e-03
-6.026902550600989278e-04
-2.388287641980991268e-04
4.077386265776751528e-04
-2.995385457337231493e-04
2.500285216077824130e-03
1.167252224892439440e-03
9.068698026190787423e-03
-5.414515129806571694e-04
-3.376583394526684601e-03
-1.666723336015131897e-03
-4.038996236420178999e-03
-4.607944158303288983e-03
3.995748387162718906e-03
2.831386750274927228e-04
-6.149276623466302634e-05
-2.926890404040264270e-05
-6.329561511262717100e-05
-4.618892048749040786e-05
3.567230878742953847e-05
-3.655649355929286903e-05
-8.200828438044622561e-05
3.011681951450115736e-04
1.522449727923922682e-03
2.112536906995748833e-03
-1.213399935036965811e-03
-1.256405955090621760e-03
-1.948416693987777741e-03
-2.523029349565674134e-03
3.005097103616352888e-03
-7.682544005806302514e-05
-9.448003850878679321e-05
-8.498108427448633386e-05
-6.619078376442442946e-05
-5.476293161749502326e-05
-4.931744128405197232e-05
2.899471872802700484e-05
3.975630007792805318e-04
-1.721184481135018931e-03
7.073350019878433918e-03
1.878565124146838869e-03
9.646821596364619448e-04
-1.758297849252035911e-03
-3.127071680559136320e-03
-4.554549487526497221e-03
1.244506194810955603e-03
1.012520917263892597e-04
3.012288590051995663e-03
3.859676234242325659e-04
5.616392977120776000e-04
-6.663493569844927689e-03
-7.829815767822016423e-03
-7.398444502984060332e-03
1.783060623773631559e-02
-6.731419160790661589e-04
-1.133600855275631149e-03
2.257535348174229107e-04
-1.759477458758857142e-04
-1.849490707938963169e-03
-1.544231432203163308e-03
-8.309066361935989577e-04
5.981565758748886089e-03
-2.785696174623984375e-03
7.974503242078224844e-04
2.546490788105015488e-03
-3.205407984486317733e-04
8.394040041977428226e-04
-2.148189266744235588e-04
-1.187640541745961899e-03
3.253513249824191043e-04
3.803125109965783957e-03
1.725817226668036161e-04
1.393662159932533302e-03
-1.986770338444205069e-03
-1.679542084863428581e-03
-1.849667078861146063e-03
-1.555993516783987004e-03
1.702604026387642428e-03
5.996316218723264993e-03
9.766876006990946740e-03
5.509698885899100979e-03
-3.311495545733086129e-03
-3.036424883640872954e-03
-5.742015338073228753e-03
-6.348337553280259185e-03
-2.834617790885850079e-03
7.612815128305914060e-04
1.632917266656175445e-03
1.158293538287911983e-03
-7.622586352153805454e-04
-1.205000832409391541e-03
-5.252098699461666504e-04
-8.824531571556340492e-04
-1.775698230481083525e-04
-6.036025549714621463e-03
4.973219626236075226e-03
5.573159058834612802e-03
-6.384874947075941994e-04
-1.746261908620950869e-03
-1.548585598144631374e-03
-1.301778000112912680e-03
7.247598662300251595e-04
5.159097703117954993e-03
-3.296051239855374532e-04
-2.021644291935082837e-03
1.228260087306527358e-03
-1.161639594034789358e-03
-2.644943041402991572e-03
-1.305558273049429487e-03
1.076032533983344074e-03
-2.260091343315470767e-03
9.625773665143203548e-04
4.259280118700923927e-03
-5.399186491685813204e-04
-1.362372976804305776e-03
-2.347536687522552672e-04
-8.952341785132131779e-04
7.051333133858281245e-05
-9.054327063313065546e-05
1.513728065915963164e-04
5.180609406135734094e-06
4.836281715931431218e-04
6.221045502962719350e-05
2.244441357941273207e-04
-3.277981320866653033e-04
-5.084947756948336294e-04
-1.652120222777447725e-03
5.029904924431835740e-03
1.450275590559854709e-03
1.833292433466391508e-03
-1.814331826942227558e-04
-1.494941942149946666e-03
-1.795439787383670653e-03
-3.189537813452790905e-03
-1.213644322694236644e-04
1.207624601351566142e-04
-8.099391181021541400e-05
-4.059056181235283386e-05
1.431354204834653082e-05
-3.854415632573201779e-05
-1.034793368891688000e-04
2.498963969233893869e-04
0.000000000000000000e+00
0.000000000000000000e+00
0.000000000000000000e+00
0.000000000000000000e+00
0.000000000000000000e+00
0.000000000000000000e+00
0.000000000000000000e+00
0.000000000000000000e+00
3.644098460357260145e-04
6.230900300667496262e-04
4.001393565153242462e-04
4.699701435103386510e-04
-2.978026652792398524e-04
-4.322169567816227576e-04
-3.116367159590171252e-04
-8.159530381082587486e-04
-5.387225461897137335e-04
-1.241074170212161203e-03
-6.519131120336150824e-04
-4.831464296913991598e-04
3.982698295936398553e-04
3.594390741910327919e-04
2.287834361822884571e-04
1.928363918159926990e-03
6.001832521287479025e-04
1.065583886221942124e-03
2.411571737401139656e-03
1.684922294697043183e-04
-9.084959933262070362e-04
2.652316788785746553e-05
-1.334810757313235636e-03
-2.029047522469946182e-03
3.434422022567607739e-04
2.123034023445470164e-03
3.381362681496669705e-04
2.163553111251298618e-04
-1.245606082117717804e-03
-9.678209232662346104e-04
-7.063097754687106379e-04
-1.012310241243660454e-04
-9.536828090973316352e-04
1.261424670531799495e-03
4.792793130190737042e-04
-1.264196165004858481e-05
6.795880456633810211e-05
1.925766940155935775e-04
-1.564314120654391235e-04
-8.784832993199866548e-04
-5.090916904835763164e-05
1.066183890580732919e-03
-3.937229823851360710e-04
1.472679324531234947e-05
-1.808757663467873986e-04
7.314356573974598529e-05
2.387161277309642971e-04
-7.672624595164737006e-04
-2.588609867905049657e-04
1.642185333634398319e-03
1.906441594846145469e-04
-1.524752768033451440e-04
-2.736620259285901498e-04
-1.215409427254714631e-04
-3.816728762945507578e-04
-6.446173845765507246e-04
-3.818945454596279587e-04
-5.193131511971499402e-04
-1.339385540637219086e-04
-8.768034559813484106e-05
1.549950638932207406e-04
5.669066811741006826e-04
1.347152282339191638e-04
2.662096230173945088e-04
-6.166248163726678957e-04
3.156176847655636124e-05
2.500979352526786479e-04
5.124827524296724727e-04
3.425182586134848913e-04
2.953752814488508349e-04
-4.713778754543869725e-04
-3.440333043941887735e-04
6.412589859823294655e-05
-1.509106696638491808e-05
-1.282973746401747738e-05
-8.583721403465170488e-06
-6.248531753127014141e-06
-5.234549484719597647e-06
-4.661657306913259604e-06
-1.147663421960549990e-05
-3.576439220481365637e-04
-4.098964707180045939e-04
-4.750496038628395181e-05
4.544089554711489270e-04
3.331692366813113443e-04
-7.327935835829143358e-05
-5.196121110671697281e-05
1.527077304649729600e-04
7.108981753895561324e-04
1.571002556828390417e-03
-7.847162284481205006e-05
4.040984855888366976e-04
-2.657254818500049591e-04
-9.704509663107552427e-04
-8.310722415542653877e-04
-5.402789052469472199e-04
-2.759838216644120096e-04
-1.124159954895955068e-03
-5.156662491082409988e-04
5.053119078359942328e-05
-2.333544908028891232e-04
7.684975647325626184e-04
-8.067159026091927137e-05
1.410807351216254680e-03
-2.728422380645983023e-05
4.602981744949249010e-04
3.476431895853668470e-04
1.896339714344351499e-04
-1.347863548197482289e-04
-1.564187248158501538e-04
-2.046691879394102790e-04
-4.744168441332588092e-04
-3.595857432293827084e-04
6.104440070273286145e-04
5.475937031095362778e-04
-5.052114117872723428e-04
5.949141963041570556e-04
-5.450285109768462574e-04
9.821871601113787588e-06
-3.529481120486349199e-04
1.645914602858482105e-04
-6.815201251524279384e-04
2.634245187408802789e-04
4.580201566130402539e-04
4.911543527051792386e-04
-1.870717246013172059e-04
-7.486105396630744584e-04
2.400119010718712955e-04
6.131818318585519545e-04
7.105904616749069477e-04
4.403487231644636344e-05
-1.655489449065405255e-04
-1.422528342910284530e-04
-2.980299072557827640e-04
4.964873352487601714e-07
-7.624719667318012985e-04
-8.466532106184023156e-07
4.735295900719401342e-05
6.495525582411279292e-05
1.646218656620443340e-05
-4.475008174844375189e-05
-3.865637074544252879e-05
3.960183238469716210e-05
-8.411912807770371492e-05
-2.834577048834675266e-05
8.686945035118112256e-05
-4.724540742038182067e-05
6.388488510792087556e-05
1.587927284540418453e-04
-5.684599811231673693e-05
-5.174098983471972556e-05
-1.253688980573788110e-04
1.184794080027890537e-05
-4.286960836379918264e-05
-9.191462041326315053e-06
-3.364536540034969463e-05
6.791481209702130372e-05
-7.000859671508417566e-05
1.116525092565710807e-05
6.478702869760218465e-05
-7.843668462650143277e-04
-1.171991676861289721e-03
5.659410591770608562e-04
8.621715478360394817e-05
2.127052638334408162e-04
-2.345673101559832318e-04
-4.988589349838880825e-04
1.824921290472070190e-03
-9.891488808749322650e-04
3.016930480705113434e-03
3.721461629639189871e-03
1.611365009180406184e-04
-1.646528534760535923e-05
-8.160901342329778159e-04
-2.007870237040260825e-03
-3.069954073766567246e-03
1.340235360084332744e-03
1.816948738573286818e-03
2.855066023070079121e-04
-2.952318522979354809e-04
-5.803808395026838641e-04
-5.332846044128007048e-04
-7.394515953125393006e-04
-1.294341809438666118e-03
3.908716357775148496e-03
4.597221695214521878e-04
-1.542397694512435665e-03
-4.311656006818296986e-04
-9.332571322055340087e-04
-1.519560241945145870e-03
-1.188127278687778126e-03
1.246069420736123281e-03
3.508740529242534555e-03
1.828109434263520830e-03
1.431970766755274582e-03
-8.624952178624017453e-04
-8.218430780561624977e-04
-1.886110914105746262e-03
-1.405075327540631540e-03
-1.793296192696385103e-03
-1.426275166101319183e-03
-2.434289123856066533e-03
-3.974830549153503321e-04
3.062308822185340123e-04
6.613787253414473962e-04
-1.125768227268502493e-03
-2.159120389099766020e-04
4.632118003491231782e-03
4.131345608940028527e-04
2.622121244109548374e-03
2.011552640696055022e-03
1.752282111638343398e-04
-5.142993232113014356e-04
-1.201196254705068312e-03
-1.619780460069012535e-03
-1.886760618878058956e-03
-7.262622828594290014e-04
-1.117445329720848828e-03
-2.889994635810655865e-04
6.973197266681575683e-04
7.619867391768901394e-04
-5.665220227312983648e-04
-4.131842350057248750e-04
1.653106868053320086e-03
-1.368508100847147741e-03
4.520491595056011155e-03
1.681420271782505015e-03
1.006490375104556649e-03
-1.712301591974879980e-03
-1.567212043761854936e-03
-1.176833535420720089e-03
-1.383546969938470074e-03
1.377438012384541019e-03
9.438379290808674663e-04
1.473798922945763340e-03
7.959015834171854478e-04
-1.599544898513443171e-03
-7.433849895432027323e-04
-2.794004975819653052e-03
5.459584160479411408e-04
-5.561771444333739637e-05
-8.359816366900857084e-05
3.297127440474976329e-03
-1.418412011834730921e-04
-9.862383860007243978e-04
-5.028056090603099390e-04
-7.034573246334827447e-04
-8.235690414846406080e-04
1.938371346892710017e-04
7.554118055501072182e-05
2.773434704797337756e-04
1.191977512093779913e-04
1.282732418139763777e-04
-2.071960976366795434e-04
-3.583987741183225647e-05
-5.511568036988583530e-04
-3.853071065610312552e-04
-9.525657744195448196e-04
1.017089979117250052e-03
-1.049028729442120800e-04
4.908387730883353789e-04
1.342635296643000212e-04
-2.282342459244044949e-04
2.881771797930632388e-05
3.368693008951491590e-05
-3.096105532911941975e-06
3.913676919241687807e-04
-9.315318776876122680e-05
-7.136277914375722877e-05
-6.095312911780500711e-05
-5.542608112941836983e-05
-1.410633393210299611e-04
5.629863049022642234e-05
5.167120869948350372e-05
-2.245335078929490652e-05
-1.708041248706615334e-05
-1.351329454826892278e-05
-1.155184358501163750e-05
-1.047253978705833401e-05
-3.289839799301003798e-05
-2.129220532088656908e-04
1.007642670841608446e-04
5.301599933866677286e-04
8.823616739350174292e-05
-4.427810459365586490e-05
-1.631495830290135424e-04
-1.872763179641416705e-04
-1.115343690686538864e-04
3.761784095898726139e-04
1.015674407915261946e-03
-2.567709391339299883e-04
1.178830314835173408e-04
-2.389827630430023961e-04
-1.658940126034716325e-04
-5.513873555499188098e-05
-7.929493986532566057e-04
4.030984725231974452e-04
8.018709475430916157e-04
7.348881040614778067e-04
-3.249375952414982585e-04
-2.584378074844203448e-04
-2.344273320558408556e-04
-4.110044660155558129e-04
-7.110503233304512434e-04
5.857133319378751571e-04
1.058079109541736323e-03
6.842690722080555519e-04
1.504263433355562468e-04
1.589376996037789069e-04
-2.697735081327808137e-04
-7.818651144927831701e-04
-1.585786934001437009e-03
-8.438662172474409035e-05
-3.788078663360774684e-04
-2.017392417499528072e-04
-1.678616069071885923e-04
-1.213769688315292417e-04
-2.706168939285344592e-05
-1.929518164886339493e-05
1.000529176591208888e-03
-7.911307403608017685e-05
-1.810376826128933967e-04
9.047295568541757304e-05
4.928146972319914906e-04
2.657483584825984482e-05
-9.533656399064365319e-05
-5.557961191866593816e-06
-2.488172069341850379e-04
-2.381459382347916344e-04
1.403314637107968069e-03
2.786869293992883185e-04
3.327631373988549604e-04
-8.311798351499090050e-04
-6.097166404472688416e-04
-8.765014994868049062e-04
5.407792094126626873e-04
-2.310826822349588690e-05
1.111953102647608184e-04
-2.705695217260697537e-05
-1.532366353374931678e-05
-1.063668288167313221e-05
-8.840110602892230194e-06
-8.035322435586602637e-06
-1.819431041475661165e-05
-1.004073367197158605e-04
7.964593385664879002e-04
-1.643869112895447824e-04
1.552564605087375805e-04
2.524752061433065782e-04
-2.318418111964674932e-04
-2.120311608818570477e-04
-4.955237851309477696e-04
4.632602613276275128e-04
4.491702344616661032e-04
3.231781957356352482e-04
-1.711269861658636386e-04
-2.793958732419167014e-04
-7.905345296789797582e-05
-2.042913767093952854e-04
-5.017410024398553849e-04
-3.374599155908087185e-05
3.920892659219185248e-04
1.950426236785031365e-04
4.251188470825141498e-04
-4.809911614553301199e-05
-1.855806984681531834e-04
-6.683401790238205494e-05
-6.779909126077864924e-04
-5.479607933093883464e-04
1.361591291273768880e-03
9.923720218412311264e-04
1.872580372029928719e-04
-1.824838357107448226e-04
-3.500210917072233059e-04
-2.828530606902496572e-04
-1.177902568900386854e-03
1.352711701345030593e-03
-5.568532427954730606e-05
-2.618275530186463512e-04
-2.114636067297855310e-04
-2.116634996126296516e-05
-4.724707943369210359e-05
-1.739543434583845172e-04
-5.813674444637117718e-04
1.808944618703515334e-03
7.728532441466465577e-03
3.177754563315800121e-04
-3.010056986313984690e-04
-1.693046169460666554e-03
-1.880839759841945475e-03
-2.060835230562214297e-03
-3.919525658005330870e-03
6.539966526210022092e-03
3.693250587661283703e-03
-2.520157121937875245e-04
-2.503202371756694383e-03
-2.416664333211753554e-03
-1.786189028269078360e-03
-1.981748432577361274e-03
-1.293397235862628857e-03
-2.487767653013173586e-04
-3.604961048669829077e-04
-5.026741128380073624e-05
5.120295227012043273e-05
2.469038932526633351e-05
4.451202835613921749e-05
-2.117455031311432336e-05
5.603094618136896573e-04
4.153607010385635193e-03
-2.319104856402803925e-03
-9.348830952571524945e-04
-2.109812458630619132e-03
-2.846212103255288742e-03
-2.157369950840548785e-03
-2.466978923751536948e-03
8.680754377752319603e-03
0.000000000000000000e+00
0.000000000000000000e+00
0.000000000000000000e+00
0.000000000000000000e+00
0.000000000000000000e+00
0.000000000000000000e+00
0.000000000000000000e+00
0.000000000000000000e+00
-1.284495459645795248e-04
2.063573013276997093e-03
5.795442548543045230e-04
-7.798482216513198889e-04
-3.962701651473500585e-04
-1.300472812531027486e-03
-1.260643325617672242e-03
1.222566802780647314e-03
-4.975210257880073996e-05
-6.923380198666394725e-05
-6.142368671913354158e-05
-4.266397948760184056e-05
-3.316914125340649389e-05
-2.853538554347647484e-05
4.880494583079313082e-05
2.359731517382899005e-04
3.036582199825550859e-05
3.821551097210047049e-04
1.571660534847738532e-04
3.022179627056878156e-04
6.960395331096527445e-04
-1.322803023670945935e-06
-6.127389019505834894e-04
-9.538827760451197395e-04
3.592744935795313889e-04
-5.707906461352779334e-04
7.709102560752216320e-05
-3.015997473439203068e-04
-5.448709383071720109e-04
-4.279066438803424141e-04
-5.467245733149870158e-04
1.955527029794645356e-03
7.674136203309092456e-04
4.713213961313409903e-03
1.300089578347421969e-03
6.755293224147943150e-04
-2.590549635050950344e-03
-2.072145048917329885e-03
-3.253545960584823538e-03
4.599941621465614507e-04
-3.627326082880005320e-04
-1.010609220905486164e-03
-5.325357286748018089e-04
3.280684124583190355e-05
-5.957670795174299433e-04
-1.063687749864972425e-03
2.021589719644918269e-04
3.330366574040367292e-03
-5.157268646605158097e-04
1.600908565721734794e-06
1.177509045185333968e-03
1.282239729283451567e-04
-5.106531562920429789e-05
6.256234675069684238e-05
-6.161039517033141443e-04
-1.870001414370623576e-04
-1.025518281616890834e-03
1.113691937922808850e-03
2.373648630618445821e-03
-3.943678230868207738e-04
-1.138124760560041068e-03
-8.018487496584055267e-04
-7.728420296345636133e-04
6.453610760154682288e-04
2.159329828236831745e-03
8.707551648872951904e-04
-1.174224911513138377e-03
-5.997422857760016093e-04
-4.933422815550187954e-04
-1.283023844587099799e-03
-2.210094520581201965e-03
2.730342850888333069e-03
-1.342650035408525424e-03
2.288881571528231414e-03
2.569013155358162732e-03
1.187409988625262114e-03
-9.168709282885228410e-04
-1.476962271353697608e-03
-4.038792877333496033e-03
1.729971396872583911e-03
1.891546324264865853e-05
-5.975838553766937931e-04
1.496545898004959406e-03
-3.975572498600344522e-04
1.372334735094150295e-05
-2.169186677769508679e-04
3.084414057896600224e-04
-6.255663413745296986e-04
-8.019859556475299276e-04
-1.322600239257998289e-04
2.233880091592205925e-04
3.254012717391207990e-04
-1.163103337970132228e-05
2.070650750298231311e-04
-4.523906282359561469e-05
2.352617198484618542e-04
2.815513128841671446e-04
7.707316130620771549e-05
2.092441701456141686e-05
1.405263775244094688e-04
-6.527770791873713154e-05
3.824689916271201639e-04
-3.832286489549978641e-04
-4.540379034827305414e-04
5.433583624803562480e-04
-1.378496748898517957e-03
-6.385655773081957238e-04
3.779608090058242522e-05
-5.601193490008994505e-04
-6.006204209286486592e-04
1.198398363731224001e-04
2.476807816382201131e-03
-3.727823820410127538e-04
-1.170222764151187915e-03
-2.968151802559593932e-05
-7.443675281666869373e-05
-3.648308202029973462e-05
7.449611310715418969e-04
-6.221767317129880525e-05
1.000863041154521470e-03
-6.409301632250873678e-04
1.558517668751035383e-03
1.096999751390501907e-04
1.173566965927016857e-04
-2.256463288950703996e-05
-5.788172909638715112e-04
-3.391824694280305653e-04
-2.040797839762924356e-04
7.862166617059845571e-04
-3.911212494697036683e-05
2.182774571301861189e-04
3.474354669930266562e-05
-2.688854935354383319e-04
-2.022497298931302779e-04
-9.328384847919588712e-05
-4.357064686807382136e-04
-2.147274229060286161e-04
5.262025088559331128e-04
1.068697959884148664e-04
-1.336720028809314860e-04
-3.278111000340441002e-04
-1.899648035055647225e-04
-4.562484591978865022e-04
6.893514836801071903e-04
4.400474435631017862e-05
8.077871108968713533e-04
-7.191569427873402831e-06
1.258360882280860167e-04
-3.823914103763149529e-04
-4.304041774343660902e-04
-5.652633276106882373e-04
4.076225413679756843e-04
1.469972677613655453e-03
-1.255681705804810675e-03
-1.222903912423582880e-03
-4.723925569375566464e-04
9.391457159126248989e-05
5.875181402287329036e-04
-2.160128442160391617e-05
8.211740701539013872e-04
-1.282580584826352671e-03
4.452314664370069126e-03
9.841725042794044302e-04
-1.102894225834195408e-03
-7.840209976053154860e-04
-1.313063976293588021e-03
-1.247297783972011083e-03
2.933703998819860224e-04
-1.345537004971733260e-03
3.610549663790994616e-03
3.490682838233739415e-04
-6.010306329096163280e-04
-3.664319190865264649e-04
-7.922538023696982764e-04
-1.161494026780276675e-03
3.071294385034836934e-04
-3.369897278827796959e-03
2.075525540761926063e-03
1.886067986527288414e-03
7.008046446131302020e-04
-8.896144087848412878e-05
-8.016213605082291461e-04
-8.265667079008347804e-04
4.246486162129981261e-04
1.614931685801500013e-03
-2.202404120502154516e-03
-1.559284119623896916e-03
-6.155654630893010563e-04
-3.151914338026253707e-04
-9.010967104941801928e-04
-8.976450097967134372e-04
4.876255171507367682e-03
-5.228342877262315280e-04
3.880873288892409956e-03
3.208736735506967624e-03
-4.261105637029843945e-05
-1.555260373726644399e-03
-1.189110647132409241e-03
-2.430914333999429407e-03
-1.348879325444365994e-03
9.292367461809752764e-05
1.417166060666093979e-04
1.609243437939688042e-04
2.945922660549889541e-04
3.223592779307077669e-05
-2.607806464199350564e-04
-3.085112515893712179e-05
-4.307610467478635466e-04
2.660261124907113976e-04
-5.301910587323005507e-04
-9.487688854890232045e-05
-2.102819798986018101e-04
2.256176285282635930e-04
-5.480507137510579171e-05
-2.326618917791497664e-04
6.311731493150853165e-04
3.242143837974117353e-04
1.885771196875345515e-03
6.381487175498212674e-04
-4.211844149260248111e-04
-5.210591289211000728e-04
-5.258630700351742777e-04
-5.651830398346329061e-04
-8.148446445056477510e-04
7.814488947067687588e-04
5.542292042002371728e-04
1.375764263469804157e-03
-1.123590828768017370e-03
-5.158144417796284688e-04
-5.883883712401286091e-04
-6.936543267860110487e-04
2.100056061969766009e-04
-3.031324585968115347e-03
7.034858104142609854e-04
2.128968445277899368e-03
-2.946181074751990053e-04
-3.199906259518443710e-04
5.079408674059103556e-04
-1.091861120115034632e-03
1.397399316412124056e-03
-5.104881761242101822e-04
1.321573339234707314e-04
1.820637921908613635e-03
8.381862207741207335e-05
-1.353782866474911883e-04
-3.331679503480938298e-04
-3.567133373243256290e-04
-7.008661274653779551e-04
-2.097043098766995599e-04
-6.991371234809906892e-04
-6.078544356581213384e-05
4.951496684188557047e-04
2.216205480485347861e-04
1.732013215928999311e-04
-4.111148826325526656e-05
1.207668271264674716e-04
1.335193582869401217e-04
-6.151175162524847846e-05
-5.201266907006529979e-07
4.756835842715673179e-05
3.615754119823805902e-05
6.517737614456557097e-05
-6.934719347722977361e-05
-1.510435622637215679e-04
-6.309531181329527082e-04
1.555704710592820681e-03
9.496317587106126013e-06
2.957870948961456212e-04
-1.607203436162777310e-04
-7.003775128004663083e-05
-2.860069430126373235e-04
-7.132699670341576025e-04
-1.303222686864967340e-04
4.517635900967020704e-04
3.072688165589994801e-04
-2.337830455495789955e-04
1.703220823991985348e-04
-4.901034518441840912e-05
-1.571641055749387126e-04
-3.590747240594680608e-04
1.180732437101724699e-03
1.347611523040726476e-03
-3.548020867752669670e-04
-7.927007993880923111e-04
-1.662751265865715909e-04
-5.301314889464943869e-04
-7.945574570992444035e-04
1.101229986532178197e-04
4.350539768425677961e-04
-3.167348507242087369e-04
2.742306337150533964e-03
1.572726550457358824e-04
-4.464522500608816293e-04
-5.946928741439304897e-04
-6.700551918528522026e-04
-1.306697802256964963e-03
-7.610024703784255438e-05
5.394222406921308447e-04
-1.324043557678732520e-04
-7.004127851629391973e-05
-2.946153003789962234e-04
-4.178409077805765636e-05
-1.408013986594928372e-04
2.163244304464255713e-04
-1.357783453953378353e-03
-5.876663584397573073e-05
1.038347607484146114e-03
2.649349910373715602e-04
2.138722779464046766e-04
-2.476449485688256356e-04
-4.005746176016623068e-04
5.476147794999189095e-04
-7.269717890666475011e-04
-9.504865763916459532e-04
-8.670311208690423006e-04
-5.263848281532226142e-04
-3.977603859791321601e-04
3.648933426961792863e-05
6.523159308531367500e-05
3.366913773104759922e-03
-2.396124434578810348e-03
3.174500712665277290e-03
2.489722773695526685e-03
-2.420949292129642673e-04
-6.873825735085632846e-04
-1.471580107777025262e-03
-6.415657624519058386e-04
-2.254756788315359780e-04
-7.537724856545344838e-04
4.519826007428228397e-03
9.099223291250791530e-04
3.930547131380034511e-04
-5.919354930360903920e-04
-9.272364860454334039e-04
-7.719249190147252186e-04
-2.777933665940528207e-03
-3.378687094806696466e-04
3.964002540327059895e-05
2.403907246604124540e-04
1.485266228975027638e-04
3.658140859903187656e-04
-3.259252102837559783e-05
-3.417795352371292574e-04
-8.213069320532995850e-05
7.518759670005272801e-05
4.332908832684391497e-04
2.164767819994711513e-04
-3.717707181341528788e-05
-6.620433854971427731e-06
-7.688890565124067370e-05
-3.389071121338571308e-05
-5.703781394349498801e-04
1.473035431576557295e-05
-1.808990059639835563e-04
5.993855374399117286e-05
1.149031309771877214e-04
3.037623154205835964e-04
2.355888012769358900e-05
-4.002781467700721211e-05
-2.959664139442307182e-04
-1.870880432314441085e-04
1.342186177783696822e-03
1.729712635972292627e-03
8.062631692357198274e-04
-1.139500926501393506e-03
-5.647542842930666209e-04
-1.215434787802625481e-03
-7.713839411631791265e-04
-3.034530088891162393e-05
-4.074174340256275643e-05
3.930215794694864905e-05
4.963004948362661892e-05
-1.960325117262626176e-05
-1.685514738638571968e-05
-1.534286950998690638e-05
3.395610492989798666e-05
-4.425160854962689760e-04
2.090023758214044382e-03
4.905541048434497106e-04
4.116005649913014952e-04
-1.522487722461964975e-04
-5.960927646560977696e-04
-1.079432942806259023e-03
-7.218878628439721022e-04
1.365147847872858172e-04
8.758357620572246620e-04
2.442447177629758601e-04
-6.817965522047392127e-04
-3.377720551568812505e-04
-1.348561822584169040e-03
-9.136193381940690581e-04
2.025154503532368942e-03
-6.804411971648608804e-04
-1.137402392067098653e-03
-1.004444913370773499e-03
-5.144354445597123290e-04
-2.873895049725204323e-04
-6.249123965946427970e-05
-2.412071400686154889e-05
3.710725405801290362e-03
-4.053049449801887660e-04
2.776931633057132167e-03
1.129597479138670776e-03
4.473633514134097572e-04
-7.865393874974156100e-04
-9.355594690241763548e-04
-8.008830560203058623e-04
-1.425605606087126378e-03
-1.418757774141769714e-04
2.719312588309396412e-04
2.110262319264285917e-04
-1.218973185190092251e-04
1.308195651943499626e-04
-8.064620072689322326e-05
-7.320038603412098728e-05
-1.961573732575176937e-04
-9.000573839895287915e-05
1.645648772929484023e-04
1.810077850699618764e-04
8.472106625536393815e-05
-3.407484973520421705e-05
-9.419528557555424068e-05
-1.073131512748457526e-05
-2.012865397810783251e-04
5.451572980846885498e-04
1.178041561775376332e-03
1.222670433157177581e-03
-8.011832409605405998e-04
-6.766399207522768699e-04
1.113081815039411617e-04
-4.666837447908237587e-04
-1.112670568017543873e-03
-3.795741288895157408e-05
5.187996754491225413e-04
6.273594605618505336e-05
-1.815672852472621627e-04
3.841310120357144920e-05
-1.551494043841302004e-04
1.144671697820655025e-05
-2.567213371667412605e-04
5.009286640143918642e-05
-5.822464262104665053e-05
3.955262576597477390e-05
1.505718691365017610e-04
-5.417923665031099849e-05
-4.521696060450218117e-05
-4.046146119264390034e-05
-4.213506023541213304e-05
-5.961229657298329444e-04
-8.789173134658987471e-04
-6.370196520837913224e-04
-3.727016880607458794e-04
-1.022613372580386372e-04
-2.158606484646975309e-04
4.829321690071910583e-05
2.754590388162286938e-03
1.266936311613188568e-03
9.428206949305271067e-04
1.250258821968651315e-03
-3.306567826050071392e-04
-6.386624281779734562e-04
-5.342579479146730833e-04
-5.944056799735699618e-04
-1.362032989841144162e-03
-3.490165352221498646e-04
-2.157728938083421997e-05
-2.984480840744680222e-04
1.700950736100859258e-04
-4.505927408398928619e-05
-2.462743346054675948e-05
-2.792217249004052344e-04
8.478552675123078846e-04
-4.867284830425054826e-04
-3.984349197259072235e-04
-1.642098698015213485e-04
1.891149485494193414e-04
-2.867413729196428363e-04
-3.382154072060879679e-04
-7.545989982675896421e-06
1.492761094128921672e-03
-1.127667925168910181e-03
-7.949074869901515171e-04
4.992477690913849509e-04
2.368348955333172533e-03
-3.220003750512954338e-04
-1.470273291649349225e-03
-7.501924976554602466e-04
1.597444852090603752e-03
-1.879794566137527869e-03
-3.278554307227085418e-05
2.101655224309214014e-03
2.468148459147123403e-03
1.850120643890734967e-04
-6.213144076846140217e-04
-4.298543118010181860e-04
-1.791066919149981399e-03
3.740940087078213020e-03
1.326304479000378796e-03
1.753629165889360013e-03
-1.639210529500197480e-03
-1.166354643520343438e-03
-1.532735740228400407e-03
-1.584889772083443969e-03
-8.976830466355688104e-04
-9.791768788353859797e-04
-4.943662255449540136e-04
1.068890581979780414e-03
1.688263491304261123e-03
1.417583006726478786e-04
-5.745503803439558268e-04
-7.596165058340485429e-04
-9.120238339834598796e-05
1.557060480186191458e-03
-1.937941751460076501e-04
1.767347475989110598e-03
1.002565027888451064e-03
-8.658795787016554521e-04
-3.269269185262436246e-04
-6.120236979091525122e-04
-2.328348613780695589e-03
-2.604271232442717542e-04
-6.656225932866252767e-04
3.263918240739665491e-04
6.071589035933050004e-04
1.568446868122760289e-04
-8.701962994355010809e-04
-3.501163599467769946e-05
7.408622374815281584e-04
-4.620017709090867538e-04
1.502629076097848409e-03
3.056589025969089365e-04
-4.182683334997259507e-04
2.686353473922239608e-04
-4.604015897899100380e-04
-6.029064297492750697e-04
-1.333452021389830335e-04
-6.778038089997568761e-04
9.395891072949120017e-04
1.939151416773148180e-03
5.993558365320593315e-05
1.841024443546855952e-04
-6.129544600589114040e-04
-3.424187790432981198e-04
-1.489601503973986578e-03
-6.986963225707211716e-04
-1.101875252505710992e-04
4.355789730705754469e-04
-5.333339136811840811e-04
-3.231130087158176536e-04
-5.457597696393056325e-05
-2.299818498898351365e-04
1.514309624001483872e-03
1.356119365196965364e-03
-2.435337368837695666e-04
-7.934695768554108123e-05
6.238179663491577381e-04
4.556179075386670990e-05
-1.585185088422702288e-04
-2.947894935855948674e-04
-1.249310425302813153e-03
-1.967533755905960305e-05
-4.727424681907205895e-05
4.076882761936462181e-05
1.476289371781597465e-04
1.708838832704213931e-05
-4.865995834075527985e-05
3.121125691658423553e-05
-1.210878673222638149e-04
8.431301466106029844e-04
1.264705586265893120e-03
8.681882922640114840e-04
-3.828238622464788781e-04
5.455289648929327910e-04
-6.874146181923313252e-04
-9.296756721919570768e-04
-1.521638837402674617e-03
1.125015688643170959e-03
1.805946837572465274e-03
2.487170535021781897e-04
-9.064534254807840043e-05
-5.722010968842386881e-05
-4.862500475934059701e-04
-7.379280551570536204e-04
-1.807636024730850015e-03
-4.480149156844865114e-04
4.506203420219941059e-04
2.132286129259667803e-03
2.361833330411793226e-04
7.033295756697982223e-04
-2.952589717673555062e-04
-7.191153907745950714e-04
-2.060030101766205293e-03
2.040658110048262919e-03
2.976350276186919691e-03
3.898685516230983024e-04
1.456323838724019959e-03
-1.078587807654561494e-03
-1.664864562481216392e-03
-1.228270442711154251e-03
-2.891477963735369656e-03
-8.561003393930155829e-04
-1.044365152487428073e-03
-9.724343783305030957e-04
-5.931805231462849819e-04
-5.838862563214316766e-04
-5.077843005290061428e-04
-9.609076027150801767e-05
4.653841710479176066e-03
-1.927934261834231234e-03
-2.826509418994657165e-03
-2.118724713412628666e-03
-1.078326359321903072e-03
-7.815340406874161797e-04
-3.766213127914404789e-04
9.747601787321209799e-04
8.134889928310158960e-03
-4.046132184575280651e-04
-4.346855932289509644e-04
2.092723146622252968e-04
3.695647661278616864e-04
-1.298951555829986487e-04
4.337209233273291056e-04
-3.346522272218368393e-04
2.912881903738986185e-04
3.839134912021073586e-04
1.389688969628265301e-03
2.240906445407519435e-03
-5.768823057087314656e-04
-7.134925501310906710e-04
-8.955299615317375292e-04
-6.155209590427206069e-04
-1.213083129823610195e-03
-3.002162618253404478e-04
1.456097865281535822e-03
7.571239005792172738e-04
7.263444838306324291e-04
-6.770875130320931168e-05
-4.385705506961366383e-04
-8.574944260654954794e-04
-1.275576259801204475e-03
-5.467590226980751505e-04
-6.233825460761139225e-04
-6.852723332284291517e-05
4.535440760673171653e-04
-5.080506531378557462e-05
-4.344071509949499316e-04
-6.384000943307148294e-05
1.334176951771521256e-03
-1.288567157826024830e-03
-3.177233902561272475e-03
-1.252800066715039837e-03
5.896953774937934052e-03
1.782894903783193612e-03
-1.154614275976311236e-03
-1.353278158365755482e-03
5.466448827232713156e-04
4.782167730758324657e-04
2.023218367411011142e-03
1.596104096524373879e-03
-6.187399754949325387e-05
-1.052274951740988932e-03
-1.321171184081795487e-03
-4.580165253170441508e-04
-1.204202578321894850e-03
-1.719015697638489140e-04
9.137181827518879454e-04
7.777976372238049659e-04
7.583506786855411181e-04
-2.227555796112735726e-04
-2.933729016019776697e-04
-1.199930123025160248e-03
-5.619063246589715106e-04
1.915947291385737463e-04
3.850200572307251197e-04
-8.209302413440232326e-05
1.088118562020968236e-04
-1.225674265859097651e-04
5.768824289195995011e-05
-1.531498391007072592e-04
-3.853045956423360144e-04
-1.003986912695171724e-03
2.476080243813091539e-03
-5.873947694984909488e-04
2.133676171596394252e-04
-7.773400078824260024e-04
-9.109353574399121738e-04
-7.657426319818064339e-04
1.355951818525076916e-03
-1.158377354728702940e-03
-1.935605901485034372e-03
-1.567912234819777853e-03
-2.347978172393823360e-04
-3.219009204035580747e-04
-2.802567656009128478e-04
-7.809345685061599144e-06
5.506660339962432364e-03
-2.442766366448668471e-04
-3.345487884565459254e-04
-2.058570521561061122e-04
-2.045063508746276890e-04
-1.624572727427672206e-05
-7.289747789635905883e-05
-6.582385683461996204e-05
1.144155890137402371e-03
-1.622282326253809406e-03
-3.651753297509587916e-03
-1.147021592321604546e-03
-1.915709410071435607e-03
-3.452743309743590999e-04
-1.036690183083204680e-03
-7.129958712076404394e-04
1.043172701142164663e-02
-4.841301132569528864e-06
-3.901970917434537675e-04
2.048876910700973928e-04
1.742870781300474555e-04
-2.430300791650000312e-04
1.327740299203418386e-04
1.694643438130434131e-04
-4.334467089250678161e-05
1.503145507695031091e-04
-2.593112419875828899e-05
-4.669264620035382585e-05
-1.679604372410662544e-04
1.883963027453074645e-04
1.401690247278350606e-04
-7.016808733706732986e-05
-1.681275832654000198e-04
-1.596299763014262692e-03
-1.795756618190102755e-03
-1.135000998620674375e-03
1.163969190796955216e-03
-2.992756894581698060e-04
-3.569349779277844817e-04
-5.888482875338504592e-04
4.608147143947892606e-03
3.192091761328588913e-03
-1.095797536573191394e-03
-2.288737036500999595e-03
-9.853212321475105732e-04
-1.073879116256310374e-03
-9.463945524294088913e-04
-1.141947747422334888e-03
4.339985460001171032e-03
-2.619098770129613118e-03
3.981243626966697070e-03
1.534971052146439502e-03
-3.884335798611637911e-04
-5.465159046957043321e-04
-8.389742200407177778e-04
-7.222223575868105426e-04
-4.009698467991256550e-04
1.040946996033789360e-02
-1.187085727460263952e-03
-4.392418059303866001e-03
-2.124038250093578627e-03
4.688870931525889667e-04
-2.006141584515846229e-03
-2.481216212920792606e-03
1.312542780803863498e-03
1.021728565668347799e-02
3.657197692544645706e-04
1.226710947085101313e-03
-2.376539940643285047e-03
-2.072925529784446115e-03
-2.326778283153875179e-03
-2.942455008551806903e-03
-2.091017610889639358e-03
-6.721470807408249423e-04
-8.889649225806334253e-04
-9.281672041491907492e-04
-4.601693232165614982e-04
-5.853411314003777394e-04
-4.208047317252335646e-04
-3.726445210580984612e-04
4.328238914870920218e-03
-1.087969299540457371e-03
-1.345127146400655377e-04
1.207125601772695775e-03
7.433670290150667026e-04
-4.715650589171887976e-04
-2.455944737687976512e-04
-3.385339275138537726e-04
3.276828435926015196e-04
7.512712692380216044e-04
4.988522624563194140e-03
3.255640835539032243e-03
2.875027080733941610e-04
-1.222977156613032530e-03
-2.889116729778824777e-03
-1.953259898845662555e-03
-3.217583652176123424e-03
1.553204851012961250e-04
7.086692908289258163e-04
9.484892957165685879e-04
-6.660532544317872717e-04
-4.028291519313180057e-04
-7.387481050567458636e-04
-5.496544806774223508e-04
5.448059204504838299e-04
-1.118389016716129581e-03
-2.088681616541386305e-03
-8.041673304343968046e-04
9.705350632753433158e-04
-1.979287636549164492e-04
-2.923572682752449345e-04
-3.920411385745574645e-04
3.923030070921285431e-03
-1.198450615194264013e-03
1.627513175233986746e-03
2.710315670500374873e-03
-3.998898954887029444e-04
-8.900565557438961783e-04
-2.922170693589182374e-04
-8.004516568201507695e-04
-7.567630531284290970e-04
-5.597197121955336391e-04
-1.497664797139390417e-03
1.011963904088070522e-03
1.355000920135239842e-04
3.100509805138557378e-04
7.287149052609412305e-05
-8.081849821691880877e-05
6.078165404102962204e-04
-2.059987661246234520e-03
-2.052878447458011350e-03
-7.816436436121424738e-04
-7.735946993924160315e-05
9.747601743752851242e-04
4.667949644347793559e-04
-9.348192211802526974e-05
3.623796005563590696e-03
1.421799016090830557e-03
-1.674405425424138529e-03
-2.524999965905339212e-03
-1.545755193586432694e-03
-1.011261303304145966e-03
-4.022644244521705642e-04
-8.435108442350322576e-04
6.580398140816425684e-03
-4.863721234990834078e-04
3.369742970953425090e-03
2.990410126025875703e-03
-6.227394532815188483e-04
-2.039945569848289689e-03
-1.177260510162900058e-03
-2.088252723007523286e-03
5.441728282001782310e-05
-4.828186090652011007e-03
1.392078328613531937e-02
5.422307403624281909e-03
-1.288043119199456946e-03
-2.856093138322872774e-03
-3.895605025873644274e-03
-4.047380872782320102e-03
-2.427782442929295962e-03
9.917172062857398246e-04
2.421064729908318364e-03
3.080906788464888007e-03
-1.385754608498008167e-03
-1.030846273949676071e-03
-2.598649860679252445e-03
-1.374036817412472482e-03
-1.044011641195340763e-04
-1.288614286638957137e-03
-1.757444499239460252e-03
-1.157675138362265809e-03
1.069647332505877825e-03
-6.912730069000205466e-04
-9.509232185009825009e-04
-5.115594777520722096e-05
4.827438764911017206e-03
-9.318971607256958806e-04
-9.526223694641733136e-04
-1.067581035859647238e-03
-1.120797679281336485e-04
-5.028910620663357882e-04
-2.159635235845714431e-05
7.038224611204599020e-05
3.518285502290397545e-03
4.945203552078886525e-03
1.251322998912869546e-03
1.272978900175431559e-04
-1.135393552019334489e-03
-1.042770843016555590e-03
-1.124427858537057094e-03
-8.087664771003142674e-04
-2.212465710336037217e-03
5.007855718164388277e-04
-2.885462813470781676e-05
7.026185620273331075e-04
-3.215266639974845297e-04
-4.280721217212661947e-04
-1.011333706158009348e-03
-1.170520159099981217e-03
1.756903145267675473e-03
-1.865097644069358632e-03
-1.043093469544146982e-03
4.920067132794513640e-04
8.021254300797159764e-04
5.272601792281427337e-04
-3.046507222668579269e-04
2.596138452998963324e-04
1.131835667993157189e-03
-1.000369554183765152e-03
4.283168577343132895e-03
2.891898806740415308e-03
4.090923641279268184e-04
-1.525268719271185344e-03
-5.812873644687618045e-04
-1.663485393506512235e-03
-2.813748716781252004e-03
3.730658922272452830e-03
-2.933295997897380873e-03
-4.272877080852062470e-03
-1.171280820751592362e-03
-1.649731414238866066e-03
-1.324637480175366953e-03
-2.036369660719964964e-03
9.657533532362774786e-03
-4.036232738472934011e-04
4.148913032226034074e-03
1.997408306403846302e-03
-7.722617749226817936e-04
-1.139456084306101659e-03
-1.624273815030171471e-03
-2.186054595232314601e-03
-2.065179529131506509e-05
5.479777501292225524e-03
-1.929878504357878050e-04
-7.857932437126720219e-04
-6.775588926741609700e-05
-1.457867165780002416e-03
-1.174322657591932509e-03
-1.690148968704279593e-03
-1.109017258001318427e-04
5.960342638866908795e-04
1.721648666061559307e-03
-9.843389180351851640e-04
-3.639034890055276960e-04
-4.233428888216009007e-04
-8.796220521755936409e-04
-6.794182151588074297e-04
1.012942633248466433e-03
-7.071765897740075243e-04
2.768420336968076875e-03
4.521755482855819262e-03
1.592975898795391792e-03
-8.100011110015828972e-04
-1.659818106379510423e-03
-1.222061145155125747e-03
-4.484094766309063181e-03
1.040780375027789730e-02
2.475625004907713519e-03
4.790916331786941254e-05
-2.396906078090024598e-04
-2.364867780128098937e-03
-2.537708664154691811e-03
-2.885885657581693450e-03
-4.903185208829996707e-03
-1.259586312210610919e-03
-2.518824232257006832e-03
-6.970299815489976224e-04
6.338915584821599655e-04
5.758547002008352397e-04
3.124933487315347024e-04
-1.308936941901958683e-03
4.262137860504045667e-03
2.001518407787559670e-03
-2.616200716529713550e-03
-1.152283968921422735e-03
-6.026902550600989278e-04
-2.388287641980991268e-04
4.077386265776751528e-04
-2.995385457337231493e-04
2.500285216077824130e-03
1.939622056713817240e-03
8.353895489360186125e-03
-1.778710202848408288e-04
-4.121448907599902130e-03
-1.909634227251140329e-03
-4.562124969638079765e-03
-4.408319225495511973e-03
4.885880804195471931e-03
3.953705885847122285e-03
-4.762386686014582723e-05
-2.826241912988763753e-03
2.357678132075674820e-03
-1.847096315188007315e-03
-2.192418687972159507e-03
-2.443616640389211728e-03
3.045613405475489522e-03
2.831386750274927228e-04
-6.149276623466302634e-05
-2.926890404040264270e-05
-6.329561511262717100e-05
-4.618892048749040786e-05
3.567230878742953847e-05
-3.655649355929286903e-05
-8.200828438044622561e-05
-1.830846621522626240e-03
1.981958382863449088e-03
-1.275060838438487427e-04
1.951325101923507676e-03
7.049906094178567386e-04
-1.070189118220643163e-03
-1.786878549360169542e-03
1.771462787424721253e-04
4.435423784627215058e-04
-6.648268373018604216e-04
1.292396525599844698e-04
-1.233180958603236456e-03
-1.523807438944453554e-03
-3.396593005927976694e-03
-3.562788827337399437e-03
9.808415037092220803e-03
7.644478535178011623e-04
2.468181141765816815e-03
3.132736723241142870e-03
-1.015161303138253750e-03
-1.083537413409182840e-03
-1.601635224965838617e-03
-2.655412890607521115e-03
-9.618886403964470091e-06
-4.632796583727897513e-04
-9.457314138418951082e-04
-1.020199816245391218e-03
-1.982386318987127663e-04
-1.728685416814406274e-04
-3.467814690219390159e-04
1.323835410418480111e-04
3.014715990020321642e-03
-2.636659463105039199e-04
-1.126132157758283716e-04
-1.526988708706937222e-04
6.649157727544730402e-05
-9.115497335951941091e-05
-6.447106529487756402e-05
2.254051398036939859e-05
5.955719803556062996e-04
-7.682544005806302514e-05
-9.448003850878679321e-05
-8.498108427448633386e-05
-6.619078376442442946e-05
-5.476293161749502326e-05
-4.931744128405197232e-05
2.899471872802700484e-05
3.975630007792805318e-04
-6.731419160790661589e-04
-1.133600855275631149e-03
2.257535348174229107e-04
-1.759477458758857142e-04
-1.849490707938963169e-03
-1.544231432203163308e-03
-8.309066361935989577e-04
5.981565758748886089e-03
-2.785696174623984375e-03
7.974503242078224844e-04
2.546490788105015488e-03
-3.205407984486317733e-04
8.394040041977428226e-04
-2.148189266744235588e-04
-1.187640541745961899e-03
3.253513249824191043e-04
3.803125109965783957e-03
1.725817226668036161e-04
1.393662159932533302e-03
-1.986770338444205069e-03
-1.679542084863428581e-03
-1.849667078861146063e-03
-1.555993516783987004e-03
1.702604026387642428e-03
1.059812797471334014e-03
2.808890215748190231e-03
1.119692871376305569e-03
-1.916814472396964402e-03
-4.413746742806273922e-04
-1.666076725303361917e-03
-1.841909545655188649e-03
8.777795330403194299e-04
7.612815128305914060e-04
1.632917266656175445e-03
1.158293538287911983e-03
-7.622586352153805454e-04
-1.205000832409391541e-03
-5.252098699461666504e-04
-8.824531571556340492e-04
-1.775698230481083525e-04
-1.547171254823007059e-03
-1.597774753302534005e-03
1.380716281440748676e-03
7.754512132045134239e-04
1.432289572393802550e-04
-5.011089367772660020e-04
-1.158069653108602127e-04
1.462465458329024288e-03
-6.036025549714621463e-03
4.973219626236075226e-03
5.573159058834612802e-03
-6.384874947075941994e-04
-1.746261908620950869e-03
-1.548585598144631374e-03
-1.301778000112912680e-03
7.247598662300251595e-04
6.990701934780023776e-04
1.637261296746695050e-05
2.771019667873054603e-03
8.147098270783503012e-04
-1.974595181822212881e-04
-1.359149444595636382e-03
-1.133013353090898305e-03
-1.611549985528119280e-03
-7.723698318213797522e-04
7.148025368305979373e-04
-3.635804926958159612e-04
7.448655130732178544e-04
2.429108912360101395e-04
5.231287332178952360e-04
-1.996249328077765491e-04
-8.901324170327502058e-04
-1.982484588377774522e-03
1.546527740049541736e-04
2.670941590039107335e-04
1.381154885401354444e-04
-1.124081483449400088e-04
-1.920260743558819194e-04
-8.131133013756666836e-04
2.540169690905262796e-03
1.203529085482175649e-03
-1.924817570357228568e-03
4.657782413536770867e-05
1.669872635934172922e-03
-2.541394718094380496e-04
-8.349876831555604756e-04
-4.298054578384920082e-04
5.237706376090022799e-04
-1.996425397004967118e-03
1.075190582290147263e-03
4.411978989571615183e-03
-6.064102264440289361e-04
-1.271218003444785864e-03
-1.702826034573777709e-04
-9.177746924935818989e-04
-5.250586490170235142e-04
3.955568617635778043e-03
1.595212446371689543e-03
-2.068222116070450329e-03
-4.416125486276431793e-04
-9.075001222253515796e-04
-1.809955358247429362e-03
-8.757528152109399179e-04
5.522618963743417941e-04
1.810674195806668153e-03
2.105669476708018229e-03
1.055494849249023889e-03
-1.226141337249508738e-04
-6.719253650304651392e-04
-6.061799692815332758e-04
-1.550852552359847881e-03
-2.020266501366911691e-03
3.309358757095215279e-04
3.517759238030030659e-03
6.335147222666186878e-03
-1.564776021141241029e-05
-2.229165752072127197e-03
-1.344013813734540059e-03
-2.517064192426911925e-03
-4.077950817960747203e-03
4.753160092434441375e-03
6.940012269709563454e-03
4.414773014644114463e-04
-2.337614873342818214e-03
-2.346525375548819386e-03
-2.779351514924928435e-03
-2.757310702830860581e-03
-1.913847196960990257e-03
-1.367692356565458796e-03
2.268080135865529340e-03
2.309795790525222443e-03
1.063761194336130367e-04
-9.857870557538682237e-04
-1.282895396661679240e-03
-7.033138204830569366e-04
-3.445634163603018005e-04
-3.060577997679662498e-04
-6.416568782063011888e-04
-3.783665006332332086e-04
-2.674612448093846031e-04
-1.151458215498516499e-04
-1.587681042266897739e-04
-7.148075193221065603e-05
1.938937101125636463e-03
7.262469005380167144e-04
1.776161994627377481e-03
2.720830161513602551e-04
-4.597916713401635036e-04
-5.663299868203012198e-04
-4.968387198652759931e-04
-4.703356588730911794e-04
-7.811958744179221207e-04
-2.440461360861741907e-04
-4.145584342120532326e-04
-2.245549925061076464e-04
-1.624234176612518021e-04
-1.742112632790524386e-04
-1.471067095208372492e-04
-6.145237503883749024e-05
1.428353328304314118e-03
1.030108327418277668e-03
-6.958844626973514521e-06
-2.721824997339173779e-03
-8.282297534999926401e-04
-2.296481458565392971e-04
-1.816807941372482063e-03
-1.057424094443054890e-03
5.630785449719941972e-03
-9.054327063313065546e-05
1.513728065915963164e-04
5.180609406135734094e-06
4.836281715931431218e-04
6.221045502962719350e-05
2.244441357941273207e-04
-3.277981320866653033e-04
-5.084947756948336294e-04
3.761784095898726139e-04
1.015674407915261946e-03
-2.567709391339299883e-04
1.178830314835173408e-04
-2.389827630430023961e-04
-1.658940126034716325e-04
-5.513873555499188098e-05
-7.929493986532566057e-04
7.108981753895561324e-04
1.571002556828390417e-03
-7.847162284481205006e-05
4.040984855888366976e-04
-2.657254818500049591e-04
-9.704509663107552427e-04
-8.310722415542653877e-04
-5.402789052469472199e-04
-5.090916904835763164e-05
1.066183890580732919e-03
-3.937229823851360710e-04
1.472679324531234947e-05
-1.808757663467873986e-04
7.314356573974598529e-05
2.387161277309642971e-04
-7.672624595164737006e-04
-1.303222686864967340e-04
4.517635900967020704e-04
3.072688165589994801e-04
-2.337830455495789955e-04
1.703220823991985348e-04
-4.901034518441840912e-05
-1.571641055749387126e-04
-3.590747240594680608e-04
3.730658922272452396e-03
-2.933295997897380873e-03
-4.272877080852062470e-03
-1.171280820751592362e-03
-1.649731414238866066e-03
-1.324637480175366953e-03
-2.036369660719964964e-03
9.657533532362774786e-03
1.938371346892710017e-04
7.554118055501072182e-05
2.773434704797337756e-04
1.191977512093779913e-04
1.282732418139763777e-04
-2.071960976366795434e-04
-3.583987741183225647e-05
-5.511568036988583530e-04
-2.442766366448668471e-04
-3.345487884565459254e-04
-2.058570521561061122e-04
-2.045063508746276890e-04
-1.624572727427672206e-05
-7.289747789635905883e-05
-6.582385683461996204e-05
1.144155890137402371e-03
-2.097043098766995599e-04
-6.991371234809906892e-04
-6.078544356581213384e-05
4.951496684188557047e-04
2.216205480485347861e-04
1.732013215928999311e-04
-4.111148826325526656e-05
1.207668271264674716e-04
7.512712692380216044e-04
4.988522624563194140e-03
3.255640835539032243e-03
2.875027080733941610e-04
-1.222977156613032530e-03
-2.889116729778824777e-03
-1.953259898845662555e-03
-3.217583652176123424e-03
-1.596299763014262692e-03
-1.795756618190102755e-03
-1.135000998620674375e-03
1.163969190796955216e-03
-2.992756894581698060e-04
-3.569349779277844817e-04
-5.888482875338504592e-04
4.608147143947892606e-03
-1.118389016716129581e-03
-2.088681616541386305e-03
-8.041673304343968046e-04
9.705350632753433158e-04
-1.979287636549164492e-04
-2.923572682752449345e-04
-3.920411385745574645e-04
3.923030070921285431e-03
-5.961229657298329444e-04
-8.789173134658987471e-04
-6.370196520837913224e-04
-3.727016880607458794e-04
-1.022613372580386372e-04
-2.158606484646975309e-04
4.829321690071910583e-05
2.754590388162286938e-03
-1.198450615194264013e-03
1.627513175233986746e-03
2.710315670500374873e-03
-3.998898954887029444e-04
-8.900565557438961783e-04
-2.922170693589182374e-04
-8.004516568201507695e-04
-7.567630531284290970e-04
-2.588609867905049657e-04
1.642185333634398319e-03
1.906441594846145469e-04
-1.524752768033451440e-04
-2.736620259285901498e-04
-1.215409427254714631e-04
-3.816728762945507578e-04
-6.446173845765507246e-04
3.908716357775148496e-03
4.597221695214521878e-04
-1.542397694512435665e-03
-4.311656006818296986e-04
-9.332571322055340087e-04
-1.519560241945145870e-03
-1.188127278687778126e-03
1.246069420736123281e-03
-6.721470807408249423e-04
-8.889649225806334253e-04
-9.281672041491907492e-04
-4.601693232165614982e-04
-5.853411314003777394e-04
-4.208047317252335646e-04
-3.726445210580984612e-04
4.328238914870920218e-03
-1.870880432314441085e-04
1.342186177783696822e-03
1.729712635972292627e-03
8.062631692357198274e-04
-1.139500926501393506e-03
-5.647542842930666209e-04
-1.215434787802625481e-03
-7.713839411631791265e-04
-1.004073367197158605e-04
7.964593385664879002e-04
-1.643869112895447824e-04
1.552564605087375805e-04
2.524752061433065782e-04
-2.318418111964674932e-04
-2.120311608818570477e-04
-4.955237851309477696e-04
-4.620017709090867538e-04
1.502629076097848409e-03
3.056589025969089365e-04
-4.182683334997259507e-04
2.686353473922239608e-04
-4.604015897899100380e-04
-6.029064297492750697e-04
-1.333452021389830335e-04
-6.778038089997568761e-04
9.395891072949120017e-04
1.939151416773148180e-03
5.993558365320593315e-05
1.841024443546855952e-04
-6.129544600589114040e-04
-3.424187790432981198e-04
-1.489601503973986578e-03
-2.728422380645983023e-05
4.602981744949249010e-04
3.476431895853668470e-04
1.896339714344351499e-04
-1.347863548197482289e-04
-1.564187248158501538e-04
-2.046691879394102790e-04
-4.744168441332588092e-04
-3.378687094806696466e-04
3.964002540327059895e-05
2.403907246604124540e-04
1.485266228975027638e-04
3.658140859903187656e-04
-3.259252102837559783e-05
-3.417795352371292574e-04
-8.213069320532995850e-05
2.660261124907113976e-04
-5.301910587323005507e-04
-9.487688854890232045e-05
-2.102819798986018101e-04
2.256176285282635930e-04
-5.480507137510579171e-05
-2.326618917791497664e-04
6.311731493150853165e-04
-3.034530088891162393e-05
-4.074174340256275643e-05
3.930215794694864905e-05
4.963004948362661892e-05
-1.960325117262626176e-05
-1.685514738638571968e-05
-1.534286950998690638e-05
3.395610492989798666e-05
-1.418757774141769714e-04
2.719312588309396412e-04
2.110262319264285917e-04
-1.218973185190092251e-04
1.308195651943499626e-04
-8.064620072689322326e-05
-7.320038603412098728e-05
-1.961573732575176937e-04
1.645914602858482105e-04
-6.815201251524279384e-04
2.634245187408802789e-04
4.580201566130402539e-04
4.911543527051792386e-04
-1.870717246013172059e-04
-7.486105396630744584e-04
2.400119010718712955e-04
1.352711701345030593e-03
-5.568532427954730606e-05
-2.618275530186463512e-04
-2.114636067297855310e-04
-2.116634996126296516e-05
-4.724707943369210359e-05
-1.739543434583845172e-04
-5.813674444637117718e-04
-2.059987661246234520e-03
-2.052878447458011350e-03
-7.816436436121424738e-04
-7.735946993924160315e-05
9.747601743752851242e-04
4.667949644347793559e-04
-9.348192211802526974e-05
3.623796005563590696e-03
5.451572980846885498e-04
1.178041561775376332e-03
1.222670433157177581e-03
-8.011832409605405998e-04
-6.766399207522768699e-04
1.113081815039411617e-04
-4.666837447908237587e-04
-1.112670568017543873e-03
6.131818318585519545e-04
7.105904616749069477e-04
4.403487231644636344e-05
-1.655489449065405255e-04
-1.422528342910284530e-04
-2.980299072557827640e-04
4.964873352487601714e-07
-7.624719667318012985e-04
-5.228342877262315280e-04
3.880873288892409956e-03
3.208736735506967624e-03
-4.261105637029843945e-05
-1.555260373726644399e-03
-1.189110647132409241e-03
-2.430914333999429407e-03
-1.348879325444365994e-03
-3.060577997679662498e-04
-6.416568782063011888e-04
-3.783665006332332086e-04
-2.674612448093846031e-04
-1.151458215498516499e-04
-1.587681042266897739e-04
-7.148075193221065603e-05
1.938937101125636463e-03
0.000000000000000000e+00
0.000000000000000000e+00
0.000000000000000000e+00
0.000000000000000000e+00
0.000000000000000000e+00
0.000000000000000000e+00
0.000000000000000000e+00
0.000000000000000000e+00
7.862166617059845571e-04
-3.911212494697036683e-05
2.182774571301861189e-04
3.474354669930266562e-05
-2.688854935354383319e-04
-2.022497298931302779e-04
-9.328384847919588712e-05
-4.357064686807382136e-04
1.184794080027890537e-05
-4.286960836379918264e-05
-9.191462041326315053e-06
-3.364536540034969463e-05
6.791481209702130372e-05
-7.000859671508417566e-05
1.116525092565710807e-05
6.478702869760218465e-05
-3.490165352221498646e-04
-2.157728938083421997e-05
-2.984480840744680222e-04
1.700950736100859258e-04
-4.505927408398928619e-05
-2.462743346054675948e-05
-2.792217249004052344e-04
8.478552675123078846e-04
-3.727823820410127538e-04
-1.170222764151187915e-03
-2.968151802559593932e-05
-7.443675281666869373e-05
-3.648308202029973462e-05
7.449611310715418969e-04
-6.221767317129880525e-05
1.000863041154521470e-03
-1.967533755905960305e-05
-4.727424681907205895e-05
4.076882761936462181e-05
1.476289371781597465e-04
1.708838832704213931e-05
-4.865995834075527985e-05
3.121125691658423553e-05
-1.210878673222638149e-04
1.365147847872858172e-04
8.758357620572246620e-04
2.442447177629758601e-04
-6.817965522047392127e-04
-3.377720551568812505e-04
-1.348561822584169040e-03
-9.136193381940690581e-04
2.025154503532368942e-03
-4.053049449801887660e-04
2.776931633057132167e-03
1.129597479138670776e-03
4.473633514134097572e-04
-7.865393874974156100e-04
-9.355594690241763548e-04
-8.008830560203058623e-04
-1.425605606087126378e-03
-6.731419160790661589e-04
-1.133600855275631149e-03
2.257535348174229107e-04
-1.759477458758857142e-04
-1.849490707938963169e-03
-1.544231432203163308e-03
-8.309066361935989577e-04
5.981565758748886089e-03
-1.426275166101319183e-03
