1.198906321481184145e+00
7.060623029755527247e-01
1.191275957547663911e-01
-1.252698189071899393e-01
-3.676328261728435409e-01
-5.432985580047438035e-01
-6.779489118748565080e-01
-3.099461052518766024e-01
-3.372541243421547819e+00
-2.736283795330400448e+00
-1.768394759237666536e+00
-8.228260548083319303e-01
-2.940594454094859755e-01
-4.453753402502708819e-02
1.385851690207163811e-01
8.900057663211818237e+00
1.568450417404688157e-01
1.450561788710600375e-01
7.651924685967555206e-02
7.642647998738211212e-02
-2.431242250329572474e-02
-8.641920184852243392e-02
-1.112424800648684903e-01
-2.328728430418993134e-01
1.877294797700190532e-01
1.312398780993867253e-01
-2.661753325815707089e-02
2.366482399259612138e-02
-7.289072517389776074e-02
-5.546486290247947676e-02
-1.009326667892889440e-01
-8.672839373817958775e-02
-4.815515837840271258e-04
-2.176192019793465882e-02
1.026975369867653975e-01
-4.315122146548362736e-02
-9.033502696491069184e-02
1.125413478791812902e-02
1.024221438507734623e-02
3.153583405235153847e-02
1.007810607525641139e-01
-3.829408342009515964e-02
2.410993813825562659e-02
3.376444529865477162e-02
-8.923655673337924088e-02
-3.546384186096191576e-02
-2.502933317970315596e-02
2.936837100466522035e-02
8.143033922580497630e-02
-4.465266836317459409e-02
1.122022081781091918e-02
-3.234095511207343149e-02
-8.483398313369915067e-02
-3.710833512131005846e-02
3.463771729537391125e-02
7.164766439126711572e-02
8.635398883784375923e-02
6.054773698300307955e-02
6.161251501950483489e-02
3.844267918486380525e-02
-7.984039321006976275e-02
6.704799657755435190e-03
-7.108913136075832584e-02
-1.027321951121425020e-01
1.238120737640686225e-01
3.784323028735925298e-02
5.671514814298365265e-02
4.659751470980778854e-02
-4.175280765290310253e-02
-1.157047238315803096e-03
-1.056330664510007900e-01
-1.164250455619992991e-01
7.579749475077594834e-02
4.678474532902121563e-02
-1.391098327527675801e-02
1.370956962078956065e-01
-5.390575431948554236e-02
-1.119419808607183264e-01
-1.899576936026234342e-02
-6.092344847194847146e-02
-1.408721777465213668e-02
-3.204907961043035325e-02
-6.260869005061453496e-02
-8.357653723487958042e-02
-1.759406548618338770e-02
4.517156477017011257e-02
-2.723905848484422382e-02
1.919830838714356724e-01
6.404717675928847664e-02
1.620832387206868133e-02
1.373675376073188112e-02
-2.491738358748544699e-02
-6.128098763376583352e-02
4.854190234557774486e-02
-1.670637728634564653e-02
-3.962940823006944752e-02
-6.735863227061637815e-02
8.623690742212537785e-02
4.902545726874044801e-03
-1.923244962262342719e-02
-3.955538161613524626e-04
3.789751092605214700e-02
3.101144305616368446e-02
-7.306177142181363715e-02
-5.923387490321591932e-03
1.792507382580194042e-02
-3.574788307903353085e-02
-2.786556133596389609e-02
-5.286599254497267170e-02
2.102938884859671675e-02
1.134578903894198493e-01
-3.000952861352702492e-02
-9.935303705797847440e-02
-8.972250460357041740e-03
-8.324958213666990015e-02
3.288478973068936773e-02
1.250687805200027536e-01
1.457793052748895257e-01
-2.276940000283358967e-02
-8.938860586774310946e-02
-8.717283048678131641e-02
-1.415262400777856922e-01
-8.922825068912998425e-02
4.874185554239066076e-02
-3.698005446829721182e-02
1.367171761113206985e-01
-8.211853133350179718e-03
1.776601972016333963e-01
2.230681207855550810e-02
4.433941311093448495e-02
4.787576125877322092e-02
6.336006277234892958e-02
-1.855940557630375923e-02
-4.183710268782186992e-02
-5.438275407441346687e-02
-6.310278688207313080e-02
7.422622785736050256e-03
-4.396413713651189936e-02
-2.095901169937375644e-03
-5.048364418942929976e-02
6.616069199729962547e-02
-3.844844374463243092e-02
6.073990556393970425e-02
6.689058935359841560e-04
4.278059801638562504e-02
-8.236100736723921123e-02
6.399560878238143118e-03
4.542220479035073699e-02
6.180058342291360612e-02
9.608095208525523762e-03
-1.553071991531506102e-01
7.165716420397662267e-02
1.184062908447274798e-01
-8.509155887789101799e-03
-5.009374919865750876e-03
-5.014506339980163291e-02
-1.604786673315282755e-02
-5.134419367369290332e-02
7.856692355616870516e-02
-6.591755978659408211e-02
-7.459434594680822150e-02
2.915074973483791285e-02
-1.009189326783952291e-03
1.682364118445359505e-02
1.125473538622051156e-01
-7.806898208936999262e-02
3.768942563078989116e-02
-4.253865304932451935e-02
2.041405665916734558e-01
9.532016696841930092e-02
9.496963477477533833e-02
1.432225638124143968e-02
-3.316444339815451114e-02
-1.799362885520824906e-02
-2.026595532933177235e-01
-1.549349991694309869e-01
4.235869467429911189e-02
5.254272316920722413e-02
1.743929104162048882e-01
-2.183486155458397651e-02
5.878913934930279916e-02
-1.679156968295787422e-01
-1.176458178246499314e-01
-2.068709140019983628e-02
3.280610930329652675e-02
9.919200297569147687e-03
1.665657908625119421e-01
-6.564184189379840273e-02
-4.966070446655547477e-02
-3.229375111569970230e-02
-2.573521641430030760e-02
-3.595958657302374822e-02
1.311464952712325660e-01
5.557109990259688492e-02
9.667245340270974249e-03
8.112804567455507432e-02
-8.405281180779752837e-02
-4.184182622416093150e-02
3.771112010911220613e-02
-1.893293682658095389e-01
1.751296800191648739e-01
1.115984280876984452e-01
5.123856172267008541e-02
-7.578020782853822634e-02
-6.764362236935676786e-02
-2.230631671655386797e-02
-9.818441714874986959e-02
-7.405210576633453057e-02
1.791792126748916469e-01
2.744000501270894496e-02
-7.217330061724297648e-04
-5.276741079548365881e-02
1.045836019433039367e-02
-2.532172423151499152e-02
-1.748304654133193414e-01
3.656375556455892378e-02
-6.871236546481883367e-02
-8.251391037151058205e-02
2.367312302634289739e-02
1.832535159673154279e-01
1.172212179805066402e-02
-3.848660557302012453e-02
1.469829597772671741e-02
-4.363417536008620118e-02
1.073587436243334404e-04
5.143199957914218468e-02
-1.650731954639818311e-01
3.111736714938066403e-02
4.857634186630724327e-02
-2.311669615744117723e-02
4.181708892307113741e-03
5.277511539065927321e-02
-1.798455936934307553e-01
-1.589598996153172850e-01
3.621863914505694948e-02
-3.504929558682338270e-02
4.692480232436905402e-02
-1.270501538653279368e-02
1.406889352586578879e-01
1.627274275540248893e-01
1.697998998523299607e-01
-4.493727181936059412e-03
6.127123366188318848e-02
-6.514543945659508062e-02
-9.633891034129157815e-02
1.995049152874679710e-02
-3.002503441136357767e-02
-5.501851365177335557e-02
-4.014838023054907029e-02
-7.346582359504043314e-02
-5.385878887017179345e-02
1.169180529210277486e-01
2.193219388227208091e-02
-2.175618335579249454e-02
7.351845054414753167e-02
-2.313952129589363221e-02
1.394498535653503624e-01
3.082128485820345015e-02
-5.036116202133393560e-03
-2.425830791020253466e-02
6.792866582454586133e-02
5.267193937102761583e-03
-8.964109525368876494e-03
-2.052084645474973323e-01
3.060012250763395891e-01
1.012196647846611564e-01
-5.829017521407185015e-02
2.969465180070143470e-02
9.344383048360618838e-03
-4.685921794716684657e-02
-1.600954040141709112e-01
-1.810151275346587596e-01
9.988179433353067127e-02
-1.371703511783015257e-02
-5.197890492953659292e-02
-4.370058946455028515e-02
-2.581469197714414757e-02
-6.044552858379457702e-03
-1.684855153990459349e-04
4.154246552931053355e-02
6.922412721376647315e-02
3.237563965004630617e-02
4.961651965510164956e-03
2.884988145627923051e-02
4.795830135347355083e-02
1.274883684188006690e-02
-9.652439695844643175e-02
-9.959404152251000175e-02
-2.307600739789185569e-03
-3.227278981291929055e-02
-1.106651290929903247e-02
-2.011032935609615574e-02
-2.736041930664953603e-02
2.215267384267616615e-02
-9.929504748380025073e-03
8.089448303045877753e-02
2.353959487561734995e-02
-1.170234942531578511e-02
3.944406453764327672e-04
-7.564168264124614127e-02
-1.153995899281233528e-01
1.320359102797729473e-02
7.763927181481518336e-02
8.796672363089994007e-02
-7.148152394414399209e-04
2.048559162021676774e-02
-2.855362216870777417e-02
-7.499782869458221368e-02
-1.356758397499681877e-02
-1.679000718106570022e-03
-5.617937090108546250e-02
1.552066300767031282e-01
-1.363612225825535373e-01
-4.168428981578050502e-02
2.237375389536893494e-02
-4.488534580651674932e-02
-2.000882942512286974e-02
-7.541693520200525372e-03
-3.158542890141729370e-02
2.596930561562234008e-01
8.330217736927961192e-02
1.694785342141761145e-02
3.956641427811159739e-02
-2.258828264241665926e-02
6.513358726206432137e-03
-1.187814924408267803e-01
-4.647016501020368590e-02
4.151013629843239988e-02
-3.784228349027880800e-02
-2.004305099643969787e-02
1.133883592306097476e-01
-5.930287228135234026e-03
-3.391542056335646732e-02
7.961606355687819714e-02
2.021778491131823803e-04
-9.547555835839040272e-02
2.127308428485254720e-03
-2.928328466230203930e-02
-1.786675973075771071e-02
-8.333134178773966838e-03
1.659136299172236928e-02
3.829232305899641503e-02
-9.584394300023396304e-03
8.056578392653114887e-03
-4.295519582880052978e-02
1.781455935351646536e-01
2.413572611050095618e-03
-2.581538066081581154e-03
-2.587643171743992873e-02
-1.917640360110508743e-02
-6.031209056192567142e-02
-2.965750637086199751e-02
3.201866153264156661e-02
7.599068999119486245e-02
-4.460955566650642162e-03
-1.212007626691378737e-01
4.054469430417789039e-02
-1.020316581498213228e-02
-3.737751222455872741e-02
2.468835044731674047e-02
1.403351790727045967e-01
5.066016245044441778e-03
1.294442894525503485e-01
2.727213320502403643e-02
-4.170231303610210521e-02
-5.794488039649165617e-02
-7.088223689209791067e-02
-1.315881876506318215e-01
-4.356398686343607857e-02
-2.465025796238457662e-02
1.121005860722244438e-02
-3.736617330264102588e-02
8.809642257221505721e-03
3.521224942723730211e-02
2.995740135551997266e-02
2.039106648126010751e-02
2.556209864992285974e-01
2.165662024982684952e-01
-5.816302729563620211e-02
-9.947135530827772021e-02
-1.343188909085712146e-01
-7.337164848971543252e-02
-5.014869356153239116e-02
-5.671357343376319526e-02
1.292591248097989601e-02
6.978690404029845584e-02
8.469038833021878820e-02
9.395639921157121488e-02
-1.323187452774673423e-01
-5.792791598501734196e-02
5.132584318021284758e-02
-1.224387859807954254e-01
-1.836817866080759087e-01
-5.739017059182683483e-02
-1.041088783231844950e-01
-5.570236217254612154e-02
-5.946657152321713213e-02
8.146371107056613048e-02
1.791966203397358515e-01
1.996894378085476984e-01
4.223967604394023023e-03
3.939659892019741622e-02
6.895106307271343590e-03
4.120576407456222334e-02
6.088103250480817602e-03
-1.546301183301502895e-02
-8.610245011593326003e-02
3.755921792042814320e-03
-1.423512204470712694e-01
-1.994190485477809471e-01
-2.000745867151914326e-01
7.923951526965461109e-03
3.271601588328210131e-02
-2.027838161952251125e-02
1.144570161092038907e-01
4.070262538101132033e-01
-6.817940031805061474e-02
1.479383631288134215e-01
8.346660971410820029e-02
-7.930448807526249699e-02
7.555011264081425149e-02
-4.674598835072769909e-02
-3.608678252340572629e-02
-7.663842621628939866e-02
-7.678273313413941370e-02
8.761793132768402881e-02
6.465412143205441498e-02
4.483700530687514951e-02
-2.144618187311833277e-02
-4.892137184636664859e-02
1.294851551939826297e-02
-6.290728673238754620e-02
6.609346630011909973e-02
-3.079230269527649319e-02
1.273582741417158271e-01
1.191846216233205108e-01
2.097925978180447890e-02
5.172965755432556295e-02
-1.745904997172591233e-01
-1.799624769887483988e-01
9.552613914343678625e-02
1.983993591125553513e-01
8.385184087320177171e-02
-9.335447212416693452e-02
-1.566165726948773318e-01
-2.490027444832204617e-02
-2.287350248863193741e-02
-8.003251737319436176e-02
1.030886614923536421e-01
-6.021293607175811843e-03
3.517645104755481866e-02
5.387477465475156574e-02
-6.187613742672913586e-02
-5.761651570363781477e-02
-1.509982843132306150e-02
-5.152611202579279043e-02
4.032379188641546652e-02
1.243940467297100366e-01
-1.057203153395045586e-02
-3.239036512362267889e-02
8.179987589363066358e-02
-5.675969929406150111e-02
-1.180702887740378015e-01
-2.872532978408363566e-02
-8.234484095974725637e-02
1.424002140482342853e-02
7.884948135703555294e-02
3.275005991710871339e-02
5.118680296297293403e-02
-4.305134047372823763e-02
3.950923513792894970e-02
-9.113941934639413489e-02
7.625722664137549178e-02
9.216585851170001897e-02
1.218927916592940225e-01
-1.573580115473311933e-02
-8.277940324828574059e-02
1.095383890107554797e-02
-4.742677253914830832e-03
-1.980118340565122648e-01
1.194574988129148141e-01
7.708035279300615161e-02
2.236266835719949095e-02
-3.841934815638023415e-02
2.280680004262550589e-02
-4.003755971816441023e-02
-5.718623584656006703e-02
-1.060641762846404046e-01
1.604378390186262660e-01
8.004908961703814663e-02
-7.698926864214683356e-03
3.685205122832693053e-02
3.292062633230766200e-02
-6.158753445484573680e-02
-9.366989269018229092e-02
-1.473032521870561440e-01
-2.400142456775987698e-01
-2.612747870645443227e-01
-2.423166282733286436e-01
2.501320462728798960e-02
7.889324891057462874e-02
-2.808127019483930634e-02
2.271981724095968325e-01
4.405823052628505820e-01
-3.247856231140443251e-02
-1.252032660977278333e-01
-7.225690496594569176e-03
5.442656756393376982e-02
-8.295955264449075828e-02
6.884962439558368896e-02
1.295420655791065800e-01
-4.951185988406374416e-03
-4.731452624338204627e-02
-2.306525658865119302e-02
-1.192503848847045397e-02
-6.404079677488992706e-02
1.066005968987537855e-01
8.980937039073315364e-02
-1.600573401506711832e-02
-3.405861517902594726e-02
3.929163391517680182e-02
9.583932677472291328e-02
1.919353979147198812e-03
9.630913172778139686e-02
-8.388382809623796607e-03
6.939798685202404338e-02
-1.329296151521450198e-01
-1.614394352870837657e-01
-3.545943807187153241e-02
-1.440426670199909491e-02
-6.625099099585193829e-02
-2.219874244394281007e-02
-7.565776675920406202e-02
-5.644035444610026597e-02
1.749623678737528831e-02
2.529153226315970504e-01
0.000000000000000000e+00
0.000000000000000000e+00
0.000000000000000000e+00
0.000000000000000000e+00
0.000000000000000000e+00
0.000000000000000000e+00
0.000000000000000000e+00
0.000000000000000000e+00
7.579749475077594834e-02
4.678474532902121563e-02
-1.391098327527675801e-02
1.370956962078956065e-01
-5.390575431948554236e-02
-1.119419808607183264e-01
-1.899576936026234342e-02
-6.092344847194847146e-02
3.634533693931488174e-02
6.876454315147351171e-02
9.839678483993109792e-02
3.444588965933709224e-02
-8.853679185513256555e-02
5.419292280563214881e-02
-1.366990513681502206e-01
-6.690963417240543276e-02
2.770183981997395226e-02
-5.255621927940502119e-02
-8.466003107919883863e-02
-5.936327324682292433e-02
2.725580422136664877e-02
-5.651020460054685841e-03
1.199926740818051951e-01
2.728022594233621423e-02
-6.735863227061637815e-02
8.623690742212537785e-02
4.902545726874044801e-03
-1.923244962262342719e-02
-3.955538161613524626e-04
3.789751092605214700e-02
3.101144305616368446e-02
-7.306177142181363715e-02
-6.521016809228173672e-02
-9.433769593789086139e-02
9.073657476538134203e-03
1.304659539896091403e-01
1.125880020796342224e-01
-5.683680507256505532e-02
3.171465795821619155e-04
-3.606009102262552890e-02
-5.923387490321591932e-03
1.792507382580194042e-02
-3.574788307903353085e-02
-2.786556133596389609e-02
-5.286599254497267170e-02
2.102938884859671675e-02
1.134578903894198493e-01
-3.000952861352702492e-02
6.613404559210531164e-02
2.041386501493373529e-01
-6.754950992667108078e-02
-6.808131781978973840e-02
-7.602228061573014506e-02
2.370842137564920307e-02
-5.058508899705770750e-02
-3.174291975784297726e-02
-1.430792110924392624e-01
-1.044713833998917318e-01
-1.282436820543638063e-02
-2.268377402685937960e-02
9.279597407300525791e-02
1.823957496297297365e-01
2.854243757693113517e-02
-2.067542455503857887e-02
4.280229653463670653e-02
-1.430182127191135209e-02
-1.194936148110039426e-02
-6.816072412270392580e-03
-4.292915016906206915e-03
-3.488060657923681539e-03
-1.043895162289375060e-03
-9.101705322353203457e-04
3.283017520015494694e-03
-3.159972422046158913e-04
-6.519278380295447095e-02
3.952415294581913818e-02
4.948834673975804205e-02
-9.621296752101386740e-02
1.238349516844366657e-02
5.704273619213743457e-02
-9.045584800679748461e-02
-1.412102428355805905e-01
-2.403546688617566943e-02
9.217702596571510434e-03
-8.646840120805532326e-02
2.329301436323351626e-01
-2.059534830179390874e-02
1.206174610094966765e-01
2.230681207855550810e-02
4.433941311093448495e-02
4.787576125877322092e-02
6.336006277234892958e-02
-1.855940557630375923e-02
-4.183710268782186992e-02
-5.438275407441346687e-02
-6.310278688207313080e-02
7.422622785736050256e-03
-4.396413713651189936e-02
-2.095901169937375644e-03
-5.048364418942929976e-02
6.616069199729962547e-02
-3.844844374463243092e-02
6.073990556393970425e-02
6.689058935359841560e-04
4.278059801638562504e-02
-8.236100736723921123e-02
6.399560878238143118e-03
4.542220479035073699e-02
6.180058342291360612e-02
9.608095208525523762e-03
-1.553071991531506102e-01
7.165716420397662267e-02
1.184062908447274798e-01
-8.509155887789101799e-03
-5.009374919865750876e-03
-5.014506339980163291e-02
-1.604786673315282755e-02
-5.134419367369290332e-02
7.856692355616870516e-02
-6.591755978659408211e-02
-5.539038664409284135e-02
1.589370705454303326e-02
-3.183628003991999939e-02
3.473893880280375795e-02
1.010745199991797960e-01
-2.233659102399026056e-02
-1.633971090680470112e-02
-2.580419724171885421e-02
1.058835089575725641e-02
1.646320875667301202e-03
3.337354420041856607e-03
-2.624439806432945707e-02
3.366379986801915775e-02
-3.993833126272944983e-02
1.683874259866388265e-02
1.081606689093796494e-04
-2.979231019847274411e-02
1.161072180462762414e-02
2.748973629309421282e-02
8.329100445979269879e-03
-2.219096600499385549e-02
-1.579405980265027876e-02
3.719039393893069922e-02
-1.684261647651493984e-02
1.608668973580490782e-02
4.896572817757447599e-02
4.204113108435259677e-02
1.805976012720235738e-02
2.374646524138691872e-03
3.273935167797541179e-02
-5.118961257112675939e-02
-1.090776947559216337e-01
2.873771156251086478e-01
7.845269343329337730e-02
-2.990956881355943606e-02
-4.255658467013884172e-02
-8.830283867281678301e-02
-2.258020438655806983e-02
-9.188325379934531023e-02
-9.059735871598396939e-02
-1.314899977878181414e-01
-6.972591556275656299e-02
-1.389874355584542510e-02
-3.780728031068527478e-02
4.591019521350539478e-02
-1.258336331198158659e-02
1.239121104650391797e-01
9.568299485054437836e-02
6.896828480456568267e-02
4.202481854215402851e-02
-1.156428849185930051e-02
-2.493206954239125112e-02
8.454542422217860287e-03
1.784290559929326003e-02
-4.352535570791035702e-02
-5.726883762606990030e-02
-1.292780579814597763e-01
-5.563779993452540318e-02
-2.109067796273306900e-02
1.248259936436384443e-01
1.264422534789719776e-01
-1.184709899930390248e-01
-4.937934667769572350e-02
1.225886254268429704e-01
-1.009383853391294938e-01
-1.095884309057059691e-01
1.986381732754860432e-03
-1.759533598561585643e-02
4.998197305216209307e-03
7.248930542224282791e-02
3.823232808566141144e-02
1.104159396845758451e-01
4.505715709767734167e-01
1.803935064566729307e-01
5.165343956275494919e-02
-6.680828645123952636e-02
-1.526612395016753443e-01
-1.055385666958165436e-01
-1.228865965047128556e-01
-2.347238278427560276e-01
7.811542046040494125e-02
8.978344396323953425e-02
1.665999325611591253e-01
-3.937945689061948112e-02
-1.396472383509675952e-01
-1.171508955624917143e-02
-6.736979624554766122e-02
-7.638721594142247606e-02
5.126173389735848296e-02
6.693798727918593393e-03
6.102200932474852874e-02
3.927480379024176488e-02
5.832008802143506115e-02
-9.789448963460521680e-02
1.761783856643849705e-02
-1.362957826935358163e-01
-1.069352780038588602e-03
-2.518700668324866040e-02
1.848909356520175018e-01
-5.407186364005196061e-02
-3.840055862928708902e-02
-2.357814301652370187e-02
-1.917128013817078619e-02
-2.341273076469671879e-02
3.387546208333511166e-02
3.510620698081777513e-02
-1.832514478950555623e-02
-1.156997825374646641e-02
-1.126014583726836493e-02
-8.715608099175996965e-03
-6.563936276129534418e-03
-1.254685580832698606e-02
-1.001122147377192656e-01
-1.412016243249117620e-01
9.828301381369973500e-02
5.196500164746026273e-02
2.875988970958026289e-02
1.024211548949527026e-02
2.054544751967867303e-02
3.151837088271717408e-02
2.312587100089522063e-01
1.967727242275084387e-01
-8.861576847342850227e-02
2.916304402709481158e-02
-1.128127015173780723e-01
-5.208394171365623299e-02
1.716567258943323820e-02
-2.208477391485263452e-01
1.751296800191648739e-01
1.115984280876984452e-01
5.123856172267008541e-02
-7.578020782853822634e-02
-6.764362236935676786e-02
-2.230631671655386797e-02
-9.818441714874986959e-02
-7.405210576633453057e-02
1.791792126748916469e-01
2.744000501270894496e-02
-7.217330061724297648e-04
-5.276741079548365881e-02
1.045836019433039367e-02
-2.532172423151499152e-02
-1.748304654133193414e-01
3.656375556455892378e-02
-6.871236546481883367e-02
-8.251391037151058205e-02
2.367312302634289739e-02
1.832535159673154279e-01
1.172212179805066402e-02
-3.848660557302012453e-02
1.469829597772671741e-02
-4.363417536008620118e-02
4.144211686117649229e-02
-1.405813206947623129e-01
-5.043731454984305002e-02
-1.273534673159185462e-02
-1.025948020323409204e-01
5.124799654881854322e-02
5.185669995325217080e-02
1.618019706452908935e-01
-2.426166709958628084e-02
6.216920059311541180e-02
-1.800316079346719889e-02
-1.011957085798452852e-02
-4.311872136246251708e-03
-2.384291483982579462e-03
-1.444335709737436723e-03
-1.644302512111090343e-03
-1.707309101796569001e-02
1.298441196807895714e-01
-9.663272012067000705e-02
5.397228473895714085e-02
1.554830160348946999e-01
-7.198040122227751525e-02
-4.623065535120746833e-02
-1.073825527425208148e-01
1.697998998523299607e-01
-4.493727181936059412e-03
6.127123366188318848e-02
-6.514543945659508062e-02
-9.633891034129157815e-02
1.995049152874679710e-02
-3.002503441136357767e-02
-5.501851365177335557e-02
-4.014838023054907029e-02
-7.346582359504043314e-02
-5.385878887017179345e-02
1.169180529210277486e-01
2.193219388227208091e-02
-2.175618335579249454e-02
7.351845054414753167e-02
-2.313952129589363221e-02
-1.379279806730600022e-01
1.115413831882686585e-01
1.210887348718566181e-01
3.777066810156484711e-02
1.162368005056671309e-02
-4.439335403473203961e-02
6.059742739141624548e-03
-1.057628742436066555e-01
2.773778342384102813e-01
-8.072009833006513202e-02
-1.261248510739903517e-01
-6.202897601176730891e-02
5.630498577397915344e-02
4.966054797183484110e-02
-1.502385226451049757e-02
-9.944559030389098220e-02
4.415519157894100266e-02
7.341119742084055433e-02
-3.806625177142642508e-02
3.932814393991321267e-02
-1.619492004312362773e-02
-1.955892268395541603e-02
-1.923734903083628919e-02
-6.383708941035387552e-02
1.446515782752335888e-01
6.394770541077186843e-02
-8.306048506263137218e-03
-4.806904078749482667e-02
-6.046797480690126875e-02
-1.782717795611056880e-02
4.352608501248425143e-05
-7.397256771424746968e-02
-2.895885292773716507e-02
-7.764211171930306132e-02
-1.228680630490750457e-02
-2.644880562155115661e-02
-2.391370114526347040e-02
3.620935258452799566e-02
2.939356100854566972e-02
1.036473641256887845e-01
0.000000000000000000e+00
0.000000000000000000e+00
0.000000000000000000e+00
0.000000000000000000e+00
0.000000000000000000e+00
0.000000000000000000e+00
0.000000000000000000e+00
0.000000000000000000e+00
-5.996612259290723390e-02
-7.343382623014048372e-02
6.680201653060238026e-03
-8.510886995417958623e-03
7.476190401814380992e-02
-4.867804802841026179e-03
-1.036822357812170609e-02
7.570475852822397544e-02
6.922412721376647315e-02
3.237563965004630617e-02
4.961651965510164956e-03
2.884988145627923051e-02
4.795830135347355083e-02
1.274883684188006690e-02
-9.652439695844643175e-02
-9.959404152251000175e-02
1.431238214818598975e-01
4.435948185922555104e-02
7.075826025457862545e-02
4.159475841489094702e-03
-9.384937514705389561e-02
-7.786255487864351954e-02
-1.326937252672283629e-01
4.200461585577339174e-02
-1.351275715012029708e-03
9.626827816597814669e-03
-4.754067059889148517e-02
2.959024682734673686e-02
-5.568383128683123719e-03
1.576763423020965255e-02
-4.635422837260351481e-02
4.582984894103644957e-02
-2.962706837433221052e-02
-1.316044190352605725e-01
-1.300735288279685764e-01
1.557953723386956875e-02
1.895244872266274583e-02
-5.412582188893971108e-02
1.787193864467948035e-01
1.321794657231744052e-01
-6.261841873775318701e-02
-2.647326727321206233e-02
-5.090675271941142582e-03
-6.674871786935991820e-03
-2.088719092205279862e-02
3.158162206340658917e-02
4.471096870024546255e-02
4.545183322824292160e-02
2.973115291324189557e-02
3.333525480010747499e-02
-4.504821704872584431e-02
5.229166590639049324e-03
6.184081396605865116e-02
1.650242176668158950e-02
-1.266748493332193193e-01
2.508425634521800271e-02
3.722644701719819184e-03
-8.654072166314814851e-02
7.083616870840285518e-02
-5.788605520093183243e-02
7.725655251618973596e-02
5.739874597664409994e-03
9.022257131489130888e-02
-1.033510349747858853e-01
5.078014953245018476e-02
6.013843034508930402e-02
-1.517690978206466708e-02
-2.527976346754861117e-02
-3.022937250312936544e-02
5.416180832889616603e-02
-3.090086643261095306e-02
-6.349347602108169897e-02
-9.580747566152220118e-02
4.734306714623359030e-02
4.156124288945922673e-02
1.544365238632275719e-02
-2.436468233279349624e-02
2.624207928173404383e-02
-6.635376640686916781e-05
-1.035152994302777213e-02
5.656224389643815104e-02
7.559846029137316098e-03
-3.804603309520400434e-02
-4.539381519601554810e-03
-2.485795534240024113e-02
-6.305780894300920536e-02
3.802880618031511534e-02
2.835028279432533563e-02
-1.413407512020893875e-01
-2.452845140438403571e-01
-1.006817221020774172e-01
-7.589921862450420276e-02
1.631432489559447169e-02
2.469536003925925927e-01
9.043493441734683225e-02
2.095033462669774749e-01
-3.634155742382876031e-02
1.990638985083596768e-01
7.102008159633843576e-02
3.739724805077099257e-02
2.243555256962674604e-02
-1.555960444640769880e-01
-1.763281993623365060e-02
-1.203463589009557549e-01
-4.362997085486187282e-02
3.117567992376776582e-03
-3.025906160366175976e-02
-3.655294187542466877e-02
-4.717712663274616081e-02
9.800626440036888654e-03
-9.409842472220346019e-03
1.541107490065000141e-01
7.783670562687859673e-02
3.079637115484348819e-02
-1.386677524522797120e-02
4.275562246754712609e-02
-6.502181427427380922e-02
-6.436099243896915845e-02
-1.250161670105524314e-01
1.168770497197544889e-01
-2.396844823600108657e-02
-1.089460491937649378e-01
-9.201197962590630663e-02
-5.630892642813916521e-02
4.041019640184421308e-02
1.128603158976599768e-01
9.352258863615568740e-02
3.444230254815269093e-02
-5.458307263031880047e-02
9.863526965913786693e-02
7.732513270242710735e-02
-6.144452473399088233e-02
1.104403389743255533e-02
-5.017832417679725376e-02
-2.468579252668838542e-02
3.887277808796364698e-03
-1.032075866885732857e-01
-3.595068819831863383e-02
4.975544155328891389e-03
3.565514107545165318e-02
1.195394460225310956e-02
1.880110485617939725e-02
7.903030927443172038e-02
-1.125776907675385928e-02
-3.852360641710436684e-02
7.887435800749853509e-02
4.280041793818671614e-02
-1.131345803099767511e-02
1.834163515790665153e-02
-3.964691171039218948e-02
-6.137805436641247808e-02
1.084561942131416490e-02
5.369970523124011942e-03
-8.460795962496089895e-02
-2.540220819814641151e-02
-6.922702885097149761e-02
-5.030440918528258226e-02
1.330411333401151919e-02
-4.923768380943633477e-02
2.601052058116620769e-01
-5.270149087548977630e-03
1.163473168965230807e-02
1.889671888118158241e-02
6.618100462418514962e-02
-8.676632089892473768e-03
-5.884148205744464677e-02
4.242883813248390229e-02
-6.635303009261696305e-02
1.315876533433713025e-02
-6.223395596142042296e-02
2.522454837128473848e-02
-5.208422226582241910e-02
8.471590826561319065e-02
-8.122829940757941847e-03
-6.522545760104771218e-02
6.456724379781325629e-02
7.541356112249113230e-02
6.754707769318535338e-02
-4.554852974354423392e-03
-3.668506500077942101e-02
-6.952591744951462649e-02
-5.181718044262501044e-02
-2.367354554163941804e-02
4.329592259323596093e-02
1.384020999530972407e-01
-4.669250090575730733e-03
-3.911196463012321656e-02
-1.376882762848418706e-01
-3.329059042203467295e-02
-1.164977069489951862e-04
2.414516674087803169e-02
5.232931244055055719e-02
-7.666052205332811453e-02
-2.199468864547727415e-02
-5.162020325470986770e-02
-3.013936653359681681e-02
3.313796899433521948e-03
1.089652314639234371e-01
3.128941197273070463e-02
3.684634015102660615e-02
-9.205697403170173820e-02
4.774005617360723569e-02
2.593090932755965361e-01
7.939207561007877167e-02
6.645665578682020957e-03
-7.674773438311212337e-02
-8.037914712201929546e-02
-1.439030351011318654e-01
-7.526887358342781130e-03
-4.111916843399394256e-02
-5.518856616015430094e-02
8.250527998022463838e-02
-1.058429261943723276e-02
4.751506418301570944e-02
2.514674625752369441e-02
-4.074817584883566601e-02
2.127308428485254720e-03
-2.928328466230203930e-02
-1.786675973075771071e-02
-8.333134178773966838e-03
1.659136299172236928e-02
3.829232305899641503e-02
-9.584394300023396304e-03
8.056578392653114887e-03
-4.295519582880052978e-02
1.781455935351646536e-01
2.413572611050095618e-03
-2.581538066081581154e-03
-2.587643171743992873e-02
-1.917640360110508743e-02
-6.031209056192567142e-02
-2.965750637086199751e-02
-9.221115094993023731e-02
1.742103652437412137e-02
2.929128436932575824e-02
-8.453983382168014926e-02
5.336272539752935640e-02
1.101248961371335995e-02
2.504442389094764607e-03
6.315900647757274888e-02
1.242298124825727962e-01
5.856965346681965168e-02
-3.375223993597656347e-02
-3.666092884745793257e-02
-1.281803109335158571e-02
-2.121565542869560672e-02
-3.988195461365375005e-02
-3.847065603025615066e-02
1.403351790727045967e-01
5.066016245044441778e-03
1.294442894525503485e-01
2.727213320502403643e-02
-4.170231303610210521e-02
-5.794488039649165617e-02
-7.088223689209791067e-02
-1.315881876506318215e-01
-1.266796336002596057e-01
5.885065997675736904e-02
1.079258804788631870e-01
4.547523787776678456e-02
5.932594891442354718e-02
-4.348200087816479070e-02
-4.063451529065756351e-02
-6.078157747872769967e-02
1.221956124056126740e-02
1.369930793548694847e-01
-5.324587827128031414e-02
-6.431850633565562581e-02
-1.234116950480503849e-01
1.038829022045746446e-02
1.903163657047060239e-02
6.234351226862725609e-02
3.700810588589260597e-01
2.072246316664094756e-02
-1.128430295032190056e-01
-8.062808685038949652e-02
-7.023314477494367603e-02
-4.027793783200805250e-02
-2.854581484134524963e-02
-5.827550822366240474e-02
-2.772627020216907323e-01
-2.386232369809793141e-01
-2.355929390728883355e-01
-1.286186458497143581e-01
-7.312549780578488090e-02
1.741564664384553374e-01
1.488612167681293286e-01
6.302053385244703598e-01
-1.156139596858833489e-02
1.214656197128572979e-01
1.329263260006460223e-01
2.882968784278104601e-02
3.923824461133978460e-03
-1.172667767171504116e-01
1.024289020361747460e-02
-1.685601755352964803e-01
1.051423113822035627e-01
5.976744667629399488e-02
-1.442265250943145253e-03
4.408659583438769708e-02
9.735101821433545660e-03
2.457402134926034779e-02
2.009251336798936055e-02
-2.619557251806264864e-01
-1.832259964097385230e-02
1.644384104055713822e-02
5.979062795129539733e-03
-2.741426543690500539e-03
1.180739707507571373e-01
2.351541086243441169e-04
-6.391042782120115451e-02
-5.575757468920283788e-02
2.418299352542280928e-02
-1.655501730535507976e-02
-5.063261848045982200e-02
-5.885627003568584537e-02
6.629188681608343819e-03
1.038178940001163904e-02
9.821987505461846069e-02
-1.336994084016070866e-02
-3.605034076064255171e-03
-1.238341029522709025e-01
2.656287176714138346e-03
3.088275295456462122e-02
1.533893141165122431e-01
2.340776427569159560e-02
4.694838627643873295e-03
-8.759182012279102814e-02
9.896525388057857142e-02
1.247793935816348676e-01
1.469728011423942493e-01
1.200105383976017154e-01
-2.441875267057973531e-01
2.581698774403238736e-02
-2.083817764097991299e-01
-6.397567163064553364e-02
-3.512714738884423898e-02
-3.162641705984258617e-02
2.238274150793726977e-02
2.988902685053083236e-02
-1.292568706127673710e-02
-8.112037974034480570e-03
-5.213009168520583124e-03
4.073253029405051601e-02
4.223967604394023023e-03
3.939659892019741622e-02
6.895106307271343590e-03
4.120576407456222334e-02
6.088103250480817602e-03
-1.546301183301502895e-02
-8.610245011593326003e-02
3.755921792042814320e-03
6.908306468753032392e-02
5.052850312831868446e-02
6.259823319599472184e-03
8.958747769415338624e-02
2.024567808577876910e-02
-1.429845984318293683e-01
-1.156253172941154074e-02
-8.115741675414034351e-02
-2.114342851346007746e-01
-2.499475516761004434e-01
-2.063344100347908605e-01
-8.166352616718750013e-02
1.247033779750303731e-02
1.227062168123063540e-01
1.260195478386148260e-01
4.881836705642559338e-01
-6.817940031805061474e-02
1.479383631288134215e-01
8.346660971410820029e-02
-7.930448807526249699e-02
7.555011264081425149e-02
-4.674598835072769909e-02
-3.608678252340572629e-02
-7.663842621628939866e-02
-7.678273313413941370e-02
8.761793132768402881e-02
6.465412143205441498e-02
4.483700530687514951e-02
-2.144618187311833277e-02
-4.892137184636664859e-02
1.294851551939826297e-02
-6.290728673238754620e-02
1.455522871840451427e-01
6.450516530907397794e-02
6.332649594806862015e-02
-1.151336671387028082e-01
-1.508032431157916298e-01
8.343236827186492621e-02
-4.328639301427319314e-02
-4.759301344428375907e-02
-6.604482484959668664e-02
1.846571880599681137e-01
6.188621836361448032e-03
-7.704551643733270616e-02
2.572671613652647085e-02
-8.144229161852717391e-02
3.800132785604867780e-02
-3.004122098344769523e-02
1.601867680898822616e-02
-5.076299425648627545e-02
1.433672308877094285e-02
9.882471145186855210e-02
-3.154004571561189185e-02
-2.689035110165937520e-02
-1.758843733040736310e-02
-2.398282945462765214e-03
-5.960793017317617820e-02
5.239918331531243090e-03
-1.293117085184007642e-02
-6.913168050691866073e-02
8.539949904353095686e-03
-1.231662812494288897e-02
3.166778282634748198e-02
1.085397585946453192e-01
2.651315959322872451e-01
1.357261161330806376e-01
1.202290957863559190e-01
-4.777848922053586078e-02
-1.120270026836390903e-01
-7.156617188175805333e-02
-8.360333349416612658e-02
-2.061118105716235327e-01
-2.128622705314297744e-02
1.732441291609563006e-01
-5.107345724664529019e-02
-4.584394297097232895e-02
-6.767273066708519302e-02
8.434146065832556424e-03
-1.086079092380878713e-01
1.128059919491434387e-01
-1.116889383344171621e-01
-3.159442687219440882e-02
1.653598932726810244e-02
-5.080621973517354846e-03
2.144526805062238126e-02
-1.514349388125950987e-03
3.454533008755609341e-02
7.735174910280805116e-02
-7.138344261507087452e-02
-8.149366059742811641e-02
-2.346779600809448599e-02
1.659613263766448188e-01
6.790074578522778403e-02
-1.278391654258618226e-01
2.480255980026577212e-02
4.551943268431665746e-02
7.327187788381313294e-02
3.430780646732047717e-02
8.065412045751221490e-03
9.805917957046434222e-03
-2.314842054151937389e-02
6.643313754765770018e-02
-9.482299738471795802e-02
-7.391273397535068346e-02
-1.052587346889225228e-01
-5.170308871119302929e-02
3.555396105301681514e-02
9.698820723925763443e-02
4.248393274908018880e-02
1.527382438216644440e-02
2.722139701880100723e-02
-6.055949904220542246e-02
1.055237615981462485e-01
-3.586204546802926330e-02
-3.018875916665878650e-02
-1.174877385883040387e-01
1.273701047272575090e-02
1.418696968123314001e-02
6.692605400113845610e-03
4.439819607077446356e-02
-1.374651352123606451e-01
-1.076662310206550344e-01
-4.307429111922329162e-02
-9.496364404241177185e-03
4.950060786611516772e-02
8.472994951028377242e-02
7.247016469523463733e-02
9.100129968484549359e-02
1.841318835473869653e-01
-7.939448697677606651e-03
1.463622375466216465e-02
6.975536969371243234e-02
-9.459617159597331904e-02
5.272116173097377706e-02
2.474729303569858652e-02
-2.434563114687845753e-01
-1.828004939219051925e-02
-3.828036233288576590e-02
8.912434729640281899e-04
6.182791052578393877e-03
3.296067323336292210e-02
-8.615938980109619227e-02
4.978727882163037216e-02
5.289781494563696590e-02
4.032379188641546652e-02
1.243940467297100366e-01
-1.057203153395045586e-02
-3.239036512362267889e-02
8.179987589363066358e-02
-5.675969929406150111e-02
-1.180702887740378015e-01
-2.872532978408363566e-02
-8.234484095974725637e-02
1.424002140482342853e-02
7.884948135703555294e-02
3.275005991710871339e-02
5.118680296297293403e-02
-4.305134047372823763e-02
3.950923513792894970e-02
-9.113941934639413489e-02
-5.975580029436527996e-02
2.109638555398467563e-01
1.951191608964280566e-01
-1.202081767299869597e-01
-6.951778119934629019e-02
3.312066689702049954e-02
-5.930359591745571618e-02
-1.304183291921413301e-01
1.541328839492107639e-01
-8.113878524636133904e-02
-7.248598364125902194e-02
2.535976781041290526e-02
-2.067293441763848327e-02
4.117192944089867468e-03
2.318137855915060677e-02
-3.249351995760713790e-02
-1.811985701347061314e-02
-3.765921178178479461e-02
-7.403855958745977992e-04
7.911260776484033141e-02
7.411312368699385887e-03
-2.628402094003499598e-02
3.137954010439029939e-02
-3.509998490676501798e-02
1.194574988129148141e-01
7.708035279300615161e-02
2.236266835719949095e-02
-3.841934815638023415e-02
2.280680004262550589e-02
-4.003755971816441023e-02
-5.718623584656006703e-02
-1.060641762846404046e-01
1.604378390186262660e-01
8.004908961703814663e-02
-7.698926864214683356e-03
3.685205122832693053e-02
3.292062633230766200e-02
-6.158753445484573680e-02
-9.366989269018229092e-02
-1.473032521870561440e-01
1.251887447402535714e-01
9.204508215329279541e-02
1.626408937499090601e-01
1.179463151026118040e-02
9.030878663001302986e-02
-5.424764949164464362e-03
-1.265973326777081465e-01
-3.499560411568569673e-01
2.359586883246254374e-01
8.875694885277159163e-02
-2.277965066448507311e-02
2.233961458528932811e-02
-5.897779316893935267e-03
-5.655033251127386529e-02
-5.646963055226952161e-02
-2.053578587177639359e-01
-2.356494342981528267e-01
-1.497193922105373720e-01
-1.829716847275143499e-01
-9.033662817178525484e-02
-1.254234103202606643e-01
-9.310360433305457650e-02
1.212518153377151880e-01
7.559523387235901337e-01
-1.754511873503862285e-01
-1.165880946156981485e-01
7.909965903111595975e-02
6.858227800617593128e-02
9.330830589841010480e-04
2.454648776141895861e-01
-7.571900458862847183e-02
-2.632161115575288104e-02
1.205687513375812564e-01
1.083794555915498642e-01
2.118996025894647472e-01
-6.196380456766708428e-02
-7.517785319169607329e-03
-6.181504307776449630e-02
-2.365505457657105653e-02
-2.858961219774237006e-01
7.442380617386445962e-02
3.791744403117896373e-02
-1.149156593630755036e-01
2.506782364380356620e-01
1.831739539333731570e-01
-3.155130103470223796e-02
-2.054285229847908623e-01
-1.942979571938859840e-01
-3.443829261170971989e-01
-3.155914384779775483e-01
-2.455440975259894909e-01
8.736551597356997934e-02
8.396871230325234081e-02
-1.522758819358267443e-02
2.318191012945418350e-01
5.175927207432813315e-01
1.798091784179627062e-01
1.102052553865946610e-01
9.325488745224436160e-02
-1.004215479250975852e-02
-1.001101926540897413e-01
-1.397096797483887987e-01
4.162890197116664304e-02
-1.750361960329811506e-01
2.995659373048389570e-02
-4.281124181103083959e-02
-8.535086452181235919e-03
-6.386878917744104149e-03
1.713857826188323191e-02
8.848582491496684299e-02
-7.281414878424162518e-02
-5.033640942135986229e-03
8.141589511516807154e-02
1.843379983096249120e-01
-3.545719828535462415e-02
3.194795908571939486e-02
-4.031124972575284016e-02
-5.763877246936710552e-02
-5.331801423295907949e-02
-1.109766177970790413e-01
-1.346889494369607754e-01
-7.110302232023027469e-02
-1.555384666109501865e-02
-5.456921442722856286e-02
4.726475995755363008e-02
1.766873355543611968e-02
2.040466531710184890e-03
2.089410728008149198e-01
-1.097009191091538188e-01
-7.886731586207688938e-02
6.896974284185157511e-02
-6.103159915998263713e-02
7.660050466963111426e-02
5.223044319903456800e-02
8.457764290228804091e-03
4.334137913046685886e-02
-3.247856231140443251e-02
-1.252032660977278333e-01
-7.225690496594569176e-03
5.442656756393376982e-02
-8.295955264449075828e-02
6.884962439558368896e-02
1.295420655791065800e-01
-4.951185988406374416e-03
-4.731452624338204627e-02
-2.306525658865119302e-02
-1.192503848847045397e-02
-6.404079677488992706e-02
1.066005968987537855e-01
8.980937039073315364e-02
-1.600573401506711832e-02
-3.405861517902594726e-02
-8.473994254626765477e-02
1.263753384841995175e-01
8.838269751371075067e-02
2.167172045887849618e-01
-1.307337965735962983e-02
-1.038597953990655354e-01
-7.360227070132456528e-02
-1.561998522826758828e-01
1.462286553542989087e-01
-3.392793894546652228e-02
-9.604197520413043643e-02
-5.976934428180653153e-02
-1.321748627490467766e-03
5.867018657090376788e-02
4.190634166027362717e-02
-5.574417652658233274e-02
1.138039138355714935e-01
5.790344625940589685e-02
-5.452422562158803360e-02
-8.973918766310833017e-02
5.115133175824251172e-02
8.120959062460261779e-02
6.876630726875491983e-02
-2.285711764618811870e-01
2.703527868701797177e-01
4.490605675965929876e-03
5.936519058797701948e-02
-8.746832315605966579e-02
-3.231487310376055661e-02
-2.292856801918308554e-02
-1.804752178490109105e-01
-1.102160100610912428e-02
-4.470888196283852034e-01
-1.485685812147886919e-01
-1.416644051234477730e-01
8.977458037464339582e-03
-8.287250024786814440e-02
-1.429160239563799333e-02
6.232940549831917591e-04
8.248851565176829048e-01
-7.083751269872790024e-02
-2.064293667671739801e-02
5.555799087980538981e-02
1.487936526210303749e-02
5.279894753823638313e-03
6.430144379911870156e-02
6.950608079523462601e-02
-1.180443261146416484e-01
5.819370103867661792e-02
-1.767901319302651875e-02
2.631603691705850998e-02
-8.717371002225855758e-02
5.555720963822950720e-02
-1.792969041056686336e-02
4.603640628624518921e-02
-6.332094025435781870e-02
-8.657031999745198880e-03
-1.750874892139905881e-02
-2.664694234754197075e-02
6.918185064484563829e-02
5.779008571765011613e-03
-1.191238622581441108e-02
9.598773782695491433e-03
-1.983452350480601617e-02
-1.518526219277159701e-02
2.302175447897316513e-02
3.360624072572618998e-02
-4.409423308326278906e-02
-3.346855612071247127e-02
8.985957306061140293e-02
5.272232115336545483e-02
-1.064618380219292393e-01
-1.320877001525450345e-01
-1.588153838258538897e-01
9.015585694825198337e-02
-9.310027274382770210e-03
5.651463353616848623e-02
3.559738050519119235e-02
2.623165045297430609e-02
9.171358981019638035e-02
-1.918015337889237004e-01
-1.459246588872038508e-01
-1.079089316498550721e-01
-3.995095572212345458e-02
1.141058037504801143e-01
1.112127214291159516e-01
1.063197726430483575e-01
1.539477822254627370e-01
9.310424746117031136e-02
-3.540768765743507879e-02
-1.047479828820363917e-01
-6.030916505882302076e-02
-4.119884428623157673e-03
3.997619663974980031e-02
3.793265531423722220e-02
3.357162061175946594e-02
7.990869233696291929e-02
1.416389486477357407e-01
7.222828251670074251e-02
2.793055112032154924e-02
-1.018334659600030924e-02
-7.566769405798946802e-02
-1.144640857970834480e-01
-1.213913481706472841e-01
1.101634732246134507e-01
2.702205259579901903e-02
2.721436024415344046e-02
-7.769115234995327413e-02
6.221627101259195186e-02
-7.863386389688489797e-02
1.840679649727255951e-03
-7.213182048004643243e-02
-1.702584099847896104e-01
-1.249720776142799056e-01
1.037290660049000751e-01
9.867063931859074155e-02
6.806089943010834586e-02
-8.425484522947550292e-03
4.635854574450238262e-03
2.855951279396568010e-02
-3.047226400501453977e-02
2.536970649528397584e-02
-4.108231665348395512e-02
9.334620473203625660e-03
-4.392373608699144671e-02
2.999201183082357558e-02
4.125063803758556580e-02
9.531339908593413832e-03
2.236393301854345816e-01
2.512918960286850481e-02
-2.775049240667746414e-02
-9.894682925482180258e-02
-4.072113258860834278e-02
-1.346378857305143180e-02
1.035021559236417622e-02
-7.823649255751077836e-02
1.609432792021923270e-02
2.449710838144423565e-03
-2.691228872062033633e-03
-2.250415200316499206e-02
2.843472852593209588e-02
-5.029296343119631085e-02
-4.428096203062101971e-02
7.279053905274925074e-02
-8.793451245739970779e-02
8.179578394135994523e-03
-3.186125709705734527e-02
7.040903660409948348e-03
3.493393777993487187e-02
6.196537376349978143e-02
-2.216730681354280377e-02
2.984328277001854768e-02
-1.167413215572765117e-01
-5.819629007031473789e-02
1.301481674907807758e-02
1.339283567639962813e-01
-6.730768827595488835e-02
-1.301987227551755777e-01
1.096285959298392981e-01
1.158722532158093094e-01
4.432571848262474752e-03
-3.808054842419507369e-02
-5.191678455445795926e-02
-3.283742454884708978e-02
-2.033874185569525816e-02
5.759536272884897834e-03
1.465764115508387359e-02
1.183237501069641789e-01
-1.169215997964844489e-01
3.706642788304919528e-02
7.340063620447886961e-02
4.711813107623656974e-03
2.624798374603047948e-02
-3.354132555510244695e-02
2.934475855396408497e-02
-2.030869414356054059e-02
1.730938047200067664e-01
2.290505380261365423e-02
4.653867178511602969e-03
2.887712129604429190e-02
-1.002755322527993376e-01
-2.723850390766998503e-02
-1.296872007241869906e-01
2.767138988748075665e-02
-1.236659204550619728e-01
-1.589074256875806432e-02
1.553744549978883054e-02
1.805841617364635221e-01
4.945158047043305555e-02
-9.826279575874199979e-02
4.762297352452887766e-02
-5.537670244865464803e-02
7.855287224042516170e-02
-1.040374662562428866e-02
-1.833776585086919694e-02
3.563098095145049177e-03
-3.558178593833458137e-02
-2.524412857801644136e-02
1.634352278136244965e-02
-8.892066124088427587e-03
-5.572634342100139804e-02
7.116732356136441784e-02
6.125640751018599645e-02
4.218930235579645277e-02
1.833553318742065300e-02
-1.130095044749463047e-02
-8.375768163811363187e-02
-4.216359110815801753e-02
4.498525541103147452e-02
-1.566362427627785714e-01
-8.386412015971066169e-02
-7.236938267293077653e-02
4.502018791018020522e-02
1.620898499757845168e-01
1.176836669035871835e-01
-5.690921460516223246e-02
-3.846978410033800866e-02
1.357849555347027393e-01
-3.267222133678127083e-02
-1.832745922162554511e-02
1.679440808418173475e-02
4.147813838404147690e-02
-2.588846167748751204e-02
-7.869957566669427695e-02
5.434765172121570204e-02
-1.366101813084688414e-02
7.958249152608926069e-03
-2.685613556272093208e-02
-1.714042534093627307e-02
3.520083825243539022e-02
-1.187815676675339771e-02
-2.797100332500261632e-02
6.096378247720646987e-02
3.736198130253661626e-02
3.360931731600760169e-02
-5.848001117237704161e-02
-1.515731461168872904e-02
-7.253358570384192683e-03
-1.192435778555275827e-02
-3.912003895574751866e-02
-5.646383687975949084e-02
-1.943367403006895575e-02
-1.963278696095635545e-02
-1.661861518688958345e-02
-1.482852514179767295e-02
-1.502346302721842101e-02
3.728999237125780325e-02
1.047109088554326328e-01
-3.722669212669450778e-02
4.583659769114479046e-03
-1.074849316258471299e-01
2.868683104924399374e-02
2.040142223452801398e-02
1.974446621319209116e-02
-1.693716892944214505e-03
7.298896137940719120e-02
-7.479018636784033613e-02
-4.174221894672714914e-03
-3.357170584938900387e-02
-3.148429279712163659e-02
-1.162935810777408485e-01
1.067597715320993054e-02
1.586232389257747344e-01
9.101477190778130277e-02
2.499323358241298948e-02
-9.646693637700128054e-02
-8.704968352571111623e-02
-7.438520088753469532e-03
-6.173236886220345720e-02
-9.629592492116758121e-03
9.069358748116526647e-02
1.466302802822081475e-01
-1.768328554633516736e-01
-9.391750373163616772e-02
-2.684703234601050481e-02
-3.900507577164469969e-02
1.299933796910341388e-01
1.353201509719336171e-01
2.889880427472408739e-02
4.239013237495319053e-02
1.395657194734062911e-01
2.118242151778733720e-02
5.313137368642929098e-02
-6.497319207783470996e-02
-5.904518789974410459e-02
-8.893760517872852100e-02
-2.493878697959862889e-02
2.401525745828304165e-02
5.513422835496812474e-02
7.625997015159824421e-02
7.204769308687838936e-02
-4.650890265694169329e-03
7.607186060252624227e-02
-7.374279076316775372e-02
-1.083786452195358713e-01
-9.274142594757212033e-02
1.507803917020878737e-01
4.248179121177077938e-02
2.212024130402641051e-02
-7.165846142109309758e-02
-9.964874590856592773e-02
2.128592931195716006e-02
-1.096285035821015393e-02
-5.439829584197438533e-02
-7.754178414285577137e-02
7.514245236941062556e-02
4.670858463774716501e-02
-1.920974478025375782e-04
-2.164049686983991749e-02
2.399870047691433396e-03
1.039773242190041198e-02
-3.527426101625040500e-02
9.361140073859422484e-02
-2.177427882361269995e-02
-1.287093354484311787e-02
7.932353428059354949e-02
-5.800186031274334741e-02
-1.205301195276777954e-01
3.512866036718852863e-02
5.113596822501104318e-03
-8.068548825761485965e-02
9.156118286391065619e-02
9.756132187506189046e-02
1.463286493097649445e-02
-7.431688496472421690e-02
6.260220354266145260e-02
1.619718281302414895e-02
-1.275523828032986418e-01
3.929163391517680182e-02
9.583932677472291328e-02
1.919353979147198812e-03
9.630913172778139686e-02
-8.388382809623796607e-03
6.939798685202404338e-02
-1.329296151521450198e-01
-1.614394352870837657e-01
8.430684031453011817e-02
9.604038421089207411e-02
-2.347889939095511996e-02
4.386326515466429377e-02
4.831555014563917311e-03
-1.097093911039355614e-02
2.672379468743798451e-03
-1.972645856620438842e-01
-1.585217105633318635e-02
1.364506548465094227e-01
3.532902600247411068e-02
-1.974875679458706901e-02
1.349782841522039010e-03
-4.068738029771824111e-02
-7.120149415438857543e-02
-2.563966138747849483e-02
0.000000000000000000e+00
0.000000000000000000e+00
0.000000000000000000e+00
0.000000000000000000e+00
0.000000000000000000e+00
0.000000000000000000e+00
0.000000000000000000e+00
0.000000000000000000e+00
7.579749475077594834e-02
4.678474532902121563e-02
-1.391098327527675801e-02
1.370956962078956065e-01
-5.390575431948554236e-02
-1.119419808607183264e-01
-1.899576936026234342e-02
-6.092344847194847146e-02
-8.665672009225433570e-02
-1.627605860759400724e-01
-1.115412184900480136e-01
-1.080415151978022792e-01
1.559573353895365999e-01
1.280505114076697648e-01
1.255324359496004794e-01
5.945975710923842583e-02
3.634533693931488174e-02
6.876454315147351171e-02
9.839678483993109792e-02
3.444588965933709224e-02
-8.853679185513256555e-02
5.419292280563214881e-02
-1.366990513681502206e-01
-6.690963417240543276e-02
1.143585599122278751e-01
1.102043667965349194e-01
2.688118741084952537e-02
4.867824195097911893e-02
-1.287015311681701524e-01
-1.337015318677248488e-01
-5.539761867795802916e-03
-3.217953116690225324e-02
-6.735863227061637815e-02
8.623690742212537785e-02
4.902545726874044801e-03
-1.923244962262342719e-02
-3.955538161613524626e-04
3.789751092605214700e-02
3.101144305616368446e-02
-7.306177142181363715e-02
-5.923387490321591932e-03
1.792507382580194042e-02
-3.574788307903353085e-02
-2.786556133596389609e-02
-5.286599254497267170e-02
2.102938884859671675e-02
1.134578903894198493e-01
-3.000952861352702492e-02
6.613404559210531164e-02
2.041386501493373529e-01
-6.754950992667108078e-02
-6.808131781978973840e-02
-7.602228061573014506e-02
2.370842137564920307e-02
-5.058508899705770750e-02
-3.174291975784297726e-02
-7.792988336904609070e-02
-4.774918911337512617e-02
7.180592804017323083e-02
-1.850831695142963335e-02
8.443428168995008309e-02
1.794196877337045082e-01
2.081337044558531288e-02
-2.122858784755621564e-01
-6.514932772339331046e-02
-5.672219428651705669e-02
-8.463029624560962361e-02
-4.175457075429780951e-03
8.361692383055977992e-03
2.976061896024106805e-03
7.729067131345848315e-03
1.916104539205236157e-01
4.280229653463670653e-02
-1.430182127191135209e-02
-1.194936148110039426e-02
-6.816072412270392580e-03
-4.292915016906206915e-03
-3.488060657923681539e-03
-1.043895162289375060e-03
-9.101705322353203457e-04
-6.521016809228173672e-02
-9.433769593789086139e-02
9.073657476538134203e-03
1.304659539896091403e-01
1.125880020796342224e-01
-5.683680507256505532e-02
3.171465795821619155e-04
-3.606009102262552890e-02
3.283017520015494694e-03
-3.159972422046158913e-04
-6.519278380295447095e-02
3.952415294581913818e-02
4.948834673975804205e-02
-9.621296752101386740e-02
1.238349516844366657e-02
5.704273619213743457e-02
-9.045584800679748461e-02
-1.412102428355805905e-01
-2.403546688617566943e-02
9.217702596571510434e-03
-8.646840120805532326e-02
2.329301436323351626e-01
-2.059534830179390874e-02
1.206174610094966765e-01
2.230681207855550810e-02
4.433941311093448495e-02
4.787576125877322092e-02
6.336006277234892958e-02
-1.855940557630375923e-02
-4.183710268782186992e-02
-5.438275407441346687e-02
-6.310278688207313080e-02
7.422622785736050256e-03
-4.396413713651189936e-02
-2.095901169937375644e-03
-5.048364418942929976e-02
6.616069199729962547e-02
-3.844844374463243092e-02
6.073990556393970425e-02
6.689058935359841560e-04
4.278059801638562504e-02
-8.236100736723921123e-02
6.399560878238143118e-03
4.542220479035073699e-02
6.180058342291360612e-02
9.608095208525523762e-03
-1.553071991531506102e-01
7.165716420397662267e-02
1.184062908447274798e-01
-8.509155887789101799e-03
-5.009374919865750876e-03
-5.014506339980163291e-02
-1.604786673315282755e-02
-5.134419367369290332e-02
7.856692355616870516e-02
-6.591755978659408211e-02
-2.979231019847274411e-02
1.161072180462762414e-02
2.748973629309421282e-02
8.329100445979269879e-03
-2.219096600499385549e-02
-1.579405980265027876e-02
3.719039393893069922e-02
-1.684261647651493984e-02
-5.539038664409284135e-02
1.589370705454303326e-02
-3.183628003991999939e-02
3.473893880280375795e-02
1.010745199991797960e-01
-2.233659102399026056e-02
-1.633971090680470112e-02
-2.580419724171885421e-02
1.058835089575725641e-02
1.646320875667301202e-03
3.337354420041856607e-03
-2.624439806432945707e-02
3.366379986801915775e-02
-3.993833126272944983e-02
1.683874259866388265e-02
1.081606689093796494e-04
-9.932323876923983275e-02
-3.209825464244753235e-02
8.283807250398154964e-02
3.881908092417794831e-02
5.276374875052351060e-02
-2.815277614662586511e-02
-5.958668692284681961e-02
4.474005430247614268e-02
1.608668973580490782e-02
4.896572817757447599e-02
4.204113108435259677e-02
1.805976012720235738e-02
2.374646524138691872e-03
3.273935167797541179e-02
-5.118961257112675939e-02
-1.090776947559216337e-01
2.873771156251086478e-01
7.845269343329337730e-02
-2.990956881355943606e-02
-4.255658467013884172e-02
-8.830283867281678301e-02
-2.258020438655806983e-02
-9.188325379934531023e-02
-9.059735871598396939e-02
1.435460600827649646e-02
4.856943863920159393e-02
-1.294195795354426970e-01
-3.770835468925268913e-02
-3.953027413255409510e-03
1.495638084450091713e-02
3.514014649487830211e-02
5.806038965109498046e-02
5.032805555788587293e-02
-1.789845299703382575e-02
-3.581726130171783429e-02
-8.394421238234220373e-02
1.238161534404386976e-01
-1.176881321791924256e-01
6.741985225852378805e-02
1.378399760343821182e-02
-1.314899977878181414e-01
-6.972591556275656299e-02
-1.389874355584542510e-02
-3.780728031068527478e-02
4.591019521350539478e-02
-1.258336331198158659e-02
1.239121104650391797e-01
9.568299485054437836e-02
6.896828480456568267e-02
4.202481854215402851e-02
-1.156428849185930051e-02
-2.493206954239125112e-02
8.454542422217860287e-03
1.784290559929326003e-02
-4.352535570791035702e-02
-5.726883762606990030e-02
-1.292780579814597763e-01
-5.563779993452540318e-02
-2.109067796273306900e-02
1.248259936436384443e-01
1.264422534789719776e-01
-1.184709899930390248e-01
-4.937934667769572350e-02
1.225886254268429704e-01
3.104929084539341522e-02
1.754486464808977242e-01
-5.004334866805201093e-02
8.917546826851606434e-02
-1.614410213003006911e-01
-6.111386324012280102e-02
3.683359730738752780e-02
-5.990876969372121996e-02
7.327187788381313294e-02
3.430780646732047717e-02
8.065412045751221490e-03
9.805917957046434222e-03
-2.314842054151937389e-02
6.643313754765770018e-02
-9.482299738471795802e-02
-7.391273397535068346e-02
7.811542046040494125e-02
8.978344396323953425e-02
1.665999325611591253e-01
-3.937945689061948112e-02
-1.396472383509675952e-01
-1.171508955624917143e-02
-6.736979624554766122e-02
-7.638721594142247606e-02
5.126173389735848296e-02
6.693798727918593393e-03
6.102200932474852874e-02
3.927480379024176488e-02
5.832008802143506115e-02
-9.789448963460521680e-02
1.761783856643849705e-02
-1.362957826935358163e-01
-1.319876761845230895e-01
-2.850370773866011120e-01
5.202973040080718231e-02
-1.067708042541330171e-01
1.664392186055135003e-01
1.336031686623650461e-01
1.398730778273681551e-03
1.703247093782971344e-01
-1.069352780038588602e-03
-2.518700668324866040e-02
1.848909356520175018e-01
-5.407186364005196061e-02
-3.840055862928708902e-02
-2.357814301652370187e-02
-1.917128013817078619e-02
-2.341273076469671879e-02
3.387546208333511166e-02
3.510620698081777513e-02
-1.832514478950555623e-02
-1.156997825374646641e-02
-1.126014583726836493e-02
-8.715608099175996965e-03
-6.563936276129534418e-03
-1.254685580832698606e-02
-1.001122147377192656e-01
-1.412016243249117620e-01
9.828301381369973500e-02
5.196500164746026273e-02
2.875988970958026289e-02
1.024211548949527026e-02
2.054544751967867303e-02
3.151837088271717408e-02
2.312587100089522063e-01
1.967727242275084387e-01
-8.861576847342850227e-02
2.916304402709481158e-02
-1.128127015173780723e-01
-5.208394171365623299e-02
1.716567258943323820e-02
-2.208477391485263452e-01
1.751296800191648739e-01
1.115984280876984452e-01
5.123856172267008541e-02
-7.578020782853822634e-02
-6.764362236935676786e-02
-2.230631671655386797e-02
-9.818441714874986959e-02
-7.405210576633453057e-02
2.021635563281365122e-01
1.295912310894770103e-01
6.992621782040735201e-02
4.857544845961105084e-02
8.158820372178668401e-02
-3.485287733699840573e-02
-2.021701445889955984e-01
-2.948216354934278804e-01
-2.298434365324514977e-02
-1.021512260767684227e-01
-7.064795082657966685e-02
-1.013428592550946472e-01
-7.112984352745652106e-02
9.531153105483186963e-03
2.733967917567579203e-02
3.313853910579856454e-01
-6.871236546481883367e-02
-8.251391037151058205e-02
2.367312302634289739e-02
1.832535159673154279e-01
1.172212179805066402e-02
-3.848660557302012453e-02
1.469829597772671741e-02
-4.363417536008620118e-02
4.144211686117649229e-02
-1.405813206947623129e-01
-5.043731454984305002e-02
-1.273534673159185462e-02
-1.025948020323409204e-01
5.124799654881854322e-02
5.185669995325217080e-02
1.618019706452908935e-01
-2.426166709958628084e-02
6.216920059311541180e-02
-1.800316079346719889e-02
-1.011957085798452852e-02
-4.311872136246251708e-03
-2.384291483982579462e-03
-1.444335709737436723e-03
-1.644302512111090343e-03
-1.707309101796569001e-02
1.298441196807895714e-01
-9.663272012067000705e-02
5.397228473895714085e-02
1.554830160348946999e-01
-7.198040122227751525e-02
-4.623065535120746833e-02
-1.073825527425208148e-01
1.697998998523299607e-01
-4.493727181936059412e-03
6.127123366188318848e-02
-6.514543945659508062e-02
-9.633891034129157815e-02
1.995049152874679710e-02
-3.002503441136357767e-02
-5.501851365177335557e-02
-4.014838023054907029e-02
-7.346582359504043314e-02
-5.385878887017179345e-02
1.169180529210277486e-01
2.193219388227208091e-02
-2.175618335579249454e-02
7.351845054414753167e-02
-2.313952129589363221e-02
-1.379279806730600022e-01
1.115413831882686585e-01
1.210887348718566181e-01
3.777066810156484711e-02
1.162368005056671309e-02
-4.439335403473203961e-02
6.059742739141624548e-03
-1.057628742436066555e-01
2.773778342384102813e-01
-8.072009833006513202e-02
-1.261248510739903517e-01
-6.202897601176730891e-02
5.630498577397915344e-02
4.966054797183484110e-02
-1.502385226451049757e-02
-9.944559030389098220e-02
4.415519157894100266e-02
7.341119742084055433e-02
-3.806625177142642508e-02
3.932814393991321267e-02
-1.619492004312362773e-02
-1.955892268395541603e-02
-1.923734903083628919e-02
-6.383708941035387552e-02
1.446515782752335888e-01
6.394770541077186843e-02
-8.306048506263137218e-03
-4.806904078749482667e-02
-6.046797480690126875e-02
-1.782717795611056880e-02
4.352608501248425143e-05
-7.397256771424746968e-02
-1.287945034348490780e-01
-1.175783589444966970e-01
4.683828484316272106e-02
4.439302693555137458e-02
2.755934715889069020e-02
3.754968117482284512e-02
-9.712621142358796034e-03
9.974514340927725931e-02
-2.895885292773716507e-02
-7.764211171930306132e-02
-1.228680630490750457e-02
-2.644880562155115661e-02
-2.391370114526347040e-02
3.620935258452799566e-02
2.939356100854566972e-02
1.036473641256887845e-01
0.000000000000000000e+00
0.000000000000000000e+00
0.000000000000000000e+00
0.000000000000000000e+00
0.000000000000000000e+00
0.000000000000000000e+00
0.000000000000000000e+00
0.000000000000000000e+00
6.882838084194174699e-02
4.414453271435610920e-02
-4.015808319010269467e-02
-5.290391393096904871e-02
4.720255685925385525e-02
-4.241748597766365619e-02
-6.556024357629054982e-04
-2.404038488105305141e-02
-9.779051360764278236e-03
-9.652144941912750575e-03
-1.072197925063263398e-02
-1.330354171872598010e-02
-1.634109042282679003e-02
-1.051545802149312162e-02
3.270750904164502343e-02
3.760575667471052763e-02
7.900317857453068027e-02
4.202778459195916777e-02
1.568363121614279806e-02
4.215342317500488795e-02
6.429939177630024372e-02
2.326429486337323188e-02
-1.292319060000913788e-01
-1.371997981972213065e-01
1.431238214818598975e-01
4.435948185922555104e-02
7.075826025457862545e-02
4.159475841489094702e-03
-9.384937514705389561e-02
-7.786255487864351954e-02
-1.326937252672283629e-01
4.200461585577339174e-02
-1.351275715012029708e-03
9.626827816597814669e-03
-4.754067059889148517e-02
2.959024682734673686e-02
-5.568383128683123719e-03
1.576763423020965255e-02
-4.635422837260351481e-02
4.582984894103644957e-02
-2.962706837433221052e-02
-1.316044190352605725e-01
-1.300735288279685764e-01
1.557953723386956875e-02
1.895244872266274583e-02
-5.412582188893971108e-02
1.787193864467948035e-01
1.321794657231744052e-01
-9.682337477687771865e-02
9.982710162311524138e-03
8.675384986305641200e-02
4.267663739255063947e-03
1.434672486455200631e-02
6.720341928467692127e-02
-2.492121421855632984e-02
-6.080977891841708033e-02
-6.261841873775318701e-02
-2.647326727321206233e-02
-5.090675271941142582e-03
-6.674871786935991820e-03
-2.088719092205279862e-02
3.158162206340658917e-02
4.471096870024546255e-02
4.545183322824292160e-02
2.973115291324189557e-02
3.333525480010747499e-02
-4.504821704872584431e-02
5.229166590639049324e-03
6.184081396605865116e-02
1.650242176668158950e-02
-1.266748493332193193e-01
2.508425634521800271e-02
-4.756027925767184611e-02
2.570691440951503384e-02
-7.088623706210075981e-02
6.237111283440562731e-02
3.765943535544234722e-02
4.884595441567812779e-02
-1.142118954530192410e-01
5.807499475775157460e-02
5.128292395939119258e-02
-1.122476360726635536e-01
1.417224057705033791e-01
-1.202571680353371891e-01
3.959711716074792998e-02
-4.310607981801396066e-02
2.044344667679104943e-01
-1.614260297325373628e-01
-9.580747566152220118e-02
4.734306714623359030e-02
4.156124288945922673e-02
1.544365238632275719e-02
-2.436468233279349624e-02
2.624207928173404383e-02
-6.635376640686916781e-05
-1.035152994302777213e-02
5.078014953245018476e-02
6.013843034508930402e-02
-1.517690978206466708e-02
-2.527976346754861117e-02
-3.022937250312936544e-02
5.416180832889616603e-02
-3.090086643261095306e-02
-6.349347602108169897e-02
5.656224389643815104e-02
7.559846029137316098e-03
-3.804603309520400434e-02
-4.539381519601554810e-03
-2.485795534240024113e-02
-6.305780894300920536e-02
3.802880618031511534e-02
2.835028279432533563e-02
-1.413407512020893875e-01
-2.452845140438403571e-01
-1.006817221020774172e-01
-7.589921862450420276e-02
1.631432489559447169e-02
2.469536003925925927e-01
9.043493441734683225e-02
2.095033462669774749e-01
-3.634155742382876031e-02
1.990638985083596768e-01
7.102008159633843576e-02
3.739724805077099257e-02
2.243555256962674604e-02
-1.555960444640769880e-01
-1.763281993623365060e-02
-1.203463589009557549e-01
2.448518743563982969e-01
3.140069811778939401e-02
6.031514275477650733e-02
-5.867701920883583704e-04
-1.069723407605989718e-01
-8.795459134057469208e-02
1.424699980592149078e-02
-1.553010127416229458e-01
-4.362997085486187282e-02
3.117567992376776582e-03
-3.025906160366175976e-02
-3.655294187542466877e-02
-4.717712663274616081e-02
9.800626440036888654e-03
-9.409842472220346019e-03
1.541107490065000141e-01
7.783670562687859673e-02
3.079637115484348819e-02
-1.386677524522797120e-02
4.275562246754712609e-02
-6.502181427427380922e-02
-6.436099243896915845e-02
-1.250161670105524314e-01
1.168770497197544889e-01
-2.396844823600108657e-02
-1.089460491937649378e-01
-9.201197962590630663e-02
-5.630892642813916521e-02
4.041019640184421308e-02
1.128603158976599768e-01
9.352258863615568740e-02
3.444230254815269093e-02
-5.458307263031880047e-02
9.863526965913786693e-02
7.732513270242710735e-02
-6.144452473399088233e-02
1.104403389743255533e-02
-5.017832417679725376e-02
-2.468579252668838542e-02
3.887277808796364698e-03
-3.354079188327074162e-02
1.794175835689574006e-01
4.675819202718036610e-02
-3.276534051942765410e-03
2.333665815926348058e-02
-5.220493239055466750e-02
-1.606827628285568688e-01
1.925873989236285644e-04
-1.032075866885732857e-01
-3.595068819831863383e-02
4.975544155328891389e-03
3.565514107545165318e-02
1.195394460225310956e-02
1.880110485617939725e-02
7.903030927443172038e-02
-1.125776907675385928e-02
-4.982814533833038878e-03
-1.005432255614590875e-01
-3.957774088993984765e-03
-8.036923979054717143e-03
-4.995023001356693748e-03
1.255802068016281109e-02
9.930470846214468905e-02
1.065303202239043130e-02
4.385176641704833372e-02
9.643673043769451780e-03
3.039129242626893365e-02
3.695318371741723729e-02
-1.147101702278406632e-02
6.095330547758085610e-02
-6.145709577146663688e-02
-1.088651082878352994e-01
-5.270149087548977630e-03
1.163473168965230807e-02
1.889671888118158241e-02
6.618100462418514962e-02
-8.676632089892473768e-03
-5.884148205744464677e-02
4.242883813248390229e-02
-6.635303009261696305e-02
1.315876533433713025e-02
-6.223395596142042296e-02
2.522454837128473848e-02
-5.208422226582241910e-02
8.471590826561319065e-02
-8.122829940757941847e-03
-6.522545760104771218e-02
6.456724379781325629e-02
7.541356112249113230e-02
6.754707769318535338e-02
-4.554852974354423392e-03
-3.668506500077942101e-02
-6.952591744951462649e-02
-5.181718044262501044e-02
-2.367354554163941804e-02
4.329592259323596093e-02
1.384020999530972407e-01
-4.669250090575730733e-03
-3.911196463012321656e-02
-1.376882762848418706e-01
-3.329059042203467295e-02
-1.164977069489951862e-04
2.414516674087803169e-02
5.232931244055055719e-02
-7.666052205332811453e-02
-2.199468864547727415e-02
-5.162020325470986770e-02
-3.013936653359681681e-02
3.313796899433521948e-03
1.089652314639234371e-01
3.128941197273070463e-02
3.684634015102660615e-02
-9.205697403170173820e-02
4.774005617360723569e-02
2.593090932755965361e-01
7.939207561007877167e-02
6.645665578682020957e-03
-7.674773438311212337e-02
-8.037914712201929546e-02
-1.439030351011318654e-01
-7.526887358342781130e-03
-4.111916843399394256e-02
-5.518856616015430094e-02
8.250527998022463838e-02
-1.058429261943723276e-02
4.751506418301570944e-02
2.514674625752369441e-02
-4.074817584883566601e-02
2.127308428485254720e-03
-2.928328466230203930e-02
-1.786675973075771071e-02
-8.333134178773966838e-03
1.659136299172236928e-02
3.829232305899641503e-02
-9.584394300023396304e-03
8.056578392653114887e-03
-2.710302477246747874e-02
4.169493868865513375e-02
-3.291545339142415427e-02
1.716721872850541716e-02
-2.722621455896201415e-02
2.151097669661317796e-02
1.088940359246302024e-02
-4.017844983383592021e-03
-9.221115094993023731e-02
1.742103652437412137e-02
2.929128436932575824e-02
-8.453983382168014926e-02
5.336272539752935640e-02
1.101248961371335995e-02
2.504442389094764607e-03
6.315900647757274888e-02
1.242298124825727962e-01
5.856965346681965168e-02
-3.375223993597656347e-02
-3.666092884745793257e-02
-1.281803109335158571e-02
-2.121565542869560672e-02
-3.988195461365375005e-02
-3.847065603025615066e-02
1.403351790727045967e-01
5.066016245044441778e-03
1.294442894525503485e-01
2.727213320502403643e-02
-4.170231303610210521e-02
-5.794488039649165617e-02
-7.088223689209791067e-02
-1.315881876506318215e-01
1.221956124056126740e-02
1.369930793548694847e-01
-5.324587827128031414e-02
-6.431850633565562581e-02
-1.234116950480503849e-01
1.038829022045746446e-02
1.903163657047060239e-02
6.234351226862725609e-02
-1.266796336002596057e-01
5.885065997675736904e-02
1.079258804788631870e-01
4.547523787776678456e-02
5.932594891442354718e-02
-4.348200087816479070e-02
-4.063451529065756351e-02
-6.078157747872769967e-02
-2.772627020216907323e-01
-2.386232369809793141e-01
-2.355929390728883355e-01
-1.286186458497143581e-01
-7.312549780578488090e-02
1.741564664384553374e-01
1.488612167681293286e-01
6.302053385244703598e-01
-1.156139596858833489e-02
1.214656197128572979e-01
1.329263260006460223e-01
2.882968784278104601e-02
3.923824461133978460e-03
-1.172667767171504116e-01
1.024289020361747460e-02
-1.685601755352964803e-01
1.051423113822035627e-01
5.976744667629399488e-02
-1.442265250943145253e-03
4.408659583438769708e-02
9.735101821433545660e-03
2.457402134926034779e-02
2.009251336798936055e-02
-2.619557251806264864e-01
-1.832259964097385230e-02
1.644384104055713822e-02
5.979062795129539733e-03
-2.741426543690500539e-03
1.180739707507571373e-01
2.351541086243441169e-04
-6.391042782120115451e-02
-5.575757468920283788e-02
2.418299352542280928e-02
-1.655501730535507976e-02
-5.063261848045982200e-02
-5.885627003568584537e-02
6.629188681608343819e-03
1.038178940001163904e-02
9.821987505461846069e-02
-1.336994084016070866e-02
-3.605034076064255171e-03
-1.238341029522709025e-01
2.656287176714138346e-03
3.088275295456462122e-02
1.533893141165122431e-01
2.340776427569159560e-02
4.694838627643873295e-03
-8.759182012279102814e-02
9.896525388057857142e-02
1.247793935816348676e-01
1.469728011423942493e-01
1.200105383976017154e-01
-2.441875267057973531e-01
2.581698774403238736e-02
-2.083817764097991299e-01
-6.397567163064553364e-02
-3.512714738884423898e-02
-3.162641705984258617e-02
2.238274150793726977e-02
2.988902685053083236e-02
-1.292568706127673710e-02
-8.112037974034480570e-03
-5.213009168520583124e-03
4.073253029405051601e-02
4.223967604394023023e-03
3.939659892019741622e-02
6.895106307271343590e-03
4.120576407456222334e-02
6.088103250480817602e-03
-1.546301183301502895e-02
-8.610245011593326003e-02
3.755921792042814320e-03
-1.252807696911624191e-01
6.916589783627803689e-02
1.159572679100529385e-01
-4.748816912410169788e-02
6.441362994808361164e-02
-6.394595058284234523e-02
-3.724466500404553359e-03
-9.097439795903758397e-03
-2.114342851346007746e-01
-2.499475516761004434e-01
-2.063344100347908605e-01
-8.166352616718750013e-02
1.247033779750303731e-02
1.227062168123063540e-01
1.260195478386148260e-01
4.881836705642559338e-01
1.943638343786928679e-01
-1.863739470795962999e-02
-1.096974445904529971e-01
1.370756468182549315e-01
-4.416795186230448866e-02
-7.903864784898660678e-02
-7.838065229006985213e-03
-7.205997695823654348e-02
-6.817940031805061474e-02
1.479383631288134215e-01
8.346660971410820029e-02
-7.930448807526249699e-02
7.555011264081425149e-02
-4.674598835072769909e-02
-3.608678252340572629e-02
-7.663842621628939866e-02
-7.678273313413941370e-02
8.761793132768402881e-02
6.465412143205441498e-02
4.483700530687514951e-02
-2.144618187311833277e-02
-4.892137184636664859e-02
1.294851551939826297e-02
-6.290728673238754620e-02
1.455522871840451427e-01
6.450516530907397794e-02
6.332649594806862015e-02
-1.151336671387028082e-01
-1.508032431157916298e-01
8.343236827186492621e-02
-4.328639301427319314e-02
-4.759301344428375907e-02
-6.604482484959668664e-02
1.846571880599681137e-01
6.188621836361448032e-03
-7.704551643733270616e-02
2.572671613652647085e-02
-8.144229161852717391e-02
3.800132785604867780e-02
-3.004122098344769523e-02
1.601867680898822616e-02
-5.076299425648627545e-02
1.433672308877094285e-02
9.882471145186855210e-02
-3.154004571561189185e-02
-2.689035110165937520e-02
-1.758843733040736310e-02
-2.398282945462765214e-03
-5.960793017317617820e-02
5.239918331531243090e-03
-1.293117085184007642e-02
-6.913168050691866073e-02
8.539949904353095686e-03
-1.231662812494288897e-02
3.166778282634748198e-02
1.085397585946453192e-01
2.651315959322872451e-01
1.357261161330806376e-01
1.202290957863559190e-01
-4.777848922053586078e-02
-1.120270026836390903e-01
-7.156617188175805333e-02
-8.360333349416612658e-02
-2.061118105716235327e-01
-2.128622705314297744e-02
1.732441291609563006e-01
-5.107345724664529019e-02
-4.584394297097232895e-02
-6.767273066708519302e-02
8.434146065832556424e-03
-1.086079092380878713e-01
1.128059919491434387e-01
-1.116889383344171621e-01
-3.159442687219440882e-02
1.653598932726810244e-02
-5.080621973517354846e-03
2.144526805062238126e-02
-1.514349388125950987e-03
3.454533008755609341e-02
7.735174910280805116e-02
-7.138344261507087452e-02
-8.149366059742811641e-02
-2.346779600809448599e-02
1.659613263766448188e-01
6.790074578522778403e-02
-1.278391654258618226e-01
2.480255980026577212e-02
4.551943268431665746e-02
-1.052587346889225228e-01
-5.170308871119302929e-02
3.555396105301681514e-02
9.698820723925763443e-02
4.248393274908018880e-02
1.527382438216644440e-02
2.722139701880100723e-02
-6.055949904220542246e-02
1.055237615981462485e-01
-3.586204546802926330e-02
-3.018875916665878650e-02
-1.174877385883040387e-01
1.273701047272575090e-02
1.418696968123314001e-02
6.692605400113845610e-03
4.439819607077446356e-02
-1.374651352123606451e-01
-1.076662310206550344e-01
-4.307429111922329162e-02
-9.496364404241177185e-03
4.950060786611516772e-02
8.472994951028377242e-02
7.247016469523463733e-02
9.100129968484549359e-02
1.841318835473869653e-01
-7.939448697677606651e-03
1.463622375466216465e-02
6.975536969371243234e-02
-9.459617159597331904e-02
5.272116173097377706e-02
2.474729303569858652e-02
-2.434563114687845753e-01
-1.828004939219051925e-02
-3.828036233288576590e-02
8.912434729640281899e-04
6.182791052578393877e-03
3.296067323336292210e-02
-8.615938980109619227e-02
4.978727882163037216e-02
5.289781494563696590e-02
4.032379188641546652e-02
1.243940467297100366e-01
-1.057203153395045586e-02
-3.239036512362267889e-02
8.179987589363066358e-02
-5.675969929406150111e-02
-1.180702887740378015e-01
-2.872532978408363566e-02
-8.234484095974725637e-02
1.424002140482342853e-02
7.884948135703555294e-02
3.275005991710871339e-02
5.118680296297293403e-02
-4.305134047372823763e-02
3.950923513792894970e-02
-9.113941934639413489e-02
-5.975580029436527996e-02
2.109638555398467563e-01
1.951191608964280566e-01
-1.202081767299869597e-01
-6.951778119934629019e-02
3.312066689702049954e-02
-5.930359591745571618e-02
-1.304183291921413301e-01
1.541328839492107639e-01
-8.113878524636133904e-02
-7.248598364125902194e-02
2.535976781041290526e-02
-2.067293441763848327e-02
4.117192944089867468e-03
2.318137855915060677e-02
-3.249351995760713790e-02
-1.811985701347061314e-02
-3.765921178178479461e-02
-7.403855958745977992e-04
7.911260776484033141e-02
7.411312368699385887e-03
-2.628402094003499598e-02
3.137954010439029939e-02
-3.509998490676501798e-02
1.194574988129148141e-01
7.708035279300615161e-02
2.236266835719949095e-02
-3.841934815638023415e-02
2.280680004262550589e-02
-4.003755971816441023e-02
-5.718623584656006703e-02
-1.060641762846404046e-01
1.604378390186262660e-01
8.004908961703814663e-02
-7.698926864214683356e-03
3.685205122832693053e-02
3.292062633230766200e-02
-6.158753445484573680e-02
-9.366989269018229092e-02
-1.473032521870561440e-01
1.251887447402535714e-01
9.204508215329279541e-02
1.626408937499090601e-01
1.179463151026118040e-02
9.030878663001302986e-02
-5.424764949164464362e-03
-1.265973326777081465e-01
-3.499560411568569673e-01
2.359586883246254374e-01
8.875694885277159163e-02
-2.277965066448507311e-02
2.233961458528932811e-02
-5.897779316893935267e-03
-5.655033251127386529e-02
-5.646963055226952161e-02
-2.053578587177639359e-01
-2.356494342981528267e-01
-1.497193922105373720e-01
-1.829716847275143499e-01
-9.033662817178525484e-02
-1.254234103202606643e-01
-9.310360433305457650e-02
1.212518153377151880e-01
7.559523387235901337e-01
-1.867857259750257404e-01
-1.403347207344523284e-01
-1.495861177542389953e-01
-1.245456700106706283e-01
-8.847096381742666771e-02
9.371606922061831392e-04
3.764151444585551176e-01
3.123708931410509870e-01
-1.754511873503862285e-01
-1.165880946156981485e-01
7.909965903111595975e-02
6.858227800617593128e-02
9.330830589841010480e-04
2.454648776141895861e-01
-7.571900458862847183e-02
-2.632161115575288104e-02
1.205687513375812564e-01
1.083794555915498642e-01
2.118996025894647472e-01
-6.196380456766708428e-02
-7.517785319169607329e-03
-6.181504307776449630e-02
-2.365505457657105653e-02
-2.858961219774237006e-01
1.376581409155842595e-01
9.038554524527400713e-02
-4.387125305927163342e-03
-8.782331352013274250e-02
2.157739049169173171e-03
3.871151423866734526e-02
1.748076609037993098e-02
-1.941832667130157231e-01
-7.995350322803956855e-02
-2.832927716295017412e-02
6.043783689756766775e-02
7.242966481530140055e-02
6.304072533810785306e-02
-9.412902133615172473e-02
7.332490931768051445e-02
-6.682133464151625291e-02
-1.397794180080927373e-01
-2.176765679890722005e-01
-5.835152245185259295e-02
3.366898407893901823e-01
2.495832607095749001e-01
-1.445117826609854383e-01
-1.753545581766850769e-01
1.494007477877252743e-01
1.798091784179627062e-01
1.102052553865946610e-01
9.325488745224436160e-02
-1.004215479250975852e-02
-1.001101926540897413e-01
-1.397096797483887987e-01
4.162890197116664304e-02
-1.750361960329811506e-01
2.995659373048389570e-02
-4.281124181103083959e-02
-8.535086452181235919e-03
-6.386878917744104149e-03
1.713857826188323191e-02
8.848582491496684299e-02
-7.281414878424162518e-02
-5.033640942135986229e-03
7.654508326637235460e-02
1.652084667749772473e-01
-5.217701160529526067e-02
1.811709168781450077e-03
-6.856704582536971015e-02
7.424896738761600778e-02
-4.755473089848553242e-02
-1.495154382685962291e-01
8.141589511516807154e-02
1.843379983096249120e-01
-3.545719828535462415e-02
3.194795908571939486e-02
-4.031124972575284016e-02
-5.763877246936710552e-02
-5.331801423295907949e-02
-1.109766177970790413e-01
-2.644294228890561871e-01
-2.872621613150264652e-01
-3.059819344235576999e-01
1.493585115826882165e-02
2.092798696514426571e-02
7.890143314256919949e-02
1.584941919768612095e-01
5.844140553847978481e-01
-1.346889494369607754e-01
-7.110302232023027469e-02
-1.555384666109501865e-02
-5.456921442722856286e-02
4.726475995755363008e-02
1.766873355543611968e-02
2.040466531710184890e-03
2.089410728008149198e-01
-1.037768033991453426e-02
-4.676906121962917662e-02
-1.386832966213027984e-02
-9.985068008416013441e-02
2.383675591910830102e-02
8.038321934566028393e-02
6.804445121307535482e-02
-1.398675172008986096e-03
-3.247856231140443251e-02
-1.252032660977278333e-01
-7.225690496594569176e-03
5.442656756393376982e-02
-8.295955264449075828e-02
6.884962439558368896e-02
1.295420655791065800e-01
-4.951185988406374416e-03
-4.731452624338204627e-02
-2.306525658865119302e-02
-1.192503848847045397e-02
-6.404079677488992706e-02
1.066005968987537855e-01
8.980937039073315364e-02
-1.600573401506711832e-02
-3.405861517902594726e-02
-1.465023235662930023e-01
8.323350653565875223e-02
2.623485662795246864e-02
3.106323036725545661e-01
-1.773507742993821537e-02
-1.604411659379838609e-02
-1.655814855011847331e-01
-7.423766374495162357e-02
1.462286553542989087e-01
-3.392793894546652228e-02
-9.604197520413043643e-02
-5.976934428180653153e-02
-1.321748627490467766e-03
5.867018657090376788e-02
4.190634166027362717e-02
-5.574417652658233274e-02
-1.483344934248355396e-01
8.209388727131050612e-02
-1.555615687017570907e-02
-2.482878348622591033e-02
1.712748868016343920e-02
6.716074739559226014e-02
1.210918662548456648e-01
-9.875455582067449445e-02
1.044201668793349330e-01
-3.937664504531591947e-02
-3.159533232144425691e-02
-4.348367053420674339e-02
6.350198656311095702e-02
-3.556877671485968867e-02
-3.916921138323328777e-02
2.127148255661365922e-02
2.703527868701797177e-01
4.490605675965929876e-03
5.936519058797701948e-02
-8.746832315605966579e-02
-3.231487310376055661e-02
-2.292856801918308554e-02
-1.804752178490109105e-01
-1.102160100610912428e-02
-4.470888196283852034e-01
-1.485685812147886919e-01
-1.416644051234477730e-01
8.977458037464339582e-03
-8.287250024786814440e-02
-1.429160239563799333e-02
6.232940549831917591e-04
8.248851565176829048e-01
-7.083751269872790024e-02
-2.064293667671739801e-02
5.555799087980538981e-02
1.487936526210303749e-02
5.279894753823638313e-03
6.430144379911870156e-02
6.950608079523462601e-02
-1.180443261146416484e-01
6.176238102002576391e-02
4.314183194853974529e-02
6.214784088575741466e-02
-9.391509908376986793e-02
4.661697772578853559e-03
-8.781567880526755521e-02
9.197921479986004289e-02
-8.196218853772235802e-02
5.819370103867661792e-02
-1.767901319302651875e-02
2.631603691705850998e-02
-8.717371002225855758e-02
5.555720963822950720e-02
-1.792969041056686336e-02
4.603640628624518921e-02
-6.332094025435781870e-02
-8.657031999745198880e-03
-1.750874892139905881e-02
-2.664694234754197075e-02
6.918185064484563829e-02
5.779008571765011613e-03
-1.191238622581441108e-02
9.598773782695491433e-03
-1.983452350480601617e-02
-1.518526219277159701e-02
2.302175447897316513e-02
3.360624072572618998e-02
-4.409423308326278906e-02
-3.346855612071247127e-02
8.985957306061140293e-02
5.272232115336545483e-02
-1.064618380219292393e-01
-1.320877001525450345e-01
-1.588153838258538897e-01
9.015585694825198337e-02
-9.310027274382770210e-03
5.651463353616848623e-02
3.559738050519119235e-02
2.623165045297430609e-02
9.171358981019638035e-02
-1.918015337889237004e-01
-1.459246588872038508e-01
-1.079089316498550721e-01
-3.995095572212345458e-02
1.141058037504801143e-01
1.112127214291159516e-01
1.063197726430483575e-01
1.539477822254627370e-01
9.310424746117031136e-02
-3.540768765743507879e-02
-1.047479828820363917e-01
-6.030916505882302076e-02
-4.119884428623157673e-03
3.997619663974980031e-02
3.793265531423722220e-02
3.357162061175946594e-02
1.165600747242260399e-01
8.743133947413576912e-02
1.347398914290204863e-01
-3.869342712119507900e-03
-1.394417749669894513e-01
1.866476539759466535e-02
-1.622844604160312287e-01
-5.180049292983780751e-02
7.990869233696291929e-02
1.416389486477357407e-01
7.222828251670074251e-02
2.793055112032154924e-02
-1.018334659600030924e-02
-7.566769405798946802e-02
-1.144640857970834480e-01
-1.213913481706472841e-01
1.101634732246134507e-01
2.702205259579901903e-02
2.721436024415344046e-02
-7.769115234995327413e-02
6.221627101259195186e-02
-7.863386389688489797e-02
1.840679649727255951e-03
-7.213182048004643243e-02
-1.167413215572765117e-01
-5.819629007031473789e-02
1.301481674907807758e-02
1.339283567639962813e-01
-6.730768827595488835e-02
-1.301987227551755777e-01
1.096285959298392981e-01
1.158722532158093094e-01
-3.047226400501453977e-02
2.536970649528397584e-02
-4.108231665348395512e-02
9.334620473203625660e-03
-4.392373608699144671e-02
2.999201183082357558e-02
4.125063803758556580e-02
9.531339908593413832e-03
2.236393301854345816e-01
2.512918960286850481e-02
-2.775049240667746414e-02
-9.894682925482180258e-02
-4.072113258860834278e-02
-1.346378857305143180e-02
1.035021559236417622e-02
-7.823649255751077836e-02
1.609432792021923270e-02
2.449710838144423565e-03
-2.691228872062033633e-03
-2.250415200316499206e-02
2.843472852593209588e-02
-5.029296343119631085e-02
-4.428096203062101971e-02
7.279053905274925074e-02
-2.364361133923834069e-01
-8.334941078018906491e-02
7.948342440839863479e-03
7.421027920905080844e-02
8.410653821137782649e-02
-3.980361907300633550e-02
8.801044776009646353e-02
1.053135356242131948e-01
1.418639336956662167e-01
1.254636287552424179e-01
1.018198220620414179e-01
3.324210435595709862e-02
-1.521970793137779887e-01
1.259579596296949988e-01
-1.991820742820915868e-01
-1.769682949027337748e-01
4.432571848262530263e-03
-3.808054842419509450e-02
-5.191678455445790374e-02
-3.283742454884707590e-02
-2.033874185569523735e-02
5.759536272884897834e-03
1.465764115508387359e-02
1.183237501069641512e-01
1.195145135958983196e-01
1.204158386632385447e-01
6.545229376363911888e-02
-6.949846610142686176e-02
-5.785855446534738517e-02
6.262293517904328304e-03
-5.866568920613262489e-02
-1.256222297677729305e-01
1.730938047200067664e-01
2.290505380261365423e-02
4.653867178511602969e-03
2.887712129604429190e-02
-1.002755322527993376e-01
-2.723850390766998503e-02
-1.296872007241869906e-01
2.767138988748075665e-02
1.086531992907446703e-01
6.240766635549429425e-02
-2.126270419615837737e-01
-4.291392236612334016e-02
1.304829555920266823e-02
-9.585351399630423486e-02
2.033345517937700311e-02
1.469518619391928238e-01
-1.236659204550619728e-01
-1.589074256875806432e-02
1.553744549978883054e-02
1.805841617364635221e-01
4.945158047043305555e-02
-9.826279575874199979e-02
4.762297352452887766e-02
-5.537670244865464803e-02
7.855287224042516170e-02
-1.040374662562428866e-02
-1.833776585086919694e-02
3.563098095145049177e-03
-3.558178593833458137e-02
-2.524412857801644136e-02
1.634352278136244965e-02
-8.892066124088427587e-03
-5.572634342100139804e-02
7.116732356136441784e-02
6.125640751018599645e-02
4.218930235579645277e-02
1.833553318742065300e-02
-1.130095044749463047e-02
-8.375768163811363187e-02
-4.216359110815801753e-02
4.498525541103147452e-02
-1.566362427627785714e-01
-8.386412015971066169e-02
-7.236938267293077653e-02
4.502018791018020522e-02
1.620898499757845168e-01
1.176836669035871835e-01
-5.690921460516223246e-02
4.775810106185451875e-02
5.016262086242333218e-02
5.320411304119960355e-02
-7.447654741246945154e-02
2.569738114572349755e-02
-8.266705295325112168e-02
-4.057895261955449945e-02
2.090033687407609822e-02
7.656077663535942879e-02
-1.943336301050837406e-02
-7.837704927689409518e-02
9.738221283101645975e-02
3.087541105677515593e-02
-2.474862808858680277e-02
-2.545026093248740559e-02
-5.680909921467263562e-02
5.434765172121570204e-02
-1.366101813084688414e-02
7.958249152608926069e-03
-2.685613556272093208e-02
-1.714042534093627307e-02
3.520083825243539022e-02
-1.187815676675339771e-02
-2.797100332500261632e-02
-2.624399661416664253e-01
-1.452553460605170987e-01
-2.959778109328462317e-02
7.547009612748782625e-02
1.467949016423166220e-01
9.693321481190231292e-02
1.402572883437097906e-01
-2.216240762994743652e-02
-5.386697848760334251e-02
-2.010537464288158008e-02
1.613846344333252913e-02
-3.021449694006408601e-03
1.215114705416490276e-01
-3.672843619084324024e-03
-5.653291452135917466e-02
-4.503730200477791979e-04
1.447749322809751549e-01
5.256809827588319883e-02
3.759556551003701008e-02
-7.181660663011683876e-02
-2.087385313744438003e-02
2.092862120399082565e-02
-1.261975262410583720e-01
-3.697923126226681373e-02
-8.381114980376863643e-02
-1.520611697334691564e-02
-3.986248194029287824e-03
1.333659545774036961e-02
5.716538525755620638e-03
-2.818197977437551099e-02
1.142731684555059746e-01
-2.140807693480849781e-03
-3.094967520318672380e-02
1.515169388251083327e-01
4.075385792277293195e-02
9.347683888644479910e-02
-2.082411373452689937e-02
-6.183481116349523465e-02
-2.287233545728858258e-02
-1.492667000758283458e-01
-5.646383687975949084e-02
-1.943367403006895575e-02
-1.963278696095635545e-02
-1.661861518688958345e-02
-1.482852514179767295e-02
-1.502346302721842101e-02
3.728999237125780325e-02
1.047109088554326328e-01
2.499323358241298948e-02
-9.646693637700128054e-02
-8.704968352571111623e-02
-7.438520088753469532e-03
-6.173236886220345720e-02
-9.629592492116758121e-03
9.069358748116526647e-02
1.466302802822081475e-01
-1.768328554633516736e-01
-9.391750373163616772e-02
-2.684703234601050481e-02
-3.900507577164469969e-02
1.299933796910341388e-01
1.353201509719336171e-01
2.889880427472408739e-02
4.239013237495319053e-02
1.395657194734062911e-01
2.118242151778733720e-02
5.313137368642929098e-02
-6.497319207783470996e-02
-5.904518789974410459e-02
-8.893760517872852100e-02
-2.493878697959862889e-02
2.401525745828304165e-02
-4.848166049285753537e-02
-1.126189819531646374e-02
-1.060637537675686026e-01
-8.739730356703623304e-02
7.276665964877820914e-02
6.442281459868859361e-02
8.151518509511714028e-02
3.449995668019283090e-02
1.507803917020878737e-01
4.248179121177077938e-02
2.212024130402641051e-02
-7.165846142109309758e-02
-9.964874590856592773e-02
2.128592931195716006e-02
-1.096285035821015393e-02
-5.439829584197438533e-02
-1.702584099847896104e-01
-1.249720776142799056e-01
1.037290660049000751e-01
9.867063931859074155e-02
6.806089943010834586e-02
-8.425484522947550292e-03
4.635854574450238262e-03
2.855951279396568010e-02
-7.754178414285577137e-02
7.514245236941062556e-02
4.670858463774716501e-02
-1.920974478025375782e-04
-2.164049686983991749e-02
2.399870047691433396e-03
1.039773242190041198e-02
-3.527426101625040500e-02
5.655669523597951776e-02
-6.808679149757528026e-02
6.181835531158960673e-02
9.520861392641372101e-02
-1.439809263063596741e-03
-9.024651030313796118e-02
5.202039359336606793e-03
-5.901259276954406996e-02
-8.622788516219244415e-02
8.562233467227876871e-02
-8.587633437798003477e-02
5.614908819084389602e-02
-8.902973061541667385e-03
1.241451913372937782e-01
1.469049094206740895e-02
-9.959991254076985823e-02
-8.793451245739970779e-02
8.179578394135994523e-03
-3.186125709705734527e-02
7.040903660409948348e-03
3.493393777993487187e-02
6.196537376349978143e-02
-2.216730681354280377e-02
2.984328277001854768e-02
2.006031616663591158e-02
-1.598622679943221755e-02
8.997314222242085158e-02
1.232259080345618485e-01
-8.063574913327281601e-02
-1.253700928906542889e-01
-1.191489930074622790e-02
6.476017004882697473e-04
-4.973581305442711931e-02
-5.995575596119692013e-02
5.680746395228924994e-02
-7.884397395546932641e-02
-5.349277123019682834e-02
1.244370147061568677e-01
3.906951827031285296e-02
2.171431727253111260e-02
7.355108457195769223e-02
-5.788052024180499744e-03
-1.028440757672637595e-01
-4.390237375396710551e-02
2.263388882053009657e-02
4.839973362975472614e-03
4.704355966793481031e-02
4.465995122012844654e-03
1.577182403810727107e-01
1.518620403341178898e-02
-7.372736429967985221e-03
-2.142673364267624891e-02
-2.947814348503255757e-02
4.961761994387039326e-02
-1.315634760285912426e-02
-1.510881031978182076e-01
1.410370350542163587e-01
1.183218226967166636e-01
1.565751376451397503e-01
5.543105081244383003e-02
-1.655520247682585322e-01
8.514777597945016874e-02
-2.396935950640360913e-01
-1.512672023556675127e-01
1.438825683887255125e-01
1.456259496821779575e-01
2.953924167979946405e-02
-1.672986436432807519e-02
-9.601714647741118464e-03
-1.151225143433961123e-01
-1.701746554554323110e-01
-7.419010939804547740e-03
-5.256219223623527503e-02
5.023560773792596496e-02
7.643317567636988275e-02
-3.454149027941697675e-02
-2.801241954496267589e-02
-8.779767146102082642e-02
6.337334420315562933e-02
1.287164590418490157e-02
-3.848179589392468347e-02
-9.425163266873017032e-02
-5.579350062441566088e-02
-1.061802125683882075e-01
-3.883339216249896003e-02
-4.764919214356919119e-02
1.221941196203019456e-02
3.689703140994961550e-01
3.700810588589260597e-01
2.072246316664094756e-02
-1.128430295032190056e-01
-8.062808685038949652e-02
-7.023314477494367603e-02
-4.027793783200805250e-02
-2.854581484134524963e-02
-5.827550822366240474e-02
-1.197662783864014008e-01
-1.104446509128915732e-01
-4.277209160489638118e-02
-6.606200759860672567e-02
-8.048932177376842689e-02
-4.546941533570625360e-02
1.482385731863146427e-02
4.501799082936392971e-01
-1.261020872159331896e-01
-1.151942413094735468e-01
-2.085513750089492413e-01
-3.383581537311599469e-02
6.911861156314826060e-02
3.810030778139194413e-02
1.985866491886747742e-01
1.778779503742595192e-01
3.929163391517680182e-02
9.583932677472291328e-02
1.919353979147198812e-03
9.630913172778139686e-02
-8.388382809623796607e-03
6.939798685202404338e-02
-1.329296151521450198e-01
-1.614394352870837657e-01
2.312587100089522063e-01
1.967727242275084387e-01
-8.861576847342850227e-02
2.916304402709481158e-02
-1.128127015173780723e-01
-5.208394171365623299e-02
1.716567258943323820e-02
-2.208477391485263452e-01
3.283017520015494694e-03
-3.159972422046158913e-04
-6.519278380295447095e-02
3.952415294581913818e-02
4.948834673975804205e-02
-9.621296752101386740e-02
1.238349516844366657e-02
5.704273619213743457e-02
-5.923387490321591932e-03
1.792507382580194042e-02
-3.574788307903353085e-02
-2.786556133596389609e-02
-5.286599254497267170e-02
2.102938884859671675e-02
1.134578903894198493e-01
-3.000952861352702492e-02
-9.221115094993023731e-02
1.742103652437412137e-02
2.929128436932575824e-02
-8.453983382168014926e-02
5.336272539752935640e-02
1.101248961371335995e-02
2.504442389094764607e-03
6.315900647757274888e-02
4.432571848262474752e-03
-3.808054842419507369e-02
-5.191678455445795926e-02
-3.283742454884708978e-02
-2.033874185569525816e-02
5.759536272884897834e-03
1.465764115508387359e-02
1.183237501069641789e-01
5.126173389735848296e-02
6.693798727918593393e-03
6.102200932474852874e-02
3.927480379024176488e-02
5.832008802143506115e-02
-9.789448963460521680e-02
1.761783856643849705e-02
-1.362957826935358163e-01
-1.346889494369607754e-01
-7.110302232023027469e-02
-1.555384666109501865e-02
-5.456921442722856286e-02
4.726475995755363008e-02
1.766873355543611968e-02
2.040466531710184890e-03
2.089410728008149198e-01
-7.526887358342781130e-03
-4.111916843399394256e-02
-5.518856616015430094e-02
8.250527998022463838e-02
-1.058429261943723276e-02
4.751506418301570944e-02
2.514674625752369441e-02
-4.074817584883566601e-02
6.176238102002576391e-02
4.314183194853974529e-02
6.214784088575741466e-02
-9.391509908376986793e-02
4.661697772578853559e-03
-8.781567880526755521e-02
9.197921479986004289e-02
-8.196218853772235802e-02
-1.465023235662930023e-01
8.323350653565875223e-02
2.623485662795246864e-02
3.106323036725545661e-01
-1.773507742993821537e-02
-1.604411659379838609e-02
-1.655814855011847331e-01
-7.423766374495162357e-02
-8.657031999745198880e-03
-1.750874892139905881e-02
-2.664694234754197075e-02
6.918185064484563829e-02
5.779008571765011613e-03
-1.191238622581441108e-02
9.598773782695491433e-03
-1.983452350480601617e-02
-5.960793017317617820e-02
5.239918331531243090e-03
-1.293117085184007642e-02
-6.913168050691866073e-02
8.539949904353095686e-03
-1.231662812494288897e-02
3.166778282634748198e-02
1.085397585946453192e-01
-1.518526219277159701e-02
2.302175447897316513e-02
3.360624072572618998e-02
-4.409423308326278906e-02
-3.346855612071247127e-02
8.985957306061140293e-02
5.272232115336545483e-02
-1.064618380219292393e-01
6.613404559210531164e-02
2.041386501493373529e-01
-6.754950992667108078e-02
-6.808131781978973840e-02
-7.602228061573014506e-02
2.370842137564920307e-02
-5.058508899705770750e-02
-3.174291975784297726e-02
1.435460600827649646e-02
4.856943863920159393e-02
-1.294195795354426970e-01
-3.770835468925268913e-02
-3.953027413255409510e-03
1.495638084450091713e-02
3.514014649487830211e-02
5.806038965109498046e-02
-4.470888196283852034e-01
-1.485685812147886919e-01
-1.416644051234477730e-01
8.977458037464339582e-03
-8.287250024786814440e-02
-1.429160239563799333e-02
6.232940549831917591e-04
8.248851565176829048e-01
9.896525388057857142e-02
1.247793935816348676e-01
1.469728011423942493e-01
1.200105383976017154e-01
-2.441875267057973531e-01
2.581698774403238736e-02
-2.083817764097991299e-01
-6.397567163064553364e-02
-1.707309101796569001e-02
1.298441196807895714e-01
-9.663272012067000705e-02
5.397228473895714085e-02
1.554830160348946999e-01
-7.198040122227751525e-02
-4.623065535120746833e-02
-1.073825527425208148e-01
4.032379188641546652e-02
1.243940467297100366e-01
-1.057203153395045586e-02
-3.239036512362267889e-02
8.179987589363066358e-02
-5.675969929406150111e-02
-1.180702887740378015e-01
-2.872532978408363566e-02
-8.234484095974725637e-02
1.424002140482342853e-02
7.884948135703555294e-02
3.275005991710871339e-02
5.118680296297293403e-02
-4.305134047372823763e-02
3.950923513792894970e-02
-9.113941934639413489e-02
2.230681207855550810e-02
4.433941311093448495e-02
4.787576125877322092e-02
6.336006277234892958e-02
-1.855940557630375923e-02
-4.183710268782186992e-02
-5.438275407441346687e-02
-6.310278688207313080e-02
-1.832259964097385230e-02
1.644384104055713822e-02
5.979062795129539733e-03
-2.741426543690500539e-03
1.180739707507571373e-01
2.351541086243441169e-04
-6.391042782120115451e-02
-5.575757468920283788e-02
1.315876533433713025e-02
-6.223395596142042296e-02
2.522454837128473848e-02
-5.208422226582241910e-02
8.471590826561319065e-02
-8.122829940757941847e-03
-6.522545760104771218e-02
6.456724379781325629e-02
-3.512714738884423898e-02
-3.162641705984258617e-02
2.238274150793726977e-02
2.988902685053083236e-02
-1.292568706127673710e-02
-8.112037974034480570e-03
-5.213009168520583124e-03
4.073253029405051601e-02
-6.817940031805061474e-02
1.479383631288134215e-01
8.346660971410820029e-02
-7.930448807526249699e-02
7.555011264081425149e-02
-4.674598835072769909e-02
-3.608678252340572629e-02
-7.663842621628939866e-02
4.278059801638562504e-02
-8.236100736723921123e-02
6.399560878238143118e-03
4.542220479035073699e-02
6.180058342291360612e-02
9.608095208525523762e-03
-1.553071991531506102e-01
7.165716420397662267e-02
2.773778342384102813e-01
-8.072009833006513202e-02
-1.261248510739903517e-01
-6.202897601176730891e-02
5.630498577397915344e-02
4.966054797183484110e-02
-1.502385226451049757e-02
-9.944559030389098220e-02
-1.918015337889237004e-01
-1.459246588872038508e-01
-1.079089316498550721e-01
-3.995095572212345458e-02
1.141058037504801143e-01
1.112127214291159516e-01
1.063197726430483575e-01
1.539477822254627370e-01
1.455522871840451427e-01
6.450516530907397794e-02
6.332649594806862015e-02
-1.151336671387028082e-01
-1.508032431157916298e-01
8.343236827186492621e-02
-4.328639301427319314e-02
-4.759301344428375907e-02
1.184062908447274798e-01
-8.509155887789101799e-03
-5.009374919865750876e-03
-5.014506339980163291e-02
-1.604786673315282755e-02
-5.134419367369290332e-02
7.856692355616870516e-02
-6.591755978659408211e-02
4.385176641704833372e-02
9.643673043769451780e-03
3.039129242626893365e-02
3.695318371741723729e-02
-1.147101702278406632e-02
6.095330547758085610e-02
-6.145709577146663688e-02
-1.088651082878352994e-01
-3.848179589392468347e-02
-9.425163266873017032e-02
-5.579350062441566088e-02
-1.061802125683882075e-01
-3.883339216249896003e-02
-4.764919214356919119e-02
1.221941196203019456e-02
3.689703140994961550e-01
0.000000000000000000e+00
0.000000000000000000e+00
0.000000000000000000e+00
0.000000000000000000e+00
0.000000000000000000e+00
0.000000000000000000e+00
0.000000000000000000e+00
0.000000000000000000e+00
2.448518743563982969e-01
3.140069811778939401e-02
6.031514275477650733e-02
-5.867701920883583704e-04
-1.069723407605989718e-01
-8.795459134057469208e-02
1.424699980592149078e-02
-1.553010127416229458e-01
1.058835089575725641e-02
1.646320875667301202e-03
3.337354420041856607e-03
-2.624439806432945707e-02
3.366379986801915775e-02
-3.993833126272944983e-02
1.683874259866388265e-02
1.081606689093796494e-04
-2.128622705314297744e-02
1.732441291609563006e-01
-5.107345724664529019e-02
-4.584394297097232895e-02
-6.767273066708519302e-02
8.434146065832556424e-03
-1.086079092380878713e-01
1.128059919491434387e-01
-1.413407512020893875e-01
-2.452845140438403571e-01
-1.006817221020774172e-01
-7.589921862450420276e-02
1.631432489559447169e-02
2.469536003925925927e-01
9.043493441734683225e-02
2.095033462669774749e-01
-1.811985701347061314e-02
-3.765921178178479461e-02
-7.403855958745977992e-04
7.911260776484033141e-02
7.411312368699385887e-03
-2.628402094003499598e-02
3.137954010439029939e-02
-3.509998490676501798e-02
-1.252807696911624191e-01
6.916589783627803689e-02
1.159572679100529385e-01
-4.748816912410169788e-02
6.441362994808361164e-02
-6.394595058284234523e-02
-3.724466500404553359e-03
-9.097439795903758397e-03
1.943638343786928679e-01
-1.863739470795962999e-02
-1.096974445904529971e-01
1.370756468182549315e-01
-4.416795186230448866e-02
-7.903864784898660678e-02
-7.838065229006985213e-03
-7.205997695823654348e-02
2.499323358241298948e-02
-9.646693637700128054e-02
-8.704968352571111623e-02
-7.438520088753469532e-03
-6.173236886220345720e-02
-9.629592492116758121e-03
9.069358748116526647e-02
1.466302802822081475e-01
-1.314899977878181414e-01
-6.972591556275656299e-02
-1.389874355584542510e-02
-3.780728031068527478e-02
4.591019521350539478e-02
-1.258336331198158659e-02
1.239121104650391797e-01
9.568299485054437836e-02
7.541356112249113230e-02
6.754707769318535338e-02
-4.554852974354423392e-03
-3.668506500077942101e-02
-6.952591744951462649e-02
-5.181718044262501044e-02
