6.196788794177429116e-01
3.570497763626924170e-01
8.120423931157544351e-02
-9.717988709720389029e-02
-2.753397153068796177e-01
-3.500943035808709025e-01
-3.640236527793004329e-01
2.870466367224461246e-02
-8.887123747112088967e-01
-7.485605284623209066e-01
-5.026440046438392928e-01
-2.424908675179237305e-01
-9.899263979093501920e-02
-2.364220874786758173e-02
3.051781912058383270e-02
2.474524804753511997e+00
9.466011752537650814e-02
1.204260546925856046e-01
3.930493939522196334e-02
3.903196636238602524e-02
-3.058206494533236008e-02
-5.186146883164151344e-02
-7.528521677778476917e-02
-1.356943274208115557e-01
2.055517678347231758e-01
9.797473378693728752e-02
-2.033645024427706977e-02
-3.493531077250412731e-02
-7.910176308801675216e-02
-3.789799886340900620e-02
-7.923766682739080691e-02
-5.201731182606258302e-02
-2.496302532889102185e-02
-1.440515008964098412e-02
7.691976303699557538e-02
-2.292078064913839405e-02
-4.879231925024156424e-02
-3.785376755250614150e-02
5.504115682835935761e-03
6.651116415058690168e-02
4.341651621027229485e-02
-4.882601692739643728e-02
2.840368435650037979e-02
3.314294877939381184e-02
-8.103920700284733547e-02
-2.590007147738524959e-02
-1.490014629236948796e-03
5.229216069069956424e-02
6.863167092773662936e-02
-5.738182638956441928e-02
8.574026675340717593e-03
-5.741220550349058344e-02
-8.037138294642509617e-02
-2.662946112137648189e-02
2.943422054647701000e-02
1.151549578113022498e-01
5.527137290972704980e-02
3.190297339031301915e-02
3.807163319422121606e-02
1.707560221762293232e-02
-5.901744720450725207e-02
1.668137926056321996e-02
-4.098341273560719006e-02
-5.900210103233304720e-02
7.790023710963817072e-02
4.107740159396621599e-02
5.294534454116935074e-02
4.077086358127764154e-02
-2.494520270927143291e-02
1.909378652523823806e-03
-9.167229223958948958e-02
-9.798573052971443209e-02
4.447036828578922879e-02
3.494563313507944441e-03
-1.019585132898768488e-02
5.486118365850740225e-02
-1.946018557253533302e-02
-3.387446330568770481e-02
-9.879645788347110949e-03
-2.941596926224676611e-02
6.134854948196886981e-02
1.193668756327445277e-02
-3.216282735452314495e-02
-7.795856442457958779e-02
-3.787618821481729403e-02
-4.965260775498529962e-03
-3.153300655783958240e-02
1.112106102820146492e-01
4.813523309691740415e-02
1.620840313636553315e-02
2.509475160241769753e-02
-6.892987785203709070e-03
-5.123221034590925288e-02
2.793525982229931592e-02
-2.626203400827768070e-02
-3.298641551860920229e-02
-4.207051443612604136e-02
5.716403707061705475e-02
6.192155179233877274e-03
-1.056057765044762786e-02
4.949426734427383318e-03
2.827627123561123057e-02
1.351721525644964880e-02
-5.746801338976534335e-02
1.019476112040457357e-02
2.776454895183991939e-02
-3.019824369277799084e-02
-9.572277048884719752e-03
-2.073715064849385864e-02
1.606027168111116496e-02
5.044075494711509206e-02
-4.395266531031419982e-02
-6.369575503010665996e-02
7.688045329049420645e-03
-5.501364702741400742e-02
3.024416312598560488e-02
6.745048288476290788e-02
8.782850981609782726e-02
-1.687456487948716527e-02
-5.762723421888804598e-02
-6.168282094216671896e-02
-8.007865409622548503e-02
-6.722975727212850139e-02
4.038636039741468065e-02
-7.070506890524109155e-04
5.702698424408375599e-02
-3.388651646450308984e-03
1.156735900045251508e-01
7.136139812809653461e-03
1.569457025394751723e-02
1.297688159180357750e-02
2.396859000282666394e-02
-7.785236858597981841e-03
-1.125388056173610291e-02
-1.472137872732951283e-02
-2.601568551372380675e-02
-5.126273850398444139e-03
-1.645770693248165342e-02
5.681758176384808963e-03
-3.995944855697174808e-02
4.801151063539919883e-02
-2.844253353640639401e-02
3.481775024176191058e-02
1.474943822712323875e-03
2.177058814967144929e-02
-6.449482570973981421e-02
-3.540862078102433464e-03
3.060189171199406005e-02
4.097785239128910045e-02
-6.615731398720373253e-03
-6.016153154322674557e-02
4.146261847683484214e-02
8.820399212957366619e-02
-6.855495908819224382e-03
-1.122447292288127930e-02
-2.293158142939801664e-02
-6.353402396043156784e-03
-2.091143483949431045e-02
2.597062856949161613e-02
-4.589823320242918808e-02
-1.867410957834844676e-02
1.051862851893281027e-02
-7.648268777428978132e-04
3.685704613109854703e-03
2.690150946980630897e-02
-1.971232718440488543e-02
6.625288494704956697e-03
-8.579867456057644476e-03
1.101035325880835580e-01
5.600901826290970165e-02
4.505070465465672164e-02
1.526206549488570968e-03
-7.711522976240746396e-03
-4.256474936176760787e-03
-9.816189933624636099e-02
-1.025595648064743654e-01
6.266579209057895894e-02
2.663570894474547035e-02
1.419446465772033483e-01
7.417637543897932263e-03
-5.552692744929063444e-03
-1.350461060171239125e-01
-6.426529418346474398e-02
-3.379969221090763781e-02
7.195449330198428958e-03
2.785597571572694890e-03
4.740993042414107239e-02
-1.651047874396327844e-02
-1.256618771666331152e-02
-8.717387187027064027e-03
-7.201798355331510450e-03
-1.239512532292705478e-02
4.458206576761020168e-02
4.598077702799670957e-02
-4.076815855270718957e-03
2.673344638529046025e-02
-2.846381714470908042e-02
-1.407857913413223909e-02
8.151595520509974727e-03
-7.882867256729537975e-02
6.819950085075499047e-02
3.751838504179063477e-02
2.844050293087493214e-02
-3.822730654816994256e-02
-2.515443397249278110e-02
-9.220827264598304221e-03
-2.954876463489845492e-02
-3.200705640326109019e-02
8.816543548959401844e-02
1.089586552314554882e-02
-4.044391000091602552e-03
-2.009107080008691593e-02
6.303775303718749980e-03
-1.275598528050327606e-02
-5.987998041276820782e-02
-8.593648823008304474e-03
-1.732007386986690253e-02
-2.648892412367138960e-02
6.695042551571325079e-03
6.156474596560041618e-02
2.764675205283498392e-03
-1.097970152958921940e-02
3.164170645612566883e-03
-1.939993484494035095e-02
1.101306745712223555e-02
-8.303697695537752901e-03
-8.818231135812197585e-02
1.957420752877842007e-02
8.838400857881012485e-03
-6.591272953409550543e-03
-9.936109401099206193e-03
7.358771556438693795e-02
-1.501871055102986796e-01
-1.232308448078012764e-01
3.043935082309617152e-02
-2.446067678097482365e-02
2.422259739332317807e-02
-5.040906157836611348e-03
9.658925781751916129e-02
1.516683272229732704e-01
6.019997235277397413e-02
-1.068636587483346931e-02
2.094806094665601498e-02
-2.009229282435218145e-02
-2.611208235654311968e-02
3.741506037722911945e-03
-9.454274546988040290e-03
-1.854452373443607124e-02
-1.020801964722500149e-02
-2.627245329425518042e-02
-1.424123863494898036e-02
5.345542905149885948e-02
6.014357439498167583e-03
-8.118025061043207882e-03
1.680932984504420608e-02
-1.743937969856884651e-02
7.968267557176655913e-02
1.107379586361221732e-02
4.617490950488502277e-03
-5.675391207149647378e-03
1.110320450186688158e-02
-8.530630239409805332e-03
-5.366662402239561445e-03
-8.690448303893522075e-02
2.301280051325272635e-01
6.947813317327979077e-02
-4.604656780535972688e-02
2.983134976704250943e-02
-5.248828352404383106e-03
-2.710307779801113259e-02
-1.264841978639670017e-01
-1.245548162531075614e-01
1.032995494628598659e-01
2.099729781873981363e-02
-2.391516156266585910e-02
-4.049180969853618389e-02
-4.277650408616054389e-02
-2.432910449281813769e-02
-1.055037429522161750e-02
1.776610685380256016e-02
3.198855189311372582e-02
1.249215375041426088e-02
1.132574940843728787e-03
1.594135488448415391e-02
4.212220386366252040e-02
8.557084021330955623e-03
-3.685815487538748186e-02
-7.537576847846198802e-02
-9.707390688692725880e-03
-2.115539280139518141e-02
-1.271053138596295838e-02
-6.185299876233825087e-03
-3.606018508852669446e-02
1.791618908031359508e-02
-9.342890042483445109e-03
7.724550080298116239e-02
-9.167337437654368704e-03
3.156608038623491107e-03
-2.748529835308410191e-02
-4.554401600769128478e-02
-5.757686991103456303e-02
3.047208976093145755e-02
1.030352935668992463e-02
9.584129455321954705e-02
1.389132613514140573e-02
2.423731884214744975e-02
-3.358379082112033370e-02
-4.641122266396149887e-02
-2.251569541893262694e-02
1.164892513148180252e-04
-1.704402788324244425e-02
8.130960255865324338e-02
-9.473454924765584151e-02
-1.861058109234496952e-02
1.182100057206500292e-02
-2.428647537307679349e-02
-1.624091610144589096e-02
-5.501249063822833893e-03
-2.432161159825427937e-02
1.718743819045356336e-01
4.437289634255355691e-02
2.227482991880620419e-02
3.150926458632508087e-02
-1.820757892843861622e-02
-1.117508285387540899e-02
-5.614631446751489063e-02
-2.490864557649696137e-02
1.228063097864103177e-02
-2.620521054546460019e-02
-3.586258306246224020e-02
8.122055748488184179e-02
-3.423745730936257614e-02
-2.199719551965863620e-02
6.470168921200740442e-02
2.842129193562992987e-03
-3.046192945350420164e-02
6.030628819828830374e-03
-9.206864183474598728e-03
-6.753034023992556846e-03
6.994908710054558972e-04
4.009380345446742280e-03
1.089056949262437977e-02
-3.653359622737545678e-03
-2.016811698700687449e-03
-2.672947165347391851e-02
1.019258980736721804e-01
-1.612918459969490265e-02
6.384585726898096315e-03
-9.672897767314810394e-03
2.314181635682963090e-03
-1.936233128477113721e-02
-3.873078013099835737e-02
3.722046408445518068e-02
4.783692416092525518e-02
-1.413803425092735079e-02
-7.302400713571161051e-02
1.923468879798001518e-02
-3.880649303725572808e-03
-2.266185283698535918e-02
9.412466483989526816e-03
8.134054168566616505e-02
-1.021141728865206967e-02
1.073237321029904545e-01
1.955591312989016228e-02
-3.071284799623952982e-02
-3.299540772370784109e-02
-3.683953657430600465e-02
-9.746097733564124121e-02
-6.813516261417090769e-02
-2.686907266472291292e-02
1.310749576155813972e-02
-2.696345472636655499e-02
3.603465462184943235e-03
2.107525437723723957e-02
4.804812836276835947e-02
3.613334604151170748e-02
6.011660305604964866e-02
1.102229044829610566e-01
-2.965530642617700014e-03
-4.691500923299049552e-02
-4.768251279129785691e-02
-2.579475717264881687e-02
-2.240011130605685727e-02
-2.458158639339896520e-02
-4.522615562290169949e-03
1.130327034640536688e-02
4.323657525056931461e-02
4.213914066138776254e-02
-6.507242923471162621e-02
-1.059547076726746404e-02
4.281403878799636825e-02
-5.930250948208955902e-02
-8.136839886057002647e-02
1.115824012765713642e-02
-3.088539055748466475e-02
-1.436777103316914592e-02
-2.793515466308132619e-02
-1.013061413544710798e-02
7.759148529838555408e-02
7.593760382370971784e-02
-1.340736489086045459e-02
2.817168361394613643e-02
8.184709406870237236e-03
3.136023826986431007e-02
3.360077859552000482e-04
-1.641098354758109903e-02
-4.859890531431781957e-02
1.036461467612354373e-02
-7.666379790593934318e-02
-7.477186367953563007e-02
-6.928826569186524731e-02
1.656277473310569653e-02
1.359066574722638671e-02
-4.413936439705491710e-02
1.048937346655906891e-02
2.242204777275041694e-01
-1.844664570313703927e-02
3.748620231844965872e-02
2.358090705694817352e-02
-1.982167830090706198e-02
1.761670300541266082e-02
-1.173317991984026108e-02
-8.596874663200743463e-03
-2.008543379372544277e-02
-1.833868286720863675e-02
2.145719653391735607e-02
1.880639806791938734e-02
1.067739511410349153e-02
-5.201223019763576670e-03
-1.211476419862703158e-02
2.255911214636151501e-03
-1.754223084497711499e-02
1.922428724933892760e-02
3.030039819827074973e-02
1.046585166902717218e-01
6.685174478002384180e-02
4.040165627212141241e-04
-2.155377786680116436e-03
-9.070632147947713109e-02
-1.285772642144691058e-01
4.845784737998031638e-02
8.806262997155737959e-02
4.977584687943737568e-02
-7.064323325149464428e-02
-6.367144754251237437e-02
1.120950545965171928e-02
-1.299926739748625062e-02
-5.019188149913345054e-02
5.312390689896497042e-02
-2.767062412600127669e-02
4.111421574246332949e-02
3.932824865562774969e-02
-4.497902191432069652e-02
-4.381626055769887590e-02
7.852875413246503469e-03
-2.495334011228168489e-02
2.545948219799507722e-03
8.587609859963908632e-02
-7.671488688967866010e-03
-3.557444473460342343e-02
3.944799087055151504e-02
-2.765619621951505985e-02
-4.123765141535809531e-02
-1.573025663154570264e-02
-4.896586971974795088e-02
-3.930840541749995240e-03
6.988283107876594458e-02
1.362592290790810845e-02
4.793978261568853511e-02
-1.942425102506751752e-02
2.133056765606770183e-02
-8.045814297186490438e-02
5.408162432989820079e-02
4.509798594725730053e-02
5.266346954881892528e-02
-1.925113134439632384e-03
-3.696894785508850895e-02
7.817341191356056221e-03
-3.302979861207190788e-03
-1.174633801665952021e-01
8.493378119336982002e-02
4.745287328339787419e-02
1.876954049051263521e-02
-3.185302241323909045e-02
1.828743563459629684e-02
-3.116755135579086719e-02
-3.531068335881186460e-02
-7.111237347403485953e-02
1.013897343945907997e-01
5.552446842199364879e-02
-1.200758041946076334e-02
8.962358367398346251e-03
1.081435956230852521e-02
-2.711311432191680637e-02
-4.033558873679200102e-02
-9.723463726812167640e-02
-1.654610627463040107e-01
-1.664724926759899026e-01
-1.707818215078998891e-01
4.210188588305763258e-02
3.708535888951559889e-02
-3.533410494102283417e-02
1.046125683780051857e-01
3.542496687206380668e-01
-8.498380672265829633e-03
-5.875056244224795277e-02
8.300764518302371914e-03
2.374405284010712783e-02
-2.506851974912814238e-02
2.611849295057388706e-02
3.905980803407575752e-02
-4.905655479417183988e-03
-1.738736288660977340e-03
-3.990581487596538655e-03
-3.034221888754691943e-03
-1.907423182445023083e-02
2.760082810154093971e-02
2.168683397477568983e-02
-6.120380234624073559e-03
-1.532951035223008990e-02
6.550006203784473381e-03
2.983296195868205894e-02
-3.100417563484750023e-03
4.039732729085331042e-02
-3.368410647604590680e-03
2.614109084305208178e-02
-3.773589075453312458e-02
-5.871666733074946271e-02
-1.068928700831332443e-02
1.419091283313126707e-02
-2.905761075723701722e-02
1.795551321025538535e-02
-2.405707412580623469e-02
-2.099621305223732873e-02
3.596681984420859075e-03
4.905707691578639618e-02
0.000000000000000000e+00
0.000000000000000000e+00
0.000000000000000000e+00
0.000000000000000000e+00
0.000000000000000000e+00
0.000000000000000000e+00
0.000000000000000000e+00
0.000000000000000000e+00
4.447036828578922879e-02
3.494563313507944441e-03
-1.019585132898768488e-02
5.486118365850740225e-02
-1.946018557253533302e-02
-3.387446330568770481e-02
-9.879645788347110949e-03
-2.941596926224676611e-02
2.901491724493657220e-02
4.146631398795400103e-02
8.658114259311593119e-02
1.476151437228248771e-02
-5.694752649614227835e-02
3.354619844506186860e-02
-7.500427429187674078e-02
-7.341828585533197171e-02
1.912031585198079378e-02
-2.525791085158850605e-02
-6.148639099069837244e-02
-2.165450215748622106e-02
5.715316150232963889e-03
-5.610938622762526654e-03
4.874224028359912253e-02
4.043187033672272085e-02
-4.207051443612604136e-02
5.716403707061705475e-02
6.192155179233877274e-03
-1.056057765044762786e-02
4.949426734427383318e-03
2.827627123561123057e-02
1.351721525644964880e-02
-5.746801338976534335e-02
-2.493158160801832446e-02
-3.517258367903932509e-02
-1.856298636466066632e-03
4.986863970703194621e-02
3.980045556400489681e-02
-1.332449886733973708e-02
-1.410785617974943907e-03
-1.297334686219845518e-02
1.019476112040457357e-02
2.776454895183991939e-02
-3.019824369277799084e-02
-9.572277048884719752e-03
-2.073715064849385864e-02
1.606027168111116496e-02
5.044075494711509206e-02
-4.395266531031419982e-02
1.077912408543669869e-02
1.086322069433386245e-01
-3.718122739487124406e-02
-1.909393589322488927e-02
-2.162020514992641501e-02
2.681460192500363399e-03
-2.047376553813130481e-02
-2.372365724512187982e-02
-5.895555991184429911e-02
-6.269648328766797007e-02
-1.345312802523049127e-02
9.895249977413408081e-04
5.015042986300007749e-02
9.919757850298616120e-02
5.318831261016891687e-03
-2.055119340000172157e-02
9.412262404319244116e-03
-3.075094647582018829e-03
-2.522992970846193745e-03
-1.520065685562813247e-03
-8.801973923155532965e-04
-7.260300120489048556e-04
-3.088449843978178849e-04
-3.790367115659510396e-04
-1.436593439493818146e-02
-1.204843864860311378e-02
-4.920575147956699619e-02
3.808019323510877102e-02
2.897284500576684935e-02
-4.211264554040741737e-02
-1.588368085945125090e-04
5.083856863123457914e-02
-4.731688654722859128e-02
-6.803021544762224981e-02
-1.802400579256163357e-02
2.306167162305982916e-03
-2.967989569481927978e-02
9.913962978449110397e-02
-3.229814837855804390e-03
6.483502137329051618e-02
7.136139812809653461e-03
1.569457025394751723e-02
1.297688159180357750e-02
2.396859000282666394e-02
-7.785236858597981841e-03
-1.125388056173610291e-02
-1.472137872732951283e-02
-2.601568551372380675e-02
-5.126273850398444139e-03
-1.645770693248165342e-02
5.681758176384808963e-03
-3.995944855697174808e-02
4.801151063539919883e-02
-2.844253353640639401e-02
3.481775024176191058e-02
1.474943822712323875e-03
2.177058814967144929e-02
-6.449482570973981421e-02
-3.540862078102433464e-03
3.060189171199406005e-02
4.097785239128910045e-02
-6.615731398720373253e-03
-6.016153154322674557e-02
4.146261847683484214e-02
8.820399212957366619e-02
-6.855495908819224382e-03
-1.122447292288127930e-02
-2.293158142939801664e-02
-6.353402396043156784e-03
-2.091143483949431045e-02
2.597062856949161613e-02
-4.589823320242918808e-02
-1.234722976571890792e-02
6.556826432834853870e-03
-8.366235147854301363e-03
8.733676953860665046e-03
2.393907048475845539e-02
-5.890968864583821102e-03
-4.550517691244953221e-03
-8.074622402051999381e-03
1.360626353262172966e-03
-4.865830913755858221e-04
1.214455814197187671e-04
-7.459740132392897287e-03
8.025284226708796417e-03
-9.814325609519808369e-03
3.396028424771570502e-03
4.857264247126026266e-03
-7.687506165891705087e-03
4.448385177473531543e-03
7.479962688691677193e-03
2.411767791642074801e-03
-5.062845241660976665e-03
-4.007032710301278514e-03
7.779777761178333778e-03
-5.362509301131655748e-03
4.396726919625155647e-03
5.091851171018525746e-02
4.199637914248508658e-02
2.006786644071317793e-02
1.129038290831922003e-02
1.681933325589387435e-02
-4.480654655038315143e-02
-1.006826538268385113e-01
1.530779292573476724e-01
3.904546010538564871e-02
-4.867499642731444587e-02
-2.103456383587531259e-02
-3.850371507968398943e-02
-1.485723964151591803e-02
-3.284370393308552044e-02
-3.620917044525814865e-02
-1.146622446570226411e-01
-6.174555074740489813e-02
-1.071912376141107535e-02
-1.573453190813276989e-02
5.185588334513009656e-02
-1.601361474666615839e-02
7.675262431995721890e-02
9.026655815555030549e-02
4.001192654636624713e-02
2.505552980483397377e-02
-8.285741705199552512e-03
-5.870436823198248860e-03
1.924843495629552717e-02
6.172616457269419071e-03
-2.354125412253229438e-02
-5.279107511383514251e-02
-7.386023217918100126e-02
-4.966969240193945534e-02
-1.687180754111022168e-02
6.580951196731947561e-02
7.057172276086080831e-02
-4.736786950879068314e-02
-2.197973003724758637e-02
7.336809694008884775e-02
-5.935322210761226347e-02
-3.931707497345770380e-02
5.196439670136574450e-03
2.917886263157945873e-02
-9.133815747715611638e-03
7.056697726749189270e-03
1.120501562544327576e-02
5.516709717487706249e-02
3.157801844455911389e-01
1.001759481948496233e-01
1.837619954446617285e-02
-5.782022574734850540e-02
-1.108818097440549127e-01
-6.227083838195816151e-02
-6.885993685828620259e-02
-1.344995214532591910e-01
2.549006502235984586e-02
4.695022064415970559e-02
1.460065302232142759e-01
-2.029292091451414745e-02
-7.588718007991089587e-02
-1.687638041233889205e-02
-3.666695919624047423e-02
-6.872337528672936569e-02
1.660905092789878232e-02
2.322076313672771959e-03
2.165192926876321686e-02
1.075056841099569262e-02
1.555489932153670402e-02
-2.700649872694274242e-02
1.181271078690064895e-03
-4.106329659461447484e-02
-1.012118092089222101e-03
-5.637919753902403963e-03
5.085563493585757572e-02
-1.383250496563490084e-02
-9.890943527623628079e-03
-6.699884295413733974e-03
-5.520958434993176317e-03
-8.261305866200529743e-03
8.207567422287649975e-03
8.423517325475103623e-03
-3.445704511716538888e-03
-2.677973778328391914e-03
-2.675244189039671736e-03
-2.017502891613324415e-03
-1.680839920338332615e-03
-4.133819456726502486e-03
-2.664556065857064115e-02
-4.045213270981315445e-02
4.372200312259436061e-02
1.813872612368428242e-02
6.174790720199193131e-03
4.858804689235450168e-04
2.134392479630061509e-03
-3.558099546647700527e-03
7.122762642618080120e-02
8.643290973780981545e-02
-4.779881897786516370e-02
8.594720261606163952e-03
-3.463860786490823018e-02
-1.456445960305578942e-02
6.017203040879901509e-03
-7.527057302064751876e-02
6.819950085075499047e-02
3.751838504179063477e-02
2.844050293087493214e-02
-3.822730654816994256e-02
-2.515443397249278110e-02
-9.220827264598304221e-03
-2.954876463489845492e-02
-3.200705640326109019e-02
8.816543548959401844e-02
1.089586552314554882e-02
-4.044391000091602552e-03
-2.009107080008691593e-02
6.303775303718749980e-03
-1.275598528050327606e-02
-5.987998041276820782e-02
-8.593648823008304474e-03
-1.732007386986690253e-02
-2.648892412367138960e-02
6.695042551571325079e-03
6.156474596560041618e-02
2.764675205283498392e-03
-1.097970152958921940e-02
3.164170645612566883e-03
-1.939993484494035095e-02
2.607616123942361683e-02
-8.349277669300307625e-02
-4.188763710674975327e-02
6.400080646426067887e-03
-3.271875886068990880e-02
1.443812680196874740e-02
4.607878609908603804e-03
1.065769253627156937e-01
-5.938199347418272878e-03
1.508295170875406307e-02
-4.215931828227274976e-03
-2.376301529934498995e-03
-9.960843054371334299e-04
-6.405310392369930597e-04
-3.943757614324844242e-04
-5.215278970674122518e-04
-9.124894434883137895e-03
6.010612728871120303e-02
-4.207874242314500746e-02
1.555042841228686419e-02
4.255324402400806338e-02
-2.038886871614130347e-02
-1.414961224957535582e-02
-3.246768190126132769e-02
6.019997235277397413e-02
-1.068636587483346931e-02
2.094806094665601498e-02
-2.009229282435218145e-02
-2.611208235654311968e-02
3.741506037722911945e-03
-9.454274546988040290e-03
-1.854452373443607124e-02
-1.020801964722500149e-02
-2.627245329425518042e-02
-1.424123863494898036e-02
5.345542905149885948e-02
6.014357439498167583e-03
-8.118025061043207882e-03
1.680932984504420608e-02
-1.743937969856884651e-02
-5.539707701612966995e-02
5.441290449504849330e-02
5.900120112864381400e-02
1.386813601249391008e-02
-3.908447387021327752e-04
-1.752463453286248404e-02
1.077004578618406556e-03
-5.504668992711032882e-02
1.350797525878961736e-01
-4.333910863143634190e-02
-5.438371017815527009e-02
-1.954352721964353751e-02
1.149404924056900840e-02
8.994004293452644017e-03
-6.443666980857960629e-03
-3.185779311182474621e-02
5.193666479058746399e-02
6.967198179175100592e-02
-2.030224790570003823e-02
4.273947555753131178e-02
-1.460105775683802516e-02
-2.253413990444298048e-02
-2.891009322975737414e-02
-7.800058334313118846e-02
1.253662577677628343e-01
5.816910456216140696e-02
8.637214579393778444e-03
-4.304706766027355247e-02
-5.801355385165696960e-02
-1.735092332294660769e-02
-3.216567864871762352e-03
-7.054446420956907160e-02
-5.105332051238060942e-02
-8.716745710623456656e-02
-9.139097266225304494e-03
-2.427759698753580164e-02
-2.003848500833504617e-02
3.303055033225169024e-02
3.151917744670736793e-02
1.271262291017523638e-01
0.000000000000000000e+00
0.000000000000000000e+00
0.000000000000000000e+00
0.000000000000000000e+00
0.000000000000000000e+00
0.000000000000000000e+00
0.000000000000000000e+00
0.000000000000000000e+00
-2.295005258310964594e-02
-1.967633142893780024e-02
-3.111030970134344691e-03
-1.590662060825820401e-02
4.987659253066940857e-02
-1.747459159768027445e-02
-9.942890647299817281e-03
3.918492530475063684e-02
3.198855189311372582e-02
1.249215375041426088e-02
1.132574940843728787e-03
1.594135488448415391e-02
4.212220386366252040e-02
8.557084021330955623e-03
-3.685815487538748186e-02
-7.537576847846198802e-02
5.529579228635219529e-02
4.066017616122865296e-03
2.959961533040152831e-02
-1.442492698738119528e-02
-4.394183567574864308e-02
-3.228594907201640107e-02
-4.022715050448284757e-02
4.191843700675251805e-02
4.741517943743871893e-03
8.887777353563589347e-03
-4.228225673678403379e-02
3.269843100505992473e-02
-1.728958344484654575e-02
1.237508406303953860e-02
-4.229395334320242006e-02
4.316298315942613401e-02
-2.691299866683938887e-03
-9.035476442279874454e-02
-8.706252345896234313e-02
1.803553774088403200e-02
5.490480082862851836e-03
-3.705370960785363266e-02
1.042522752245770845e-01
8.938400430797456553e-02
-3.717878096160415896e-02
-1.073881008114861528e-02
8.491386678175899191e-03
-4.031282096591698796e-03
-2.156072272631785747e-02
1.337387417615303227e-02
3.444007949915282168e-02
1.720425551218052879e-02
1.652118539125025168e-02
1.962459134234098915e-02
-4.399124492089495631e-02
-9.837536362756820266e-03
3.985992471856722452e-02
7.181406223753399910e-03
-7.189879890871267443e-02
4.254047251645268202e-02
-1.098259736711398350e-02
-5.172183005852150350e-02
4.700709511652663430e-02
-1.679933492928404118e-02
5.368653566579288661e-02
2.702316116739220120e-02
1.067256551572899094e-02
-5.888559511052106343e-02
2.911443008533857665e-02
4.573596989242470490e-02
-2.596508404847367845e-03
-1.937169823644948122e-02
-1.796499544570265977e-02
3.236596217918093904e-02
-1.736262238788631798e-02
-4.992053768205845926e-02
-4.985247767509096845e-02
3.636989803159906831e-02
2.689551936852487349e-02
5.953494896923709062e-03
-1.234361681276553019e-02
1.250963237564068492e-02
-1.508807743767235331e-03
-1.802364244106452462e-02
4.443177630467902428e-02
-3.812548467229831452e-03
-2.872755145697714757e-02
-2.380359341163927915e-04
-2.443268899685677870e-02
-4.291584970237863339e-02
3.318970018040624109e-02
2.250519807247363877e-02
-4.456020803225910210e-02
-1.243688131263357144e-01
-4.289919248132403190e-02
-3.082140282673167392e-02
-3.822108682069325775e-03
1.027928387383503922e-01
2.782970109941905468e-02
1.158491853109504255e-01
-3.810143977728688153e-02
1.212151066760983747e-01
1.990594545284331621e-02
1.262601357831274855e-02
8.618746606539761171e-03
-5.049653167941443865e-02
-7.241732956382461797e-03
-6.652610790071031288e-02
-1.385542553592957957e-02
9.174566598892519229e-03
-1.790183044625950209e-02
-2.595181683207531051e-02
-2.925433539257572477e-02
-5.644357224505326242e-04
-1.264076377959537714e-02
9.099404110999353978e-02
4.062092524794114201e-02
2.038224148907651426e-02
-1.668203589750685487e-02
1.952496012114637511e-02
-3.457661239599509745e-02
-3.157275562789542411e-02
-4.234795247117945083e-02
4.465122953441279241e-02
1.287013043088691862e-02
-8.147085448892592285e-02
-7.062891131977110104e-02
-2.717910077189879606e-02
1.812834623017648902e-02
7.234532590998690726e-02
4.411649308246692880e-02
3.181857092707853635e-02
-3.959972954368653347e-02
8.532593184199689651e-02
5.372715639615757710e-02
-3.875708201320917506e-02
-6.067429253113994225e-03
-4.065608103077660018e-02
-1.881256849452990834e-02
4.839802097161839158e-03
-9.360889620754594964e-02
-3.477543283734099017e-02
8.088828042479675323e-03
3.264304740329891652e-02
2.058913141409978928e-02
1.693488427914607505e-02
5.063445947223836618e-02
-5.060215663759391486e-04
-2.989002131002493207e-02
5.551736359467743936e-02
1.210658705244180636e-02
-2.674649653467237737e-02
2.073957367623965962e-03
-3.255476681379822906e-02
-2.364198350574613430e-02
4.313536014949840430e-02
2.876436826991514428e-02
-3.935251184968139443e-02
-8.374414522856508253e-03
-3.018302624170337775e-02
-3.890400488316960587e-02
1.011863347082930797e-02
-5.131408756474652860e-02
1.292450433214132055e-01
-4.627400205174907709e-03
5.487327334439765121e-03
1.374366219723615994e-02
3.108640566332474334e-02
-4.092049166124533781e-03
-2.365776848075334601e-02
1.506770361925662341e-02
-3.300788096220463180e-02
1.050133554635992311e-02
-3.216163756166581095e-02
8.397892567730717156e-03
-2.494655039291340803e-02
2.690429669098640467e-02
-4.185393611071545721e-03
-2.094878597528825048e-02
3.643884273586194683e-02
3.849896100136849381e-02
4.894914014603224395e-02
9.367709821358254085e-03
-2.434743419884994806e-02
-3.398733037873728768e-02
-2.830315237569003967e-02
-1.902756322046537246e-02
8.849669204983659498e-03
1.002385038590874744e-01
7.177520184741078071e-03
-1.890765068382306915e-02
-8.079466240308348646e-02
-1.751447727611073896e-02
-1.231461188336233602e-02
2.159062280414653524e-03
1.995631592213637645e-02
-8.200846288019109087e-02
-1.569111714107931932e-02
-2.711540753355355660e-02
-1.094522620279437392e-02
9.539766478692074348e-04
8.274950396552560594e-02
1.605052213929350491e-02
3.600621100492979593e-02
-3.560636894379207162e-02
-3.308381362853237903e-03
1.394750069059148001e-01
1.787168272152889550e-02
-7.025430112656705188e-03
-2.815535749846687086e-02
-2.626672692100987319e-02
-5.698442478866487526e-02
-8.828882580569078625e-03
-2.404060474327074370e-02
-1.223139120365630828e-02
3.963074857498637832e-02
1.588735221239600615e-03
2.242215462831098280e-02
1.089927169486470081e-02
-2.944003159190555774e-02
6.030628819828830374e-03
-9.206864183474598728e-03
-6.753034023992556846e-03
6.994908710054558972e-04
4.009380345446742280e-03
1.089056949262437977e-02
-3.653359622737545678e-03
-2.016811698700687449e-03
-2.672947165347391851e-02
1.019258980736721804e-01
-1.612918459969490265e-02
6.384585726898096315e-03
-9.672897767314810394e-03
2.314181635682963090e-03
-1.936233128477113721e-02
-3.873078013099835737e-02
-2.846670951274979725e-02
1.910105791550274767e-02
1.796576748148517172e-02
-3.308869059775217114e-02
1.979031014282273127e-02
-2.895119591632673117e-04
-4.555393676921090824e-03
9.543170206775633199e-03
6.568717359720499527e-02
2.873586624542247628e-02
-3.210380173241255547e-02
-3.993531653795956426e-02
-5.556213448427231279e-04
-3.591137344562300021e-03
-1.810645916006425188e-02
-1.307037227860924778e-04
8.134054168566616505e-02
-1.021141728865206967e-02
1.073237321029904545e-01
1.955591312989016228e-02
-3.071284799623952982e-02
-3.299540772370784109e-02
-3.683953657430600465e-02
-9.746097733564124121e-02
-8.052659802669950850e-02
3.671678074165131422e-02
8.232618467258544237e-02
1.776937776355057286e-02
2.194048449213414215e-02
-1.696728612875130979e-02
-1.576291892257097871e-02
-4.549602459189969889e-02
-6.791764997847513216e-04
6.672703242860021644e-02
-2.693615745392999999e-02
-3.647049335412974602e-02
-4.820966762875905642e-02
2.854756569922433426e-03
2.458599863194100947e-03
4.025510607488681086e-02
1.413223775825338813e-01
6.779091312709529388e-03
-5.835555786127313155e-02
-2.821389364241128420e-02
-2.141332965467294958e-02
-1.168222761381991492e-02
-9.095792246680023743e-03
-1.934066787638608412e-02
-9.847400815482144909e-02
-9.833872116650803352e-02
-9.411493833320380697e-02
-5.275104338560234613e-02
-3.236941375106956731e-02
3.171622641175093210e-02
2.973288447095437728e-02
3.145990139084998138e-01
-4.095505077889408097e-02
7.779387468392225113e-02
9.121337026217088417e-02
7.349073363177363420e-03
-6.096804886888230329e-03
-6.251038987896258281e-02
1.765454995286120862e-02
-8.444862271738691473e-02
5.806066007314536481e-02
3.170308661024283381e-02
-2.798382248645178705e-02
3.103419898925587062e-02
1.053106397487642981e-02
2.066354933176451150e-02
3.020405087456995430e-02
-1.542127873674032923e-01
-1.119281090337932022e-02
1.065699590216869982e-02
2.123394396377541529e-02
7.766161924443040938e-03
5.218553494066149184e-02
-1.138441060443567488e-03
-2.823894551275460754e-02
-5.127243925447103057e-02
1.381723256863198225e-02
7.967932407762218575e-03
-1.000164369827016841e-02
-1.641909361795489131e-02
6.739811680352624131e-03
1.872768737707586773e-03
1.712316863505681727e-02
-2.110017671328618533e-02
1.750561677208622383e-03
-3.068022876780033062e-02
3.972698584304905876e-03
1.060051811615173555e-02
4.111869969815045572e-02
3.533020285801549525e-03
-2.303951500295726117e-03
-2.799131809352113295e-02
2.139216286411334961e-02
4.884193297632472702e-02
8.388390939104585498e-02
5.808474894958781665e-02
-9.663469314908312846e-02
-4.251865792329857612e-03
-7.566384310125874590e-02
-3.565235213839992867e-02
-6.542858957235719863e-03
-6.486234320184549457e-03
5.569608449415667205e-03
6.819409407796123493e-03
-3.005336607360180757e-03
-2.170859957415825249e-03
-1.622750000224818705e-03
7.439021985209301815e-03
-1.340736489086045459e-02
2.817168361394613643e-02
8.184709406870237236e-03
3.136023826986431007e-02
3.360077859552000482e-04
-1.641098354758109903e-02
-4.859890531431781957e-02
1.036461467612354373e-02
-8.705900509570662499e-03
1.715895477154234794e-02
9.693667957722499826e-03
5.335015788138929710e-02
2.157410382714945382e-02
-6.900093053839323476e-02
-1.499274786670776530e-02
-9.077305523131885823e-03
-6.795789739636869109e-02
-9.193081845107782535e-02
-7.898193364958774887e-02
-3.678738314828357975e-02
-7.983438079923049768e-03
2.486156614133826909e-02
2.548212133326680992e-02
2.332977832506358540e-01
-1.844664570313703927e-02
3.748620231844965872e-02
2.358090705694817352e-02
-1.982167830090706198e-02
1.761670300541266082e-02
-1.173317991984026108e-02
-8.596874663200743463e-03
-2.008543379372544277e-02
-1.833868286720863675e-02
2.145719653391735607e-02
1.880639806791938734e-02
1.067739511410349153e-02
-5.201223019763576670e-03
-1.211476419862703158e-02
2.255911214636151501e-03
-1.754223084497711499e-02
6.256692474560227035e-02
3.623757393674042343e-02
4.499463143070420168e-02
-6.781979393645395926e-02
-6.038283360945623929e-02
3.843167970498763408e-02
-1.612199644264934381e-02
-3.790618582947511556e-02
-1.799435993608600876e-02
6.318549536229475794e-02
7.719986790245611649e-04
-2.496999829972676790e-02
4.115750436169257447e-03
-2.142666673294827545e-02
7.191782557169812753e-03
-1.087400206589739932e-02
3.885282570463994070e-03
-1.136043932747786769e-02
4.009216769708584538e-03
2.214655898468608983e-02
-7.404364369225372583e-03
-5.795507512387687923e-03
-4.069053512006700485e-03
-1.411693603761057531e-03
-3.110635670580252574e-02
2.904669327353161939e-02
-3.296009705916585521e-03
-5.455673181931281618e-02
-6.976437630576391713e-04
-1.504334358454314027e-02
1.078529189899662781e-02
6.486810040610453687e-02
1.287228329834290697e-01
5.328177460870375109e-02
5.538993610342818341e-02
-3.911313958773789123e-02
-4.578577860294548441e-02
-3.046769716327531186e-02
-3.079335554112682533e-02
-9.123457280047539419e-02
-3.236379836869675980e-02
6.791947686655105954e-02
-2.157976836775551618e-02
-1.423077034435516960e-02
-1.716051556001057729e-02
4.210390175115585713e-03
-2.610245314186034407e-02
3.930743874101163410e-02
-7.016452973020324835e-02
-2.405638243901246404e-04
2.364569398024558497e-02
-5.792526428658054463e-03
-3.967430888247981224e-04
-1.442393870886306100e-02
1.357683123054134570e-02
5.379577657015239406e-02
-6.598772586867396317e-02
-7.434387819361328031e-02
-2.654177771468304095e-02
1.272605064742096947e-01
2.163499351662963657e-02
-6.148309207260666681e-02
2.027889791866172367e-02
5.918207594007576788e-02
6.489699681694678646e-02
3.448781304178068913e-02
7.016645685074509448e-03
-1.840238979377995486e-03
-2.636089106085741374e-02
5.702418267552070152e-02
-7.533887253144477825e-02
-5.988563564764242536e-02
-7.261321765272578388e-02
-2.658846256769674746e-02
3.850079642277585978e-02
8.584174204035575906e-02
2.961024002626384127e-02
-2.394387639337538414e-04
2.038516703468149643e-02
-7.489682653972060122e-02
1.077901270506737841e-01
-1.664220472625873790e-02
-1.706066269631885401e-02
-1.060568836639134843e-01
-3.348113319820540494e-03
9.386869525177070610e-04
-8.948581333175990426e-04
3.527390853643756069e-02
-9.223049721935198952e-02
-6.546637633739908757e-02
-2.787138654997091750e-02
-7.642670844211387274e-03
2.996987359051600866e-02
5.423981913945988276e-02
4.913550918352043578e-02
5.986572903743697660e-02
1.176430415880551916e-01
-1.506539628367315614e-02
9.634564803135552830e-03
5.414360952197427163e-02
-4.977205020547285919e-02
1.684362756200518882e-02
-6.625675135982296744e-04
-1.327648294724258771e-01
-1.462965994685584865e-03
-1.405949998353727901e-02
3.276183782448546713e-03
1.315352286654617895e-03
1.732760655325902774e-02
-5.541545676909587909e-02
2.748328500819260597e-02
2.153549511676402031e-02
2.545948219799507722e-03
8.587609859963908632e-02
-7.671488688967866010e-03
-3.557444473460342343e-02
3.944799087055151504e-02
-2.765619621951505985e-02
-4.123765141535809531e-02
-1.573025663154570264e-02
-4.896586971974795088e-02
-3.930840541749995240e-03
6.988283107876594458e-02
1.362592290790810845e-02
4.793978261568853511e-02
-1.942425102506751752e-02
2.133056765606770183e-02
-8.045814297186490438e-02
-4.720015688929901643e-02
9.422816364864348981e-02
8.951076166993064687e-02
-5.458435042886943672e-02
-2.972131947342910446e-02
1.631971316822482601e-02
-9.060488549214444978e-03
-5.949232314598701388e-02
1.053956832143417288e-01
-4.125078729468345529e-02
-3.963799472992939749e-02
3.374055487317893093e-02
-8.544795736272713799e-03
-1.866153180683394848e-03
-4.583392588252386299e-04
-4.737816788712653771e-02
-4.113901995144517675e-03
-7.879390406702846752e-03
2.790702608817677201e-03
1.891868242125084587e-02
1.297167354613304544e-03
-6.636218796185360848e-03
6.215847946832494392e-03
-1.059288913348162622e-02
8.493378119336982002e-02
4.745287328339787419e-02
1.876954049051263521e-02
-3.185302241323909045e-02
1.828743563459629684e-02
-3.116755135579086719e-02
-3.531068335881186460e-02
-7.111237347403485953e-02
1.013897343945907997e-01
5.552446842199364879e-02
-1.200758041946076334e-02
8.962358367398346251e-03
1.081435956230852521e-02
-2.711311432191680637e-02
-4.033558873679200102e-02
-9.723463726812167640e-02
3.288580696076261883e-02
3.865449158056163959e-02
1.156586325563273426e-01
4.994963925858865103e-03
6.462947561534980456e-02
-9.071036526711404729e-04
-4.631661461520084067e-02
-2.095996523709880710e-01
1.491403981762343123e-01
6.488740252354920079e-02
-2.847872125201761709e-02
2.691928921616145928e-02
-1.738577770189973781e-02
-3.488307635192933187e-02
-1.261936866510083438e-02
-1.475801459449975761e-01
-8.570631277040985374e-02
-6.932214132683872654e-02
-7.971619775669459840e-02
-4.990670886094712710e-02
-5.049917308151781470e-02
-3.631084822147592067e-02
1.604046814290605721e-02
3.554209138749777064e-01
-7.008705967931615211e-02
-4.529293434865164225e-02
3.319829167334965164e-02
3.427038235808124028e-02
-5.854264387245681350e-03
7.853983161923443201e-02
-2.382493663038933243e-02
-9.493106050624854422e-04
6.670975045047108920e-02
3.991851559673043059e-02
1.161972199636881475e-01
-4.321249182131931682e-02
-1.114467841417153549e-02
-2.437701379771507401e-02
1.731078628609776472e-03
-1.458223806062938499e-01
-1.405401059789369855e-02
-1.353517013946604203e-02
-7.474667246414487543e-02
2.182391193959726250e-01
1.279335754932775238e-01
-1.158300669282968931e-02
-8.248521346729284498e-02
-1.497686215276227417e-01
-1.589414692349447600e-01
-1.523511143699602111e-01
-1.051779210081059679e-01
3.138626661808162355e-02
1.058557464568472481e-02
-2.317246062520201405e-02
5.234006830607978999e-02
3.453310556683667487e-01
9.195620903947572533e-02
6.261303947170690498e-02
4.829589553124135487e-02
-1.591393326501025149e-02
-6.128735647180422880e-02
-6.511305015833762644e-02
2.726759150809588556e-02
-8.781839565536775360e-02
9.338129872856617414e-03
-3.387218394972805330e-02
-2.711747472784848539e-02
-9.728839877785981898e-04
1.988695539566266018e-02
5.916733634917469703e-02
-3.285233099084826358e-02
6.422452038509413041e-03
3.313823560882671933e-03
1.155306697183307307e-01
-6.174528427326956420e-02
1.035908210911762675e-02
-3.217700281773238496e-02
-2.341454674732545635e-02
-1.052651761348618979e-02
-1.340223936517356482e-03
-3.852778854879385789e-02
-2.210755825981178257e-02
-8.347711224387360102e-03
-1.749434849355585575e-02
7.506446928074630119e-03
1.392815584034139782e-03
-9.132559991264254436e-04
7.849140001356651186e-02
-1.097716474755213861e-01
-1.021642042209666146e-01
3.444367872416647519e-02
-8.430043093033603996e-02
4.847077595276862855e-02
4.377149698887160267e-02
4.513102375713724801e-02
1.244193072038800585e-01
-8.498380672265829633e-03
-5.875056244224795277e-02
8.300764518302371914e-03
2.374405284010712783e-02
-2.506851974912814238e-02
2.611849295057388706e-02
3.905980803407575752e-02
-4.905655479417183988e-03
-1.738736288660977340e-03
-3.990581487596538655e-03
-3.034221888754691943e-03
-1.907423182445023083e-02
2.760082810154093971e-02
2.168683397477568983e-02
-6.120380234624073559e-03
-1.532951035223008990e-02
-7.897618782643800461e-02
7.518725270544886208e-02
5.861093700087496861e-02
1.316459259370020007e-01
-7.540778745740500319e-03
-7.831625794725478873e-02
-2.543687469075388632e-02
-7.517401643313849358e-02
9.852036451474047163e-02
-3.661166668661700041e-02
-9.257197811276945965e-02
-3.961489332692622739e-02
-3.607108686213428891e-03
4.196682743844397379e-02
2.581550121132031306e-02
6.102953648021314931e-03
3.516011557757995482e-02
4.493505262894871566e-02
-6.588263571575941890e-02
-5.817561755802058698e-02
4.890673368013246508e-02
6.836562811053255306e-02
4.631319707920115991e-02
-1.196224738026145928e-01
2.195735360633455369e-01
-7.728957389464106639e-03
4.777944630840118279e-02
-8.277835204066387453e-02
-4.146623966543185047e-02
-3.826948475631862523e-02
-1.052135912722027278e-01
8.103642752334137139e-03
-1.362743293466498196e-01
-4.959673754675830715e-02
-6.934189347121703928e-02
-2.490127621236067415e-02
-5.118079340480789080e-02
-3.257538331470177101e-02
-2.845900675613117353e-02
3.923294200526263320e-01
-8.669975856205890119e-02
-7.765607805805434423e-03
5.721207133420803254e-02
3.345239202127373024e-02
-2.576595578336410113e-03
4.438594619354127579e-02
4.513488946092275578e-02
-8.314333706374492372e-02
1.004480906144996667e-02
-6.482648342478276350e-03
3.203122530173854732e-02
-3.758674324488382734e-02
1.958859418558041993e-02
-1.052253649974140177e-02
1.031287840980393139e-02
-1.738557887146935377e-02
-1.847805103371668797e-02
-2.556660017551747738e-02
-2.825986673436804361e-02
6.036482798774796960e-02
5.557503198500258861e-03
-6.794691789002780917e-04
1.475282445516553492e-02
-7.691168518911340075e-03
-1.281045088904169717e-02
2.453150422058350197e-02
3.953945538059630560e-02
-3.697002497021653622e-02
-1.899971281121907302e-02
5.795578649951344669e-02
2.339599538055248812e-02
-7.664255281076853832e-02
-8.542125550745603701e-02
-1.020371525316191436e-01
7.764997805874053471e-02
1.170367672237345065e-03
3.169755808413851628e-02
1.796688489878688760e-02
1.242182593498714245e-02
4.655179339018466339e-02
-1.575944420537414847e-01
-1.061754041060117559e-01
-7.042513305787886924e-02
-2.413334733802596430e-02
9.200691275711564421e-02
7.531801582741604051e-02
5.512675867221276949e-02
1.358766392989139427e-01
7.401936106152567918e-02
-3.690019004900328692e-02
-9.274862519659399229e-02
-5.881340937766851157e-02
-1.379394237308190219e-02
3.661102419137449160e-02
3.013796907970967692e-02
6.148781266373802568e-02
2.916536035327481000e-02
1.198636180240529175e-01
6.030102898707211112e-02
2.317401422487685991e-02
-6.609742700015964296e-04
-5.647242487655599469e-02
-7.455249463662286247e-02
-1.008181278060961000e-01
8.422080124862037220e-02
-1.294900893884087974e-02
8.797922930839295955e-03
-2.869953123946501414e-02
3.990712651112392900e-02
-4.671199872988123641e-02
3.094085248113922007e-02
-7.550616426353572164e-02
-7.597672550038281347e-02
-8.776123440601182879e-02
6.855070277950055246e-02
6.767395195532845131e-02
3.281399999198152811e-02
-1.672317358600306988e-02
1.658467670021667242e-02
-5.162197934629442729e-03
-3.996400942657570704e-02
1.053146554023941944e-02
-2.898449093351720962e-02
1.074197009742249020e-02
-2.421324519302410841e-02
1.957790617222142371e-02
3.278243078429155660e-02
1.952797295894215246e-02
1.924564309626352054e-01
8.017352449244403989e-03
-3.041427804467313270e-02
-7.769569588990889175e-02
-3.153532156474943282e-02
-2.286876884936795903e-02
1.213777350080020440e-02
-5.009749256398043915e-02
-2.983977578002261141e-03
-1.152605066685249979e-02
-2.989187354384551139e-03
-2.534533413110940867e-02
1.036053758612738573e-02
-3.157268622401882691e-02
-2.890026668933828868e-02
9.295696505757851391e-02
-7.792972785995309903e-02
7.381096350874188396e-03
-7.932788064636601272e-03
1.208552046334308155e-02
2.731873780433155194e-02
3.793790763922313958e-02
-1.384647279533990881e-02
1.498572646215758086e-02
-6.166345244750252169e-02
-1.381535694620689343e-04
-3.381689649770011023e-03
7.916874536611888391e-02
-3.925242530907371852e-02
-5.925614815705783356e-02
4.009322034390737366e-02
4.442990342283981153e-02
1.523045559780084740e-02
-3.148885058625875560e-02
-5.046247216086981180e-02
-3.221305786919369946e-02
-2.517791434646229551e-02
1.059305655157655526e-02
-4.889454960077835484e-03
1.184082377734850117e-01
-6.479672295854668751e-02
3.933697252358087093e-02
7.272692998830186661e-02
7.971354552825458961e-03
8.174975777382435457e-03
-3.432358956332004496e-02
1.670197878006189976e-02
-4.579189910028573507e-02
1.606465363250568212e-01
1.418868208181281107e-02
-7.167082987230915907e-03
8.586168235639296195e-03
-7.431621668723943641e-02
-3.370536493358038121e-02
-7.073998740269185626e-02
2.507265368233512100e-03
-6.084529856474183568e-02
2.174283475717746217e-02
4.482458558390174652e-02
1.561927127468716592e-01
1.239348437901321640e-02
-5.932777774394081688e-02
-3.075725613762849212e-03
-1.119048155445185738e-01
9.897846053290756951e-02
6.826425412747505993e-03
-1.015261416344416870e-02
1.143639048255135245e-02
-3.629418076754585554e-02
-2.935514416305794530e-02
-1.319332736956290233e-02
-2.824600996459546154e-02
-5.049804775506840787e-02
4.203919253498985403e-02
5.201235323472010175e-02
2.646500093856722288e-02
4.853402261398619480e-03
-1.433580379977200149e-03
-5.686328620676612405e-02
-1.657503462786405826e-02
6.208901399470354715e-02
-1.201367389505301059e-01
-6.084859690191465192e-02
-4.877620392254532200e-02
2.345505980251888500e-02
1.030184263256506277e-01
5.697137708600636535e-02
-1.577233743388921708e-02
-2.875217360778199727e-02
1.206070290571098214e-01
-1.742568163076936572e-02
-2.621041183069872799e-02
2.722650442527544540e-02
8.246634205608636969e-03
-2.536174226093963757e-02
-5.833015835780421682e-02
2.060969312836911926e-02
-5.754711710528883153e-03
1.093308339203911679e-04
-7.154777763733625139e-03
-4.388581646174324023e-03
7.587143358549617266e-03
-2.641585319779645152e-03
-8.366510880622653537e-03
3.989175154627712383e-02
1.441630039235724733e-02
2.440123159803908245e-02
-5.882855709368153829e-02
-4.590768233329800205e-03
-2.525941860142215563e-03
-3.605055624814778497e-05
-1.272796579327173210e-02
-1.408707855931544753e-02
-4.958191307117676590e-03
-4.996979664987179388e-03
-4.765408950029867766e-03
-4.144878832204104517e-03
-4.482694325647792327e-03
6.976008996124377116e-03
3.045922264317771008e-02
-9.339343302950112169e-02
-5.930366625150310274e-03
-8.589619337539169952e-02
3.430755472278477353e-02
3.603680875507053738e-02
3.626936400592254556e-02
-8.274060884420477574e-03
8.688032643068589744e-02
-8.288026764641533151e-02
-1.801136850437065270e-02
-2.379632697004356590e-02
-1.235165445363381985e-02
-6.918326243121102059e-02
-8.721429415253011824e-03
8.963449806215906257e-02
1.253098113587685913e-01
1.368753953419081515e-02
-9.031513513874618593e-02
-7.099947283057836400e-02
8.126027803447982700e-03
-5.188052463639762635e-02
-1.402430372227366114e-02
5.229141035775380225e-02
1.531144586326029233e-01
-1.412680785158881569e-01
-6.390058842425663799e-02
-8.008082782502546834e-03
-2.649695917765973810e-02
1.063254802490597867e-01
8.890849215232815572e-02
1.048701385432509146e-02
3.395272264459398698e-02
1.205228955469024033e-01
9.492050264248550265e-03
4.145735705813193700e-02
-6.192001529997565035e-02
-5.355991905199394831e-02
-6.024067258823900123e-02
-1.530753348310365941e-02
1.955583755402941215e-02
3.955382582007897080e-02
6.033102882795831484e-02
4.877469734965246551e-02
-1.774453888055423437e-02
5.005692905977506685e-02
-3.778048734071429160e-02
-5.204958243678468877e-02
-9.114187239941159979e-02
9.043102173896998275e-02
2.211713071283201437e-02
1.093251027667822145e-02
-5.324055055921183416e-02
-5.662729724107150309e-02
2.205292886140981096e-02
-1.439467131361550373e-03
-3.422627665824511112e-02
-1.085491703681839559e-01
5.890732572937022044e-02
5.075145901091029227e-02
4.358624348111027162e-03
-1.862968627024807339e-02
7.772884861736145852e-03
2.041036118325375084e-02
-1.502179849494951827e-02
6.656051925203700093e-02
-1.858691576292412564e-02
-3.286531394490696534e-02
6.031271485517403913e-02
-2.523372350631141250e-02
-7.715696629600539425e-02
2.681198593784391015e-02
1.576994650930415762e-04
-7.108313481432709802e-02
2.989018610932948558e-02
7.610188919547648811e-02
-1.817357419378641537e-02
-3.983870572840019636e-02
6.656149552873791286e-02
1.600205285015247544e-02
-5.946020894718254124e-02
6.550006203784473381e-03
2.983296195868205894e-02
-3.100417563484750023e-03
4.039732729085331042e-02
-3.368410647604590680e-03
2.614109084305208178e-02
-3.773589075453312458e-02
-5.871666733074946271e-02
2.215472629454698361e-02
4.524957873385567625e-02
-1.079886542875340728e-02
4.691812890133314345e-02
2.437909843170714495e-03
-8.401107646709876295e-03
1.936444756233840795e-03
-9.949681545367702884e-02
-7.699281472350686870e-03
3.552964033466508853e-02
5.731005772274025932e-03
-5.276378982269354367e-03
2.404106947017271498e-03
-6.951589843689265358e-03
-1.488176295796791830e-02
-8.855739797679175809e-03
0.000000000000000000e+00
0.000000000000000000e+00
0.000000000000000000e+00
0.000000000000000000e+00
0.000000000000000000e+00
0.000000000000000000e+00
0.000000000000000000e+00
0.000000000000000000e+00
4.447036828578922879e-02
3.494563313507944441e-03
-1.019585132898768488e-02
5.486118365850740225e-02
-1.946018557253533302e-02
-3.387446330568770481e-02
-9.879645788347110949e-03
-2.941596926224676611e-02
-3.613442658998451684e-02
-7.827191714653065902e-02
-5.039773539797723356e-02
-4.871362818649595250e-02
6.901319333819989910e-02
5.207820262742205580e-02
4.818431920069964070e-02
4.424199215466657897e-02
2.901491724493657220e-02
4.146631398795400103e-02
8.658114259311593119e-02
1.476151437228248771e-02
-5.694752649614227835e-02
3.354619844506186860e-02
-7.500427429187674078e-02
-7.341828585533197171e-02
5.525474244196526552e-02
5.301400629494219113e-02
-1.108865559272115102e-02
2.705912602900975225e-02
-6.329787718796693607e-02
-5.768914125018461542e-02
5.579210828993856662e-04
-3.810121817943821695e-03
-4.207051443612604136e-02
5.716403707061705475e-02
6.192155179233877274e-03
-1.056057765044762786e-02
4.949426734427383318e-03
2.827627123561123057e-02
1.351721525644964880e-02
-5.746801338976534335e-02
1.019476112040457357e-02
2.776454895183991939e-02
-3.019824369277799084e-02
-9.572277048884719752e-03
-2.073715064849385864e-02
1.606027168111116496e-02
5.044075494711509206e-02
-4.395266531031419982e-02
1.077912408543669869e-02
1.086322069433386245e-01
-3.718122739487124406e-02
-1.909393589322488927e-02
-2.162020514992641501e-02
2.681460192500363399e-03
-2.047376553813130481e-02
-2.372365724512187982e-02
-2.467370334853447034e-02
-1.733355079793981457e-02
1.694629866637941198e-02
-3.779426682915993513e-03
2.267610030274849406e-02
6.418407016191293724e-02
1.073346392039431670e-02
-6.875325222204486941e-02
-3.428185656330981490e-02
-4.536293248972814163e-02
-3.039942669160988417e-02
4.768951680657335622e-03
2.747432956025149670e-02
3.501350834107325172e-02
-5.414632659377417202e-03
4.820205882204317560e-02
9.412262404319244116e-03
-3.075094647582018829e-03
-2.522992970846193745e-03
-1.520065685562813247e-03
-8.801973923155532965e-04
-7.260300120489048556e-04
-3.088449843978178849e-04
-3.790367115659510396e-04
-2.493158160801832446e-02
-3.517258367903932509e-02
-1.856298636466066632e-03
4.986863970703194621e-02
3.980045556400489681e-02
-1.332449886733973708e-02
-1.410785617974943907e-03
-1.297334686219845518e-02
-1.436593439493818146e-02
-1.204843864860311378e-02
-4.920575147956699619e-02
3.808019323510877102e-02
2.897284500576684935e-02
-4.211264554040741737e-02
-1.588368085945125090e-04
5.083856863123457914e-02
-4.731688654722859128e-02
-6.803021544762224981e-02
-1.802400579256163357e-02
2.306167162305982916e-03
-2.967989569481927978e-02
9.913962978449110397e-02
-3.229814837855804390e-03
6.483502137329051618e-02
7.136139812809653461e-03
1.569457025394751723e-02
1.297688159180357750e-02
2.396859000282666394e-02
-7.785236858597981841e-03
-1.125388056173610291e-02
-1.472137872732951283e-02
-2.601568551372380675e-02
-5.126273850398444139e-03
-1.645770693248165342e-02
5.681758176384808963e-03
-3.995944855697174808e-02
4.801151063539919883e-02
-2.844253353640639401e-02
3.481775024176191058e-02
1.474943822712323875e-03
2.177058814967144929e-02
-6.449482570973981421e-02
-3.540862078102433464e-03
3.060189171199406005e-02
4.097785239128910045e-02
-6.615731398720373253e-03
-6.016153154322674557e-02
4.146261847683484214e-02
8.820399212957366619e-02
-6.855495908819224382e-03
-1.122447292288127930e-02
-2.293158142939801664e-02
-6.353402396043156784e-03
-2.091143483949431045e-02
2.597062856949161613e-02
-4.589823320242918808e-02
-7.687506165891705087e-03
4.448385177473531543e-03
7.479962688691677193e-03
2.411767791642074801e-03
-5.062845241660976665e-03
-4.007032710301278514e-03
7.779777761178333778e-03
-5.362509301131655748e-03
-1.234722976571890792e-02
6.556826432834853870e-03
-8.366235147854301363e-03
8.733676953860665046e-03
2.393907048475845539e-02
-5.890968864583821102e-03
-4.550517691244953221e-03
-8.074622402051999381e-03
1.360626353262172966e-03
-4.865830913755858221e-04
1.214455814197187671e-04
-7.459740132392897287e-03
8.025284226708796417e-03
-9.814325609519808369e-03
3.396028424771570502e-03
4.857264247126026266e-03
-4.737112358888923708e-02
-3.395495355266125309e-02
5.172932193948610868e-02
2.492903944650659218e-03
1.950180919512395708e-02
-6.218568550554735321e-03
-2.051164885277765096e-02
3.433225946562218356e-02
4.396726919625155647e-03
5.091851171018525746e-02
4.199637914248508658e-02
2.006786644071317793e-02
1.129038290831922003e-02
1.681933325589387435e-02
-4.480654655038315143e-02
-1.006826538268385113e-01
1.530779292573476724e-01
3.904546010538564871e-02
-4.867499642731444587e-02
-2.103456383587531259e-02
-3.850371507968398943e-02
-1.485723964151591803e-02
-3.284370393308552044e-02
-3.620917044525814865e-02
4.395986264519573250e-02
4.941084524226494606e-02
-9.852785886959526673e-02
-2.275139124278530503e-02
-1.103382247687226952e-02
-7.053097447693215324e-03
2.258929153836726836e-02
2.340617061111817040e-02
8.720332399031366366e-02
-1.376050368655570150e-02
-2.554523585862898336e-02
-6.329433908465371961e-02
3.930475308291013492e-02
-5.044086131902529579e-02
1.211933924771228105e-02
1.441352362792764491e-02
-1.146622446570226411e-01
-6.174555074740489813e-02
-1.071912376141107535e-02
-1.573453190813276989e-02
5.185588334513009656e-02
-1.601361474666615839e-02
7.675262431995721890e-02
9.026655815555030549e-02
4.001192654636624713e-02
2.505552980483397377e-02
-8.285741705199552512e-03
-5.870436823198248860e-03
1.924843495629552717e-02
6.172616457269419071e-03
-2.354125412253229438e-02
-5.279107511383514251e-02
-7.386023217918100126e-02
-4.966969240193945534e-02
-1.687180754111022168e-02
6.580951196731947561e-02
7.057172276086080831e-02
-4.736786950879068314e-02
-2.197973003724758637e-02
7.336809694008884775e-02
-1.089554794167818183e-02
8.903591301832861071e-02
-4.998392193338934558e-02
6.831927670778013828e-02
-7.520723552731284345e-02
-2.931683521392022471e-02
1.518158620705218481e-02
-7.133235316860350381e-03
6.489699681694678646e-02
3.448781304178068913e-02
7.016645685074509448e-03
-1.840238979377995486e-03
-2.636089106085741374e-02
5.702418267552070152e-02
-7.533887253144477825e-02
-5.988563564764242536e-02
2.549006502235984586e-02
4.695022064415970559e-02
1.460065302232142759e-01
-2.029292091451414745e-02
-7.588718007991089587e-02
-1.687638041233889205e-02
-3.666695919624047423e-02
-6.872337528672936569e-02
1.660905092789878232e-02
2.322076313672771959e-03
2.165192926876321686e-02
1.075056841099569262e-02
1.555489932153670402e-02
-2.700649872694274242e-02
1.181271078690064895e-03
-4.106329659461447484e-02
-4.845767416593400184e-02
-1.283529879917862659e-01
5.518036160352590702e-02
-3.914041407620065527e-02
6.607341977959711732e-02
3.637353294066943826e-02
-3.976570581608918596e-03
6.230033249173751869e-02
-1.012118092089222101e-03
-5.637919753902403963e-03
5.085563493585757572e-02
-1.383250496563490084e-02
-9.890943527623628079e-03
-6.699884295413733974e-03
-5.520958434993176317e-03
-8.261305866200529743e-03
8.207567422287649975e-03
8.423517325475103623e-03
-3.445704511716538888e-03
-2.677973778328391914e-03
-2.675244189039671736e-03
-2.017502891613324415e-03
-1.680839920338332615e-03
-4.133819456726502486e-03
-2.664556065857064115e-02
-4.045213270981315445e-02
4.372200312259436061e-02
1.813872612368428242e-02
6.174790720199193131e-03
4.858804689235450168e-04
2.134392479630061509e-03
-3.558099546647700527e-03
7.122762642618080120e-02
8.643290973780981545e-02
-4.779881897786516370e-02
8.594720261606163952e-03
-3.463860786490823018e-02
-1.456445960305578942e-02
6.017203040879901509e-03
-7.527057302064751876e-02
6.819950085075499047e-02
3.751838504179063477e-02
2.844050293087493214e-02
-3.822730654816994256e-02
-2.515443397249278110e-02
-9.220827264598304221e-03
-2.954876463489845492e-02
-3.200705640326109019e-02
9.746704085283194874e-02
4.363383346057678192e-02
1.932686359997724812e-02
1.077023827595705377e-02
2.555940976397847592e-02
-1.453804895264791154e-02
-6.516726282838782025e-02
-1.170520741722857888e-01
-9.301605363238023977e-03
-3.273796793743118799e-02
-2.337125460006882205e-02
-3.086130907604394888e-02
-1.925563446025971986e-02
1.782063672144624210e-03
5.287282415619566460e-03
1.084584253492775069e-01
-1.732007386986690253e-02
-2.648892412367138960e-02
6.695042551571325079e-03
6.156474596560041618e-02
2.764675205283498392e-03
-1.097970152958921940e-02
3.164170645612566883e-03
-1.939993484494035095e-02
2.607616123942361683e-02
-8.349277669300307625e-02
-4.188763710674975327e-02
6.400080646426067887e-03
-3.271875886068990880e-02
1.443812680196874740e-02
4.607878609908603804e-03
1.065769253627156937e-01
-5.938199347418272878e-03
1.508295170875406307e-02
-4.215931828227274976e-03
-2.376301529934498995e-03
-9.960843054371334299e-04
-6.405310392369930597e-04
-3.943757614324844242e-04
-5.215278970674122518e-04
-9.124894434883137895e-03
6.010612728871120303e-02
-4.207874242314500746e-02
1.555042841228686419e-02
4.255324402400806338e-02
-2.038886871614130347e-02
-1.414961224957535582e-02
-3.246768190126132769e-02
6.019997235277397413e-02
-1.068636587483346931e-02
2.094806094665601498e-02
-2.009229282435218145e-02
-2.611208235654311968e-02
3.741506037722911945e-03
-9.454274546988040290e-03
-1.854452373443607124e-02
-1.020801964722500149e-02
-2.627245329425518042e-02
-1.424123863494898036e-02
5.345542905149885948e-02
6.014357439498167583e-03
-8.118025061043207882e-03
1.680932984504420608e-02
-1.743937969856884651e-02
-5.539707701612966995e-02
5.441290449504849330e-02
5.900120112864381400e-02
1.386813601249391008e-02
-3.908447387021327752e-04
-1.752463453286248404e-02
1.077004578618406556e-03
-5.504668992711032882e-02
1.350797525878961736e-01
-4.333910863143634190e-02
-5.438371017815527009e-02
-1.954352721964353751e-02
1.149404924056900840e-02
8.994004293452644017e-03
-6.443666980857960629e-03
-3.185779311182474621e-02
5.193666479058746399e-02
6.967198179175100592e-02
-2.030224790570003823e-02
4.273947555753131178e-02
-1.460105775683802516e-02
-2.253413990444298048e-02
-2.891009322975737414e-02
-7.800058334313118846e-02
1.253662577677628343e-01
5.816910456216140696e-02
8.637214579393778444e-03
-4.304706766027355247e-02
-5.801355385165696960e-02
-1.735092332294660769e-02
-3.216567864871762352e-03
-7.054446420956907160e-02
-3.296038291293321154e-02
-3.137045150894503254e-02
9.134739449202376044e-03
1.233803534062772114e-02
7.253343893294066959e-03
8.518976716327453236e-03
-1.828619460449416303e-03
2.891435848287599725e-02
-5.105332051238060942e-02
-8.716745710623456656e-02
-9.139097266225304494e-03
-2.427759698753580164e-02
-2.003848500833504617e-02
3.303055033225169024e-02
3.151917744670736793e-02
1.271262291017523638e-01
0.000000000000000000e+00
0.000000000000000000e+00
0.000000000000000000e+00
0.000000000000000000e+00
0.000000000000000000e+00
0.000000000000000000e+00
0.000000000000000000e+00
0.000000000000000000e+00
1.001033032982354652e-02
1.169412008000718546e-02
-1.224577041933671770e-02
-2.824465594888594250e-02
4.262324863737536329e-02
-2.599356831400774157e-02
-8.114271186850374740e-03
1.027056682187464133e-02
-4.232331945268199419e-03
-4.561401272328334013e-03
-4.576674390075984727e-03
-4.022325985929855324e-03
-4.144327273082920593e-03
-2.684977315563453690e-03
8.165140502317227295e-03
1.605689767993152828e-02
3.622088383838194953e-02
1.705355502274259055e-02
5.709249330919714815e-03
1.996368087041403699e-02
4.626653113674539242e-02
1.124206133689442319e-02
-4.502329537770463630e-02
-9.143266615839346079e-02
5.529579228635219529e-02
4.066017616122865296e-03
2.959961533040152831e-02
-1.442492698738119528e-02
-4.394183567574864308e-02
-3.228594907201640107e-02
-4.022715050448284757e-02
4.191843700675251805e-02
4.741517943743871893e-03
8.887777353563589347e-03
-4.228225673678403379e-02
3.269843100505992473e-02
-1.728958344484654575e-02
1.237508406303953860e-02
-4.229395334320242006e-02
4.316298315942613401e-02
-2.691299866683938887e-03
-9.035476442279874454e-02
-8.706252345896234313e-02
1.803553774088403200e-02
5.490480082862851836e-03
-3.705370960785363266e-02
1.042522752245770845e-01
8.938400430797456553e-02
-5.910693682956351391e-02
2.078830599225242257e-02
7.995593709887414968e-02
1.830051027478093876e-03
2.436317546488381367e-03
2.534257727740251223e-02
-1.860617757429705588e-02
-5.264007453863481234e-02
-3.717878096160415896e-02
-1.073881008114861528e-02
8.491386678175899191e-03
-4.031282096591698796e-03
-2.156072272631785747e-02
1.337387417615303227e-02
3.444007949915282168e-02
1.720425551218052879e-02
1.652118539125025168e-02
1.962459134234098915e-02
-4.399124492089495631e-02
-9.837536362756820266e-03
3.985992471856722452e-02
7.181406223753399910e-03
-7.189879890871267443e-02
4.254047251645268202e-02
-3.550643188666121469e-02
4.165302944101536599e-03
-5.257805232387623845e-02
3.268971831812639978e-02
4.192328761534060144e-02
4.190396261506001280e-02
-5.531417477297809887e-02
2.271638749088695716e-02
2.452383451954724680e-02
-5.588713300262316414e-02
9.958514744040283806e-02
-4.948905324741045136e-02
1.176324805045227996e-02
-1.488080144766787578e-02
6.598674028870708808e-02
-8.160198260140803794e-02
-4.985247767509096845e-02
3.636989803159906831e-02
2.689551936852487349e-02
5.953494896923709062e-03
-1.234361681276553019e-02
1.250963237564068492e-02
-1.508807743767235331e-03
-1.802364244106452462e-02
2.911443008533857665e-02
4.573596989242470490e-02
-2.596508404847367845e-03
-1.937169823644948122e-02
-1.796499544570265977e-02
3.236596217918093904e-02
-1.736262238788631798e-02
-4.992053768205845926e-02
4.443177630467902428e-02
-3.812548467229831452e-03
-2.872755145697714757e-02
-2.380359341163927915e-04
-2.443268899685677870e-02
-4.291584970237863339e-02
3.318970018040624109e-02
2.250519807247363877e-02
-4.456020803225910210e-02
-1.243688131263357144e-01
-4.289919248132403190e-02
-3.082140282673167392e-02
-3.822108682069325775e-03
1.027928387383503922e-01
2.782970109941905468e-02
1.158491853109504255e-01
-3.810143977728688153e-02
1.212151066760983747e-01
1.990594545284331621e-02
1.262601357831274855e-02
8.618746606539761171e-03
-5.049653167941443865e-02
-7.241732956382461797e-03
-6.652610790071031288e-02
8.734973590782126041e-02
-2.864252110031454291e-03
1.340977912165614711e-02
-1.396809927197052801e-03
-3.311917244292925111e-02
-2.125978157555400913e-02
2.356324993248660755e-03
-4.447582396701427188e-02
-1.385542553592957957e-02
9.174566598892519229e-03
-1.790183044625950209e-02
-2.595181683207531051e-02
-2.925433539257572477e-02
-5.644357224505326242e-04
-1.264076377959537714e-02
9.099404110999353978e-02
4.062092524794114201e-02
2.038224148907651426e-02
-1.668203589750685487e-02
1.952496012114637511e-02
-3.457661239599509745e-02
-3.157275562789542411e-02
-4.234795247117945083e-02
4.465122953441279241e-02
1.287013043088691862e-02
-8.147085448892592285e-02
-7.062891131977110104e-02
-2.717910077189879606e-02
1.812834623017648902e-02
7.234532590998690726e-02
4.411649308246692880e-02
3.181857092707853635e-02
-3.959972954368653347e-02
8.532593184199689651e-02
5.372715639615757710e-02
-3.875708201320917506e-02
-6.067429253113994225e-03
-4.065608103077660018e-02
-1.881256849452990834e-02
4.839802097161839158e-03
-3.582371192059916748e-02
1.376924265220713928e-01
7.438170304593431231e-03
-2.177783312047979619e-02
5.514184220499824228e-03
-2.742721224940311564e-02
-6.049370572312047500e-02
-5.122318033561866664e-03
-9.360889620754594964e-02
-3.477543283734099017e-02
8.088828042479675323e-03
3.264304740329891652e-02
2.058913141409978928e-02
1.693488427914607505e-02
5.063445947223836618e-02
-5.060215663759391486e-04
5.933690610574225005e-03
-8.217506292739365503e-02
4.668416747848392473e-03
-4.968663414192502244e-03
-3.440226852875846557e-03
-5.127554564395083933e-03
3.685172221737433723e-02
4.825767818306025275e-02
5.192618531501437540e-02
1.065877540093741716e-04
2.133634516675348564e-02
1.208207590314813902e-02
-1.979554622295688626e-02
2.361878407411227218e-02
-5.307841379722182812e-02
-3.619601819285898914e-02
-4.627400205174907709e-03
5.487327334439765121e-03
1.374366219723615994e-02
3.108640566332474334e-02
-4.092049166124533781e-03
-2.365776848075334601e-02
1.506770361925662341e-02
-3.300788096220463180e-02
1.050133554635992311e-02
-3.216163756166581095e-02
8.397892567730717156e-03
-2.494655039291340803e-02
2.690429669098640467e-02
-4.185393611071545721e-03
-2.094878597528825048e-02
3.643884273586194683e-02
3.849896100136849381e-02
4.894914014603224395e-02
9.367709821358254085e-03
-2.434743419884994806e-02
-3.398733037873728768e-02
-2.830315237569003967e-02
-1.902756322046537246e-02
8.849669204983659498e-03
1.002385038590874744e-01
7.177520184741078071e-03
-1.890765068382306915e-02
-8.079466240308348646e-02
-1.751447727611073896e-02
-1.231461188336233602e-02
2.159062280414653524e-03
1.995631592213637645e-02
-8.200846288019109087e-02
-1.569111714107931932e-02
-2.711540753355355660e-02
-1.094522620279437392e-02
9.539766478692074348e-04
8.274950396552560594e-02
1.605052213929350491e-02
3.600621100492979593e-02
-3.560636894379207162e-02
-3.308381362853237903e-03
1.394750069059148001e-01
1.787168272152889550e-02
-7.025430112656705188e-03
-2.815535749846687086e-02
-2.626672692100987319e-02
-5.698442478866487526e-02
-8.828882580569078625e-03
-2.404060474327074370e-02
-1.223139120365630828e-02
3.963074857498637832e-02
1.588735221239600615e-03
2.242215462831098280e-02
1.089927169486470081e-02
-2.944003159190555774e-02
6.030628819828830374e-03
-9.206864183474598728e-03
-6.753034023992556846e-03
6.994908710054558972e-04
4.009380345446742280e-03
1.089056949262437977e-02
-3.653359622737545678e-03
-2.016811698700687449e-03
-1.903019018112317440e-02
6.639625773900695305e-02
-2.186019037196895026e-02
1.166096470916742553e-02
-1.207700471433208883e-02
9.265771479372216304e-03
-4.480568326803208504e-03
-2.987504033331914860e-02
-2.846670951274979725e-02
1.910105791550274767e-02
1.796576748148517172e-02
-3.308869059775217114e-02
1.979031014282273127e-02
-2.895119591632673117e-04
-4.555393676921090824e-03
9.543170206775633199e-03
6.568717359720499527e-02
2.873586624542247628e-02
-3.210380173241255547e-02
-3.993531653795956426e-02
-5.556213448427231279e-04
-3.591137344562300021e-03
-1.810645916006425188e-02
-1.307037227860924778e-04
8.134054168566616505e-02
-1.021141728865206967e-02
1.073237321029904545e-01
1.955591312989016228e-02
-3.071284799623952982e-02
-3.299540772370784109e-02
-3.683953657430600465e-02
-9.746097733564124121e-02
-6.791764997847513216e-04
6.672703242860021644e-02
-2.693615745392999999e-02
-3.647049335412974602e-02
-4.820966762875905642e-02
2.854756569922433426e-03
2.458599863194100947e-03
4.025510607488681086e-02
-8.052659802669950850e-02
3.671678074165131422e-02
8.232618467258544237e-02
1.776937776355057286e-02
2.194048449213414215e-02
-1.696728612875130979e-02
-1.576291892257097871e-02
-4.549602459189969889e-02
-9.847400815482144909e-02
-9.833872116650803352e-02
-9.411493833320380697e-02
-5.275104338560234613e-02
-3.236941375106956731e-02
3.171622641175093210e-02
2.973288447095437728e-02
3.145990139084998138e-01
-4.095505077889408097e-02
7.779387468392225113e-02
9.121337026217088417e-02
7.349073363177363420e-03
-6.096804886888230329e-03
-6.251038987896258281e-02
1.765454995286120862e-02
-8.444862271738691473e-02
5.806066007314536481e-02
3.170308661024283381e-02
-2.798382248645178705e-02
3.103419898925587062e-02
1.053106397487642981e-02
2.066354933176451150e-02
3.020405087456995430e-02
-1.542127873674032923e-01
-1.119281090337932022e-02
1.065699590216869982e-02
2.123394396377541529e-02
7.766161924443040938e-03
5.218553494066149184e-02
-1.138441060443567488e-03
-2.823894551275460754e-02
-5.127243925447103057e-02
1.381723256863198225e-02
7.967932407762218575e-03
-1.000164369827016841e-02
-1.641909361795489131e-02
6.739811680352624131e-03
1.872768737707586773e-03
1.712316863505681727e-02
-2.110017671328618533e-02
1.750561677208622383e-03
-3.068022876780033062e-02
3.972698584304905876e-03
1.060051811615173555e-02
4.111869969815045572e-02
3.533020285801549525e-03
-2.303951500295726117e-03
-2.799131809352113295e-02
2.139216286411334961e-02
4.884193297632472702e-02
8.388390939104585498e-02
5.808474894958781665e-02
-9.663469314908312846e-02
-4.251865792329857612e-03
-7.566384310125874590e-02
-3.565235213839992867e-02
-6.542858957235719863e-03
-6.486234320184549457e-03
5.569608449415667205e-03
6.819409407796123493e-03
-3.005336607360180757e-03
-2.170859957415825249e-03
-1.622750000224818705e-03
7.439021985209301815e-03
-1.340736489086045459e-02
2.817168361394613643e-02
8.184709406870237236e-03
3.136023826986431007e-02
3.360077859552000482e-04
-1.641098354758109903e-02
-4.859890531431781957e-02
1.036461467612354373e-02
-7.986341577577218964e-02
3.976537023805343934e-02
7.078329781785636099e-02
-2.401399723231198782e-02
3.355945535066823249e-02
-4.587465677629834482e-02
-8.422238544678536942e-03
1.406618492248309406e-02
-6.795789739636869109e-02
-9.193081845107782535e-02
-7.898193364958774887e-02
-3.678738314828357975e-02
-7.983438079923049768e-03
2.486156614133826909e-02
2.548212133326680992e-02
2.332977832506358540e-01
7.115751526620155143e-02
-2.260641546651105671e-02
-6.108962986013390106e-02
7.736415511370113574e-02
-1.198535152351874918e-02
-2.312627376209494545e-02
-6.570509322029219682e-03
-2.314349044561497468e-02
-1.844664570313703927e-02
3.748620231844965872e-02
2.358090705694817352e-02
-1.982167830090706198e-02
1.761670300541266082e-02
-1.173317991984026108e-02
-8.596874663200743463e-03
-2.008543379372544277e-02
-1.833868286720863675e-02
2.145719653391735607e-02
1.880639806791938734e-02
1.067739511410349153e-02
-5.201223019763576670e-03
-1.211476419862703158e-02
2.255911214636151501e-03
-1.754223084497711499e-02
6.256692474560227035e-02
3.623757393674042343e-02
4.499463143070420168e-02
-6.781979393645395926e-02
-6.038283360945623929e-02
3.843167970498763408e-02
-1.612199644264934381e-02
-3.790618582947511556e-02
-1.799435993608600876e-02
6.318549536229475794e-02
7.719986790245611649e-04
-2.496999829972676790e-02
4.115750436169257447e-03
-2.142666673294827545e-02
7.191782557169812753e-03
-1.087400206589739932e-02
3.885282570463994070e-03
-1.136043932747786769e-02
4.009216769708584538e-03
2.214655898468608983e-02
-7.404364369225372583e-03
-5.795507512387687923e-03
-4.069053512006700485e-03
-1.411693603761057531e-03
-3.110635670580252574e-02
2.904669327353161939e-02
-3.296009705916585521e-03
-5.455673181931281618e-02
-6.976437630576391713e-04
-1.504334358454314027e-02
1.078529189899662781e-02
6.486810040610453687e-02
1.287228329834290697e-01
5.328177460870375109e-02
5.538993610342818341e-02
-3.911313958773789123e-02
-4.578577860294548441e-02
-3.046769716327531186e-02
-3.079335554112682533e-02
-9.123457280047539419e-02
-3.236379836869675980e-02
6.791947686655105954e-02
-2.157976836775551618e-02
-1.423077034435516960e-02
-1.716051556001057729e-02
4.210390175115585713e-03
-2.610245314186034407e-02
3.930743874101163410e-02
-7.016452973020324835e-02
-2.405638243901246404e-04
2.364569398024558497e-02
-5.792526428658054463e-03
-3.967430888247981224e-04
-1.442393870886306100e-02
1.357683123054134570e-02
5.379577657015239406e-02
-6.598772586867396317e-02
-7.434387819361328031e-02
-2.654177771468304095e-02
1.272605064742096947e-01
2.163499351662963657e-02
-6.148309207260666681e-02
2.027889791866172367e-02
5.918207594007576788e-02
-7.261321765272578388e-02
-2.658846256769674746e-02
3.850079642277585978e-02
8.584174204035575906e-02
2.961024002626384127e-02
-2.394387639337538414e-04
2.038516703468149643e-02
-7.489682653972060122e-02
1.077901270506737841e-01
-1.664220472625873790e-02
-1.706066269631885401e-02
-1.060568836639134843e-01
-3.348113319820540494e-03
9.386869525177070610e-04
-8.948581333175990426e-04
3.527390853643756069e-02
-9.223049721935198952e-02
-6.546637633739908757e-02
-2.787138654997091750e-02
-7.642670844211387274e-03
2.996987359051600866e-02
5.423981913945988276e-02
4.913550918352043578e-02
5.986572903743697660e-02
1.176430415880551916e-01
-1.506539628367315614e-02
9.634564803135552830e-03
5.414360952197427163e-02
-4.977205020547285919e-02
1.684362756200518882e-02
-6.625675135982296744e-04
-1.327648294724258771e-01
-1.462965994685584865e-03
-1.405949998353727901e-02
3.276183782448546713e-03
1.315352286654617895e-03
1.732760655325902774e-02
-5.541545676909587909e-02
2.748328500819260597e-02
2.153549511676402031e-02
2.545948219799507722e-03
8.587609859963908632e-02
-7.671488688967866010e-03
-3.557444473460342343e-02
3.944799087055151504e-02
-2.765619621951505985e-02
-4.123765141535809531e-02
-1.573025663154570264e-02
-4.896586971974795088e-02
-3.930840541749995240e-03
6.988283107876594458e-02
1.362592290790810845e-02
4.793978261568853511e-02
-1.942425102506751752e-02
2.133056765606770183e-02
-8.045814297186490438e-02
-4.720015688929901643e-02
9.422816364864348981e-02
8.951076166993064687e-02
-5.458435042886943672e-02
-2.972131947342910446e-02
1.631971316822482601e-02
-9.060488549214444978e-03
-5.949232314598701388e-02
1.053956832143417288e-01
-4.125078729468345529e-02
-3.963799472992939749e-02
3.374055487317893093e-02
-8.544795736272713799e-03
-1.866153180683394848e-03
-4.583392588252386299e-04
-4.737816788712653771e-02
-4.113901995144517675e-03
-7.879390406702846752e-03
2.790702608817677201e-03
1.891868242125084587e-02
1.297167354613304544e-03
-6.636218796185360848e-03
6.215847946832494392e-03
-1.059288913348162622e-02
8.493378119336982002e-02
4.745287328339787419e-02
1.876954049051263521e-02
-3.185302241323909045e-02
1.828743563459629684e-02
-3.116755135579086719e-02
-3.531068335881186460e-02
-7.111237347403485953e-02
1.013897343945907997e-01
5.552446842199364879e-02
-1.200758041946076334e-02
8.962358367398346251e-03
1.081435956230852521e-02
-2.711311432191680637e-02
-4.033558873679200102e-02
-9.723463726812167640e-02
3.288580696076261883e-02
3.865449158056163959e-02
1.156586325563273426e-01
4.994963925858865103e-03
6.462947561534980456e-02
-9.071036526711404729e-04
-4.631661461520084067e-02
-2.095996523709880710e-01
1.491403981762343123e-01
6.488740252354920079e-02
-2.847872125201761709e-02
2.691928921616145928e-02
-1.738577770189973781e-02
-3.488307635192933187e-02
-1.261936866510083438e-02
-1.475801459449975761e-01
-8.570631277040985374e-02
-6.932214132683872654e-02
-7.971619775669459840e-02
-4.990670886094712710e-02
-5.049917308151781470e-02
-3.631084822147592067e-02
1.604046814290605721e-02
3.554209138749777064e-01
-8.908801608899688529e-02
-8.338625850410714968e-02
-8.151623531071842954e-02
-6.977351643661780511e-02
-4.407738307180684295e-02
-4.663047785406096955e-03
1.511289271638432963e-01
2.213755300338098309e-01
-7.008705967931615211e-02
-4.529293434865164225e-02
3.319829167334965164e-02
3.427038235808124028e-02
-5.854264387245681350e-03
7.853983161923443201e-02
-2.382493663038933243e-02
-9.493106050624854422e-04
6.670975045047108920e-02
3.991851559673043059e-02
1.161972199636881475e-01
-4.321249182131931682e-02
-1.114467841417153549e-02
-2.437701379771507401e-02
1.731078628609776472e-03
-1.458223806062938499e-01
5.295120476001889676e-02
6.163816108764235552e-02
-3.416815099307582686e-03
-3.150290514820226068e-02
1.067194530933763229e-02
2.429285750230467805e-02
-7.681143702853263089e-03
-1.069533047089405720e-01
-4.996640075305313483e-02
-2.526175998200919440e-02
1.708189037823923742e-02
4.439541283379348779e-02
1.483272365344861371e-02
-3.051403952241770953e-02
1.976873455519410211e-02
9.663438836804582113e-03
-8.386664443215421927e-02
-1.178872399181428166e-01
-5.469032032155150824e-02
2.459163674738401029e-01
1.334106226780378546e-01
-5.219864245826547761e-02
-6.214716887461663175e-02
-8.536974147147437589e-03
9.195620903947572533e-02
6.261303947170690498e-02
4.829589553124135487e-02
-1.591393326501025149e-02
-6.128735647180422880e-02
-6.511305015833762644e-02
2.726759150809588556e-02
-8.781839565536775360e-02
9.338129872856617414e-03
-3.387218394972805330e-02
-2.711747472784848539e-02
-9.728839877785981898e-04
1.988695539566266018e-02
5.916733634917469703e-02
-3.285233099084826358e-02
6.422452038509413041e-03
1.686142907424148171e-02
4.271390869103433574e-02
-1.663953704328575978e-02
3.825657070334728162e-03
-1.614899249409806198e-02
1.632277826313112759e-02
-1.265690088982292585e-02
-3.427834267153499065e-02
3.313823560882671933e-03
1.155306697183307307e-01
-6.174528427326956420e-02
1.035908210911762675e-02
-3.217700281773238496e-02
-2.341454674732545635e-02
-1.052651761348618979e-02
-1.340223936517356482e-03
-1.089750684818914933e-01
-1.270893543879509646e-01
-1.222598113863451741e-01
-1.300914621571186078e-02
-4.247149007763884564e-03
7.341578897215740585e-03
3.257133375088565319e-02
3.356676168315622655e-01
-3.852778854879385789e-02
-2.210755825981178257e-02
-8.347711224387360102e-03
-1.749434849355585575e-02
7.506446928074630119e-03
1.392815584034139782e-03
-9.132559991264254436e-04
7.849140001356651186e-02
-6.240052388663205191e-02
-6.820925066830528516e-02
-1.728564321531960574e-02
-8.679333487498676336e-02
2.896896675764460555e-02
4.999006553942637182e-02
6.564267260991493713e-02
9.008704773825798595e-02
-8.498380672265829633e-03
-5.875056244224795277e-02
8.300764518302371914e-03
2.374405284010712783e-02
-2.506851974912814238e-02
2.611849295057388706e-02
3.905980803407575752e-02
-4.905655479417183988e-03
-1.738736288660977340e-03
-3.990581487596538655e-03
-3.034221888754691943e-03
-1.907423182445023083e-02
2.760082810154093971e-02
2.168683397477568983e-02
-6.120380234624073559e-03
-1.532951035223008990e-02
-7.601653483797969624e-02
1.252980957841729782e-02
-8.599860971541226778e-03
1.487270418053846799e-01
-9.454974526677668162e-03
-4.153557891676345169e-03
-4.300970827431011695e-02
-2.002221488161698079e-02
9.852036451474047163e-02
-3.661166668661700041e-02
-9.257197811276945965e-02
-3.961489332692622739e-02
-3.607108686213428891e-03
4.196682743844397379e-02
2.581550121132031306e-02
6.102953648021314931e-03
-1.362614006897797381e-01
7.851323379538875658e-02
-7.388576409388804972e-03
-5.591023611253944682e-03
1.868332473960793508e-02
3.536281652024619165e-02
5.725240878755310375e-02
-4.057078313237336836e-02
7.624945662866275398e-02
-2.711569150899727915e-02
-4.198297407845476975e-02
-4.262469624335707419e-02
5.030920945119679577e-02
-2.122524799115630897e-02
-2.127458061191843733e-02
2.766452435402419821e-02
2.195735360633455369e-01
-7.728957389464106639e-03
4.777944630840118279e-02
-8.277835204066387453e-02
-4.146623966543185047e-02
-3.826948475631862523e-02
-1.052135912722027278e-01
8.103642752334137139e-03
-1.362743293466498196e-01
-4.959673754675830715e-02
-6.934189347121703928e-02
-2.490127621236067415e-02
-5.118079340480789080e-02
-3.257538331470177101e-02
-2.845900675613117353e-02
3.923294200526263320e-01
-8.669975856205890119e-02
-7.765607805805434423e-03
5.721207133420803254e-02
3.345239202127373024e-02
-2.576595578336410113e-03
4.438594619354127579e-02
4.513488946092275578e-02
-8.314333706374492372e-02
-2.959652988458509170e-03
6.265744312703154517e-02
6.721079797241612253e-02
-1.708111586838274853e-02
1.914195780937164157e-03
-7.416270005557838718e-02
1.757283358355625491e-02
-5.515180155152143299e-02
1.004480906144996667e-02
-6.482648342478276350e-03
3.203122530173854732e-02
-3.758674324488382734e-02
1.958859418558041993e-02
-1.052253649974140177e-02
1.031287840980393139e-02
-1.738557887146935377e-02
-1.847805103371668797e-02
-2.556660017551747738e-02
-2.825986673436804361e-02
6.036482798774796960e-02
5.557503198500258861e-03
-6.794691789002780917e-04
1.475282445516553492e-02
-7.691168518911340075e-03
-1.281045088904169717e-02
2.453150422058350197e-02
3.953945538059630560e-02
-3.697002497021653622e-02
-1.899971281121907302e-02
5.795578649951344669e-02
2.339599538055248812e-02
-7.664255281076853832e-02
-8.542125550745603701e-02
-1.020371525316191436e-01
7.764997805874053471e-02
1.170367672237345065e-03
3.169755808413851628e-02
1.796688489878688760e-02
1.242182593498714245e-02
4.655179339018466339e-02
-1.575944420537414847e-01
-1.061754041060117559e-01
-7.042513305787886924e-02
-2.413334733802596430e-02
9.200691275711564421e-02
7.531801582741604051e-02
5.512675867221276949e-02
1.358766392989139427e-01
7.401936106152567918e-02
-3.690019004900328692e-02
-9.274862519659399229e-02
-5.881340937766851157e-02
-1.379394237308190219e-02
3.661102419137449160e-02
3.013796907970967692e-02
6.148781266373802568e-02
5.781182275945389443e-02
5.270739400089298476e-02
9.531218846501054998e-02
-1.562888984544684445e-02
-9.473293217402214972e-02
1.810132234144909077e-03
-7.724062088048563868e-02
-2.003909455954757876e-02
2.916536035327481000e-02
1.198636180240529175e-01
6.030102898707211112e-02
2.317401422487685991e-02
-6.609742700015964296e-04
-5.647242487655599469e-02
-7.455249463662286247e-02
-1.008181278060961000e-01
8.422080124862037220e-02
-1.294900893884087974e-02
8.797922930839295955e-03
-2.869953123946501414e-02
3.990712651112392900e-02
-4.671199872988123641e-02
3.094085248113922007e-02
-7.550616426353572164e-02
-6.166345244750252169e-02
-1.381535694620689343e-04
-3.381689649770011023e-03
7.916874536611888391e-02
-3.925242530907371852e-02
-5.925614815705783356e-02
4.009322034390737366e-02
4.442990342283981153e-02
-3.996400942657570704e-02
1.053146554023941944e-02
-2.898449093351720962e-02
1.074197009742249020e-02
-2.421324519302410841e-02
1.957790617222142371e-02
3.278243078429155660e-02
1.952797295894215246e-02
1.924564309626352054e-01
8.017352449244403989e-03
-3.041427804467313270e-02
-7.769569588990889175e-02
-3.153532156474943282e-02
-2.286876884936795903e-02
1.213777350080020440e-02
-5.009749256398043915e-02
-2.983977578002261141e-03
-1.152605066685249979e-02
-2.989187354384551139e-03
-2.534533413110940867e-02
1.036053758612738573e-02
-3.157268622401882691e-02
-2.890026668933828868e-02
9.295696505757851391e-02
-1.310155150998188744e-01
-5.097071535638160455e-02
1.397483603665991558e-02
5.612011019911966603e-02
4.056277514715788540e-02
-3.465706760473476894e-02
3.933946218653965737e-02
6.664611449145804722e-02
3.818709176513315762e-02
7.491025371177703618e-02
6.704717395556336612e-02
2.255458171109256740e-02
-7.157342618699684411e-02
5.037325885867481590e-02
-7.031132579836164853e-02
-1.111876080168820724e-01
1.523045559780085954e-02
-3.148885058625876254e-02
-5.046247216086979792e-02
-3.221305786919372027e-02
-2.517791434646229551e-02
1.059305655157654832e-02
-4.889454960077833749e-03
1.184082377734849978e-01
6.621879214127225632e-02
9.030768787996229507e-02
5.875209395164180531e-02
-4.814875564629427646e-02
-3.238779936977543433e-02
3.334780414146702580e-04
-2.263748340647773333e-02
-1.124380135917438378e-01
1.606465363250568212e-01
1.418868208181281107e-02
-7.167082987230915907e-03
8.586168235639296195e-03
-7.431621668723943641e-02
-3.370536493358038121e-02
-7.073998740269185626e-02
2.507265368233512100e-03
6.497982085734581303e-02
6.734645783088719084e-02
-1.463793804355171813e-01
-2.276360146866799120e-02
-3.306236061974305619e-03
-3.988408898078173864e-02
-7.251024402180256123e-03
8.725805266088818013e-02
-6.084529856474183568e-02
2.174283475717746217e-02
4.482458558390174652e-02
1.561927127468716592e-01
1.239348437901321640e-02
-5.932777774394081688e-02
-3.075725613762849212e-03
-1.119048155445185738e-01
9.897846053290756951e-02
6.826425412747505993e-03
-1.015261416344416870e-02
1.143639048255135245e-02
-3.629418076754585554e-02
-2.935514416305794530e-02
-1.319332736956290233e-02
-2.824600996459546154e-02
-5.049804775506840787e-02
4.203919253498985403e-02
5.201235323472010175e-02
2.646500093856722288e-02
4.853402261398619480e-03
-1.433580379977200149e-03
-5.686328620676612405e-02
-1.657503462786405826e-02
6.208901399470354715e-02
-1.201367389505301059e-01
-6.084859690191465192e-02
-4.877620392254532200e-02
2.345505980251888500e-02
1.030184263256506277e-01
5.697137708600636535e-02
-1.577233743388921708e-02
3.689123409163954509e-02
3.555837329497481270e-02
3.097005637059101896e-02
-8.032046794232436393e-02
2.968570351770741245e-02
-4.820552881078690038e-02
-2.382681400511147546e-02
1.924744348330989507e-02
6.653223528674116760e-02
-3.014726398099202079e-02
-8.598548101698079427e-02
7.370897022889667805e-02
-6.618418439352303552e-06
-1.316942886488572245e-02
2.025570841731288811e-03
-1.295798407607124010e-02
2.060969312836911926e-02
-5.754711710528883153e-03
1.093308339203911679e-04
-7.154777763733625139e-03
-4.388581646174324023e-03
7.587143358549617266e-03
-2.641585319779645152e-03
-8.366510880622653537e-03
-2.161850766463006002e-01
-1.259842184569306134e-01
-3.482900140488518620e-02
7.270004603689957101e-02
1.340759769910671306e-01
7.434332075255940808e-02
7.621758439824551090e-02
1.966136832934515730e-02
-5.520494153104044815e-02
-2.482734215102586420e-02
6.910638288439481698e-03
-1.894448458660548743e-02
7.309375303188610229e-02
-6.633876061351139802e-04
-2.089689997585288811e-02
4.053266453033416844e-02
9.529251425402196496e-02
1.366821340641150538e-02
2.324781069625097424e-02
-6.917052629614529879e-02
-4.568833690837229879e-03
1.469758553050914962e-02
-6.038391564531228606e-02
-1.278284825489889656e-02
-5.540076270774491052e-02
7.480869859457317615e-04
1.153420901788158957e-03
1.034196920246368417e-02
-2.193454249256258085e-05
-1.722352739065136085e-02
6.034786508906404140e-02
5.488246162716120047e-05
-9.107184065267911674e-03
3.505567657184534974e-02
9.975113725897809605e-03
2.310500173249500910e-02
-4.775075247717124743e-03
-1.028514660543770540e-02
-6.484953795919301718e-04
-4.331989073222355241e-02
-1.408707855931544753e-02
-4.958191307117676590e-03
-4.996979664987179388e-03
-4.765408950029867766e-03
-4.144878832204104517e-03
-4.482694325647792327e-03
6.976008996124377116e-03
3.045922264317771008e-02
1.368753953419081515e-02
-9.031513513874618593e-02
-7.099947283057836400e-02
8.126027803447982700e-03
-5.188052463639762635e-02
-1.402430372227366114e-02
5.229141035775380225e-02
1.531144586326029233e-01
-1.412680785158881569e-01
-6.390058842425663799e-02
-8.008082782502546834e-03
-2.649695917765973810e-02
1.063254802490597867e-01
8.890849215232815572e-02
1.048701385432509146e-02
3.395272264459398698e-02
1.205228955469024033e-01
9.492050264248550265e-03
4.145735705813193700e-02
-6.192001529997565035e-02
-5.355991905199394831e-02
-6.024067258823900123e-02
-1.530753348310365941e-02
1.955583755402941215e-02
-3.529899959694832862e-02
-2.696358516611539399e-03
-8.849593082186010817e-02
-5.415224442134541211e-02
7.124825265971772292e-02
5.690552042850820919e-02
5.640694592163623955e-02
-3.917185653096838006e-03
9.043102173896998275e-02
2.211713071283201437e-02
1.093251027667822145e-02
-5.324055055921183416e-02
-5.662729724107150309e-02
2.205292886140981096e-02
-1.439467131361550373e-03
-3.422627665824511112e-02
-7.597672550038281347e-02
-8.776123440601182879e-02
6.855070277950055246e-02
6.767395195532845131e-02
3.281399999198152811e-02
-1.672317358600306988e-02
1.658467670021667242e-02
-5.162197934629442729e-03
-1.085491703681839559e-01
5.890732572937022044e-02
5.075145901091029227e-02
4.358624348111027162e-03
-1.862968627024807339e-02
7.772884861736145852e-03
2.041036118325375084e-02
-1.502179849494951827e-02
3.094769787055859020e-02
-5.789789072247185364e-02
6.502888914693348565e-02
8.173033064355349209e-02
7.656314426865262757e-03
-6.079960738976303292e-02
-1.996311888521205141e-02
-4.670261509046375048e-02
-6.564340769942159093e-02
8.504865576213506417e-02
-4.839573800136037079e-02
5.411005611162558043e-02
-2.459199092431933222e-03
5.645216301639556511e-02
-1.534928255828188785e-03
-7.757760184111411883e-02
-7.792972785995309903e-02
7.381096350874188396e-03
-7.932788064636601272e-03
1.208552046334308155e-02
2.731873780433155194e-02
3.793790763922313958e-02
-1.384647279533990881e-02
1.498572646215758086e-02
2.324057781488516727e-03
-2.414293786564089550e-02
6.256984180804635309e-02
8.434226399471464464e-02
-4.257243791859999932e-02
-5.731289377276270469e-02
-7.001160981098157772e-03
-1.820673304614770643e-02
-6.197595074905919849e-02
-5.165490462515852019e-03
6.612677546957856922e-02
-4.127857592628143141e-02
-3.506363048068300570e-02
7.684664213417570500e-02
1.665054822974438783e-02
-1.614031821495906516e-02
6.423646147054845601e-02
5.556022102716780264e-03
-9.543515575295324904e-02
-2.402954913954054653e-02
1.733871441228848967e-02
-1.984407252324267915e-02
3.381314691894204971e-02
1.836443251124078926e-02
9.517205963869686258e-02
-6.462489657442797332e-03
-1.651108522791600725e-02
-9.959897703409501327e-03
-2.008580051067234903e-02
5.422805958144268773e-02
1.033536890356655420e-02
-1.067162150242655511e-01
9.726726190226074598e-02
6.738985874917179097e-02
1.290395151510344285e-01
2.962231450728749702e-02
-1.060335679071635062e-01
1.648290196031434660e-02
-1.059248926376144123e-01
-1.278433917252906893e-01
1.030120643760320670e-01
1.001369720747894015e-01
-7.714198074295005279e-03
-4.715267613024033688e-02
-3.128395557329636395e-02
-5.922897765686187255e-02
-6.988723189891181409e-02
1.211800288278390599e-02
-4.330663707825229553e-02
4.543924241997733537e-02
6.974757711365273116e-02
-1.989720537039957673e-02
-2.661958778585394106e-02
-4.059882401750084663e-02
2.768822583079886754e-02
-1.245279111242228454e-02
-2.316181704509926234e-02
-3.945909960369072683e-02
-2.971075968961003552e-02
-4.226510214485151851e-02
-1.910845866021278552e-02
-1.350015060328296768e-02
1.764326232475293228e-03
1.654410615142720142e-01
1.413223775825338813e-01
6.779091312709529388e-03
-5.835555786127313155e-02
-2.821389364241128420e-02
-2.141332965467294958e-02
-1.168222761381991492e-02
-9.095792246680023743e-03
-1.934066787638608412e-02
-3.284401330286037396e-02
-3.105866590072442826e-02
-1.825874532848361514e-02
-2.896261569107774075e-02
-2.649498396897692967e-02
-1.259510540552747151e-02
1.660237228187011341e-03
1.485538923694635915e-01
-1.203393093628511989e-01
-8.248400193495168675e-02
-1.489462613529239643e-01
-2.886027127975496903e-02
4.272353090700848482e-02
1.766961594214539952e-02
1.351004921357893129e-01
1.851362049455384517e-01
6.550006203784473381e-03
2.983296195868205894e-02
-3.100417563484750023e-03
4.039732729085331042e-02
-3.368410647604590680e-03
2.614109084305208178e-02
-3.773589075453312458e-02
-5.871666733074946271e-02
7.122762642618080120e-02
8.643290973780981545e-02
-4.779881897786516370e-02
8.594720261606163952e-03
-3.463860786490823018e-02
-1.456445960305578942e-02
6.017203040879901509e-03
-7.527057302064751876e-02
-1.436593439493818146e-02
-1.204843864860311378e-02
-4.920575147956699619e-02
3.808019323510877102e-02
2.897284500576684935e-02
-4.211264554040741737e-02
-1.588368085945125090e-04
5.083856863123457914e-02
1.019476112040457357e-02
2.776454895183991939e-02
-3.019824369277799084e-02
-9.572277048884719752e-03
-2.073715064849385864e-02
1.606027168111116496e-02
5.044075494711509206e-02
-4.395266531031419982e-02
-2.846670951274979725e-02
1.910105791550274767e-02
1.796576748148517172e-02
-3.308869059775217114e-02
1.979031014282273127e-02
-2.895119591632673117e-04
-4.555393676921090824e-03
9.543170206775633199e-03
1.523045559780084740e-02
-3.148885058625875560e-02
-5.046247216086981180e-02
-3.221305786919369946e-02
-2.517791434646229551e-02
1.059305655157655526e-02
-4.889454960077835484e-03
1.184082377734850117e-01
1.660905092789878232e-02
2.322076313672771959e-03
2.165192926876321686e-02
1.075056841099569262e-02
1.555489932153670402e-02
-2.700649872694274242e-02
1.181271078690064895e-03
-4.106329659461447484e-02
-3.852778854879385789e-02
-2.210755825981178257e-02
-8.347711224387360102e-03
-1.749434849355585575e-02
7.506446928074630119e-03
1.392815584034139782e-03
-9.132559991264254436e-04
7.849140001356651186e-02
-8.828882580569078625e-03
-2.404060474327074370e-02
-1.223139120365630828e-02
3.963074857498637832e-02
1.588735221239600615e-03
2.242215462831098280e-02
1.089927169486470081e-02
-2.944003159190555774e-02
-2.959652988458509170e-03
6.265744312703154517e-02
6.721079797241612253e-02
-1.708111586838274853e-02
1.914195780937164157e-03
-7.416270005557838718e-02
1.757283358355625491e-02
-5.515180155152143299e-02
-7.601653483797969624e-02
1.252980957841729782e-02
-8.599860971541226778e-03
1.487270418053846799e-01
-9.454974526677668162e-03
-4.153557891676345169e-03
-4.300970827431011695e-02
-2.002221488161698079e-02
-1.847805103371668797e-02
-2.556660017551747738e-02
-2.825986673436804361e-02
6.036482798774796960e-02
5.557503198500258861e-03
-6.794691789002780917e-04
1.475282445516553492e-02
-7.691168518911340075e-03
-3.110635670580252574e-02
2.904669327353161939e-02
-3.296009705916585521e-03
-5.455673181931281618e-02
-6.976437630576391713e-04
-1.504334358454314027e-02
1.078529189899662781e-02
6.486810040610453687e-02
-1.281045088904169717e-02
2.453150422058350197e-02
3.953945538059630560e-02
-3.697002497021653622e-02
-1.899971281121907302e-02
5.795578649951344669e-02
2.339599538055248812e-02
-7.664255281076853832e-02
1.077912408543669869e-02
1.086322069433386245e-01
-3.718122739487124406e-02
-1.909393589322488927e-02
-2.162020514992641501e-02
2.681460192500363399e-03
-2.047376553813130481e-02
-2.372365724512187982e-02
4.395986264519573250e-02
4.941084524226494606e-02
-9.852785886959526673e-02
-2.275139124278530503e-02
-1.103382247687226952e-02
-7.053097447693215324e-03
2.258929153836726836e-02
2.340617061111817040e-02
-1.362743293466498196e-01
-4.959673754675830715e-02
-6.934189347121703928e-02
-2.490127621236067415e-02
-5.118079340480789080e-02
-3.257538331470177101e-02
-2.845900675613117353e-02
3.923294200526263320e-01
2.139216286411334961e-02
4.884193297632472702e-02
8.388390939104585498e-02
5.808474894958781665e-02
-9.663469314908312846e-02
-4.251865792329857612e-03
-7.566384310125874590e-02
-3.565235213839992867e-02
-9.124894434883137895e-03
6.010612728871120303e-02
-4.207874242314500746e-02
1.555042841228686419e-02
4.255324402400806338e-02
-2.038886871614130347e-02
-1.414961224957535582e-02
-3.246768190126132769e-02
2.545948219799507722e-03
8.587609859963908632e-02
-7.671488688967866010e-03
-3.557444473460342343e-02
3.944799087055151504e-02
-2.765619621951505985e-02
-4.123765141535809531e-02
-1.573025663154570264e-02
-4.896586971974795088e-02
-3.930840541749995240e-03
6.988283107876594458e-02
1.362592290790810845e-02
4.793978261568853511e-02
-1.942425102506751752e-02
2.133056765606770183e-02
-8.045814297186490438e-02
7.136139812809653461e-03
1.569457025394751723e-02
1.297688159180357750e-02
2.396859000282666394e-02
-7.785236858597981841e-03
-1.125388056173610291e-02
-1.472137872732951283e-02
-2.601568551372380675e-02
-1.119281090337932022e-02
1.065699590216869982e-02
2.123394396377541529e-02
7.766161924443040938e-03
5.218553494066149184e-02
-1.138441060443567488e-03
-2.823894551275460754e-02
-5.127243925447103057e-02
1.050133554635992311e-02
-3.216163756166581095e-02
8.397892567730717156e-03
-2.494655039291340803e-02
2.690429669098640467e-02
-4.185393611071545721e-03
-2.094878597528825048e-02
3.643884273586194683e-02
-6.542858957235719863e-03
-6.486234320184549457e-03
5.569608449415667205e-03
6.819409407796123493e-03
-3.005336607360180757e-03
-2.170859957415825249e-03
-1.622750000224818705e-03
7.439021985209301815e-03
-1.844664570313703927e-02
3.748620231844965872e-02
2.358090705694817352e-02
-1.982167830090706198e-02
1.761670300541266082e-02
-1.173317991984026108e-02
-8.596874663200743463e-03
-2.008543379372544277e-02
2.177058814967144929e-02
-6.449482570973981421e-02
-3.540862078102433464e-03
3.060189171199406005e-02
4.097785239128910045e-02
-6.615731398720373253e-03
-6.016153154322674557e-02
4.146261847683484214e-02
1.350797525878961736e-01
-4.333910863143634190e-02
-5.438371017815527009e-02
-1.954352721964353751e-02
1.149404924056900840e-02
8.994004293452644017e-03
-6.443666980857960629e-03
-3.185779311182474621e-02
-1.575944420537414847e-01
-1.061754041060117559e-01
-7.042513305787886924e-02
-2.413334733802596430e-02
9.200691275711564421e-02
7.531801582741604051e-02
5.512675867221276949e-02
1.358766392989139427e-01
6.256692474560227035e-02
3.623757393674042343e-02
4.499463143070420168e-02
-6.781979393645395926e-02
-6.038283360945623929e-02
3.843167970498763408e-02
-1.612199644264934381e-02
-3.790618582947511556e-02
8.820399212957366619e-02
-6.855495908819224382e-03
-1.122447292288127930e-02
-2.293158142939801664e-02
-6.353402396043156784e-03
-2.091143483949431045e-02
2.597062856949161613e-02
-4.589823320242918808e-02
5.192618531501437540e-02
1.065877540093741716e-04
2.133634516675348564e-02
1.208207590314813902e-02
-1.979554622295688626e-02
2.361878407411227218e-02
-5.307841379722182812e-02
-3.619601819285898914e-02
-2.316181704509926234e-02
-3.945909960369072683e-02
-2.971075968961003552e-02
-4.226510214485151851e-02
-1.910845866021278552e-02
-1.350015060328296768e-02
1.764326232475293228e-03
1.654410615142720142e-01
0.000000000000000000e+00
0.000000000000000000e+00
0.000000000000000000e+00
0.000000000000000000e+00
0.000000000000000000e+00
0.000000000000000000e+00
0.000000000000000000e+00
0.000000000000000000e+00
8.734973590782126041e-02
-2.864252110031454291e-03
1.340977912165614711e-02
-1.396809927197052801e-03
-3.311917244292925111e-02
-2.125978157555400913e-02
2.356324993248660755e-03
-4.447582396701427188e-02
1.360626353262172966e-03
-4.865830913755858221e-04
1.214455814197187671e-04
-7.459740132392897287e-03
8.025284226708796417e-03
-9.814325609519808369e-03
3.396028424771570502e-03
4.857264247126026266e-03
-3.236379836869675980e-02
6.791947686655105954e-02
-2.157976836775551618e-02
-1.423077034435516960e-02
-1.716051556001057729e-02
4.210390175115585713e-03
-2.610245314186034407e-02
3.930743874101163410e-02
-4.456020803225910210e-02
-1.243688131263357144e-01
-4.289919248132403190e-02
-3.082140282673167392e-02
-3.822108682069325775e-03
1.027928387383503922e-01
2.782970109941905468e-02
1.158491853109504255e-01
-4.113901995144517675e-03
-7.879390406702846752e-03
2.790702608817677201e-03
1.891868242125084587e-02
1.297167354613304544e-03
-6.636218796185360848e-03
6.215847946832494392e-03
-1.059288913348162622e-02
-7.986341577577218964e-02
3.976537023805343934e-02
7.078329781785636099e-02
-2.401399723231198782e-02
3.355945535066823249e-02
-4.587465677629834482e-02
-8.422238544678536942e-03
1.406618492248309406e-02
7.115751526620155143e-02
-2.260641546651105671e-02
-6.108962986013390106e-02
7.736415511370113574e-02
-1.198535152351874918e-02
-2.312627376209494545e-02
-6.570509322029219682e-03
-2.314349044561497468e-02
1.368753953419081515e-02
-9.031513513874618593e-02
-7.099947283057836400e-02
8.126027803447982700e-03
-5.188052463639762635e-02
-1.402430372227366114e-02
5.229141035775380225e-02
1.531144586326029233e-01
-1.146622446570226411e-01
-6.174555074740489813e-02
-1.071912376141107535e-02
-1.573453190813276989e-02
5.185588334513009656e-02
-1.601361474666615839e-02
7.675262431995721890e-02
9.026655815555030549e-02
3.849896100136849381e-02
4.894914014603224395e-02
9.367709821358254085e-03
