1.788416441688566172e-01
1.687904736100446779e-01
9.079725356599020747e-02
-5.660994191083460608e-02
-1.644746921926993344e-01
-2.164425116871502019e-01
-2.202818554775143323e-01
2.193796299233067293e-01
-1.770271032277591916e-01
-1.624520400253833818e-01
-1.124655192923403185e-01
-5.505809469279734220e-02
-2.340126720978493932e-02
-5.768199849872366822e-03
6.439199197944261294e-03
5.297330250999933154e-01
3.341780047362195687e-03
7.543479384299725532e-02
1.885779204333382433e-02
8.150663060323469142e-03
-2.289460653636292420e-02
-2.038945819938503892e-02
-3.556826233039402096e-02
-2.693270192787471443e-02
1.386847861332983212e-01
6.136086773384163973e-02
-1.507963925490231165e-02
-4.179435283894070152e-02
-5.510111832988247998e-02
-2.852337509355127101e-02
-4.027936600871552530e-02
-1.926780234114757948e-02
-6.301972903711525187e-02
-1.918086919898049497e-02
3.998052222895094598e-02
8.703479384554844642e-03
-1.107779331965348842e-02
-3.846299722032394536e-02
-1.833890547591648934e-02
1.013962926384840008e-01
9.197078289803326976e-04
-4.203694392009967723e-02
1.889322757995934299e-02
2.808430325249259077e-02
-4.470526511510769518e-02
-1.923577760891739472e-02
-1.397105421886384903e-02
7.205180220155632531e-02
7.167055741113702305e-02
-3.806161287074505406e-02
-1.783207935422454968e-03
-5.840911874244637120e-02
-4.616265489086406049e-02
-3.337691641180707408e-02
-1.504404004380171210e-02
1.211669934839495755e-01
1.436725871541081299e-02
9.623158027450569307e-03
2.184512307786348057e-02
3.693458819843512680e-03
-2.273384414911383544e-02
7.038570126797215158e-03
-1.023551557969026686e-02
-2.359820903856149274e-02
3.538785609329272303e-02
3.365226913121405206e-02
5.705209060219530726e-02
2.306129142639691196e-02
-1.723720035765176350e-02
-2.725012277487916940e-02
-5.180388267570303074e-02
-5.286230144486512433e-02
1.090422445930300070e-02
1.544252495088670662e-03
9.296325338749605221e-04
1.084132861370668173e-02
-4.030292383965011251e-03
-6.527831297170874278e-03
-3.122406097029141545e-03
-1.053890832380829402e-02
8.072104419383530072e-02
1.922392819736036887e-02
-1.650109384569451929e-02
-4.573160894786637565e-02
-2.105064371515652163e-02
-2.835586332389839967e-02
-2.676184991125013166e-02
3.845608735267032341e-02
1.352607476453619902e-02
5.157701747481968461e-03
1.823679912409866335e-02
-8.602883774912959943e-04
-2.095530773134850547e-02
9.079702986368854908e-03
-7.505119319874594026e-03
-1.667956319377127475e-02
-1.425797722801997944e-02
1.666075943725441738e-02
2.604676863074632809e-03
-6.893276366515765051e-04
3.131843151853645583e-03
8.008313122420805674e-03
2.481726202102131542e-03
-1.794001391203408832e-02
2.496842210012786660e-03
1.211146692407694125e-02
-1.008440537325107182e-02
-9.024387330606519571e-05
-3.095846971308657825e-03
4.517748315892316895e-03
1.016126209500538106e-02
-1.601682332712161747e-02
-2.425390194646444633e-02
2.139774834052983899e-03
-9.300843456656398070e-03
1.068493336370496087e-02
1.680101219279603667e-02
2.326464147753579473e-02
-3.932421452345053955e-03
-1.540319501262388778e-02
-7.177989271840913565e-03
-2.031799964190832142e-02
-2.103094325856635569e-02
1.321484538746886366e-02
5.332506861985174739e-04
1.055940752236188968e-02
-1.674809039807533114e-03
2.589423761609385352e-02
8.411839508746185318e-04
4.465456279968605183e-03
3.608323953764824583e-03
4.553747197334809434e-03
-1.778536417765331709e-03
-2.041132859571633679e-03
-2.730396259815676303e-03
-6.918645844790219726e-03
-6.373003970316482025e-03
-8.520237268223342358e-04
4.938136088359730211e-03
-1.114717885411944595e-02
1.509927408681488795e-02
-6.030365550645045390e-03
9.209786212604641545e-03
-4.844624285875942342e-03
5.112091826665836510e-03
-1.695479574177020249e-02
7.999461274477797073e-04
8.458598411295837130e-03
1.047577313515225816e-02
-1.543578625192163108e-03
-1.179388863088670115e-02
5.445853497287348952e-03
1.980301127711942694e-02
2.548608691829441341e-03
-3.158792153922902312e-03
-3.307037400549806081e-03
-1.527802517499577458e-03
-4.067047962225871748e-03
4.292935198015048262e-03
-1.458387513276575287e-02
-1.918097340548721285e-03
1.744640538190929098e-03
-2.910783257120292951e-04
5.876679204543838785e-04
4.312446247810959414e-03
-3.361219292155315057e-03
7.590989170171369644e-04
-1.833458665057345182e-03
1.839177251081925563e-02
2.732431594730553789e-02
2.934649543310195383e-02
-4.730423587359056450e-03
4.310657425041611139e-03
-1.106274859017890430e-03
-2.647339178251596759e-02
-4.706315108737546549e-02
5.836912813770433334e-02
1.716989263272333463e-02
7.074901170065577005e-02
7.413809137141763594e-03
-2.271683092468134921e-02
-6.579547287009991641e-02
-4.066751192023090183e-02
-2.452202589321300641e-02
1.770298438198168517e-03
9.230998884663674589e-04
8.203400257725493305e-03
-2.664081847463872083e-03
-2.061198229266401633e-03
-1.581124270641292304e-03
-1.311198145249089196e-03
-3.279196091769377968e-03
4.815077090732492772e-03
1.470797409865845680e-02
-1.056912517889706075e-03
4.804569550874097927e-03
-3.977089180663475991e-03
-2.502528890200050784e-03
1.054728464768933628e-03
-1.784581861628074806e-02
1.289358527194378948e-02
9.010125367542663744e-03
9.046424595595443582e-03
-7.884386174694632196e-03
-4.467264866660828476e-03
-2.484080102878063329e-03
-6.023886371308525590e-03
-1.009051771953984808e-02
1.530531714892335166e-02
3.541264593953645946e-03
8.563361190060116103e-04
-1.975703341512348443e-03
2.726146804323270351e-03
-2.357907432965786285e-03
-1.207434386731130564e-02
-6.021110024416835398e-03
-2.154982322810852433e-03
-4.420290747675172972e-03
1.512296963213078087e-03
1.091118552862383601e-02
5.272562764123129957e-04
-1.883560827345441991e-03
4.148085243724466313e-04
-4.906713394790211853e-03
4.938590534975383951e-03
-2.655991576242779529e-03
-1.846747911608370013e-02
1.017563268318942733e-02
-1.363470826022487479e-03
-3.581567721555685337e-03
-6.046086863472249426e-03
1.700037288521210124e-02
-6.800819690697834652e-02
-6.180153590451637619e-02
2.080445534879344152e-02
-1.795595493040060692e-02
-2.414963784617036712e-03
5.450586058020354466e-03
3.348178393505530509e-02
9.044382618464329171e-02
1.158113818709117018e-02
2.963516733261904127e-04
4.226252440095823286e-03
-3.540994946387898603e-03
-4.887701504313446410e-03
1.693044155338459429e-04
-2.305155470905563379e-03
-5.539194794440118613e-03
-7.412896133665465830e-04
-1.457216088587857646e-03
-6.694829418708075821e-04
1.012145580859663552e-02
5.644749626114942348e-04
-1.793593555206874626e-03
1.886069275725083373e-03
-7.910417847901127231e-03
1.819989893516196777e-02
7.865626105816311137e-03
4.556089160501732710e-03
-8.887822555278202192e-04
-1.540363296994532046e-04
-2.974736791569015156e-03
-2.778191970954466735e-03
-2.382586685372926893e-02
1.049176443964892347e-01
2.424474740155070987e-02
-4.275787927328694726e-02
1.739637663136810175e-02
-3.747928088897611691e-03
-8.199141352118161086e-03
-6.047790557458988109e-02
-3.137591414051545818e-02
9.859398575211877902e-02
2.450577624584508035e-02
-1.959185890722047255e-02
-3.923877280318487093e-02
-4.588117367090424614e-02
-2.482698623739893265e-02
-2.060161384722516975e-02
2.704064346796977714e-02
3.231627483676608251e-03
6.707069405026741928e-04
-1.459387500592325112e-03
3.744989571434602111e-03
1.445151147002196254e-02
3.464134131256577445e-03
-5.575626740574923627e-03
-1.852795535572517027e-02
-1.157572016690173664e-02
-4.262287127724806446e-03
-4.242973580649816133e-03
-4.944656732877501272e-03
-2.679672692512465731e-02
2.787588134699560990e-04
-2.204417408798246478e-02
7.358777980779103445e-02
-1.098733267746106364e-02
6.678072860978102356e-03
-1.066062513031033367e-02
-8.269431068616240124e-03
-9.810090865018956247e-03
8.961617265454999842e-03
-5.707693402910093972e-04
2.465855895526449307e-02
1.046294394361332175e-02
2.443867926383266886e-02
-1.805353653566400818e-02
-2.248028682841736459e-02
-9.620109898275204172e-03
-4.060469790997608161e-04
-3.977704085403109373e-03
1.963606111941344073e-02
-4.046676586126214670e-02
-1.803990640776825154e-03
4.774418527862701357e-03
-7.046012920123244025e-03
-8.081377292749554464e-03
-5.990985902116508117e-03
-1.385719261444609378e-02
7.247190670361168541e-02
1.042836410657683142e-02
1.403415481349901822e-02
8.471389852257583258e-03
-6.211651915620218858e-03
-2.818807061231361991e-03
-1.093871910263616819e-02
-5.968522352211811342e-03
-6.996208340633866887e-03
-2.024104621909867882e-02
-1.042431781925127858e-02
4.118183051806909717e-02
-2.173905114531765950e-02
-4.637547785861462386e-03
2.382957297709583852e-02
-1.031376571779525717e-03
-6.938063953856356270e-03
2.214359130231733763e-03
-1.606927943517620552e-03
-1.029359967871367127e-03
5.099969648190644592e-04
7.232946696388985620e-04
1.849664599380589211e-03
-8.542034265357636253e-04
-1.806824026145532848e-03
-9.654906577439727536e-03
2.762303187182717223e-02
-6.171712059869053496e-03
4.253077635043476211e-03
-1.145021067262949306e-03
1.662857010490406944e-03
-3.240046896710882963e-03
-1.332727991607846572e-02
1.556010674163646468e-02
1.764053152376049080e-02
-9.359537895346943526e-03
-2.148856296724674028e-02
4.731510813669220945e-03
-1.044876301427248534e-03
-6.080855609327537672e-03
4.168369428231241431e-05
1.644081594202557658e-02
-7.209186378081073633e-03
4.419116654578580244e-02
3.258082386765511363e-03
-7.723832534302383507e-03
-7.466548887493494428e-03
-7.100715556556391750e-03
-3.438978151814353623e-02
-4.790405732897599911e-02
-5.509897763539344309e-03
2.830499296902973597e-02
-2.723747974360127624e-02
7.473087853733363737e-04
2.576007670730959872e-03
2.053525386746474571e-02
2.848787154351785367e-02
-6.212835605123135513e-03
2.498535483565644463e-02
1.187602420049743007e-02
-1.088655497114309791e-02
-8.918162100073701373e-03
-5.135572718487830569e-03
-6.622818069622010348e-03
9.145644282959094606e-04
1.944123056766925437e-03
-1.421885480160048343e-02
8.366316865735851441e-03
1.511954824805379974e-02
-1.969642808756617153e-02
-4.848505464541803811e-03
1.817867763951828280e-02
-4.844877456366411712e-03
-2.979280747628314935e-02
2.856249820752143967e-02
1.106509542545332323e-03
7.406979597462805091e-04
-9.355758671004087840e-03
-1.144063764584045406e-02
1.553859948927676336e-02
4.640898594037894467e-03
-9.355808959353189083e-03
1.956799186767782528e-02
2.394417529830420669e-03
8.481923782827333058e-03
-1.426060832740223956e-05
-5.273662751411573729e-03
-1.222283171358052624e-02
-3.577769147662904648e-03
-2.145863100310813412e-02
-4.952583816515082962e-03
-1.102838869331402606e-02
-1.291479731348256802e-03
-3.840435042009652383e-03
-1.876322729019008415e-02
-4.112245325186261215e-03
6.544699090167147015e-02
-3.148036541490737122e-03
6.218545094032453500e-03
4.473707119236172529e-03
-3.155047379303556245e-03
2.852759074846307821e-03
-1.893474738454803625e-03
-1.509750190202429568e-03
-3.838702438663404038e-03
-2.241452408307548910e-03
3.557731023765831491e-03
3.292007483137266311e-03
1.672897406542616424e-03
-8.558539760353673894e-04
-2.045442848220000494e-03
1.637466660702839843e-04
-3.543633346953080441e-03
-7.575350465255337954e-04
1.316484489367192659e-02
3.208232855621982044e-02
1.807947727772574176e-02
-4.013512770886954427e-03
-3.530269659288140949e-03
-2.151472972854395413e-02
-3.351060352237290180e-02
1.183852988732626496e-02
2.130794571092107376e-02
1.815814434076427203e-02
-1.757810359066446643e-02
-1.292352111876075675e-02
2.492677464876766856e-03
-4.229554492694884843e-03
-1.906611820176827218e-02
1.249542799588207118e-02
-3.777465679237488466e-02
2.313620116060918774e-02
3.302895998537009464e-02
-1.790853818998304481e-02
-1.951453642238732897e-02
8.073119869118620950e-03
-1.535977606234722364e-03
-2.917677181813920721e-03
2.403190223206587081e-02
-5.820063952017279349e-04
-9.161554802471256684e-03
8.291877693428815685e-03
-5.812149838183775820e-03
-7.778783883725524234e-03
-6.071607824098507883e-03
-1.110645523257362127e-02
-3.733542616688640108e-03
2.764233163423138878e-02
2.084648160053193065e-03
1.046701636524302072e-02
-4.305152098101207303e-03
3.281839482649418199e-03
-2.433068569481356205e-02
1.801219166261842919e-02
1.307409536881328502e-03
5.881992060446684066e-03
1.153630344164362697e-03
-5.071269552418463181e-03
2.661054725709833743e-03
1.018514870520027685e-03
-2.496352364792220335e-02
2.425710738744821585e-02
1.546838004312344091e-02
6.673445400541684093e-03
-1.054327379446956883e-02
9.950592401863331965e-03
-8.149406485705064374e-03
-8.189080916137115446e-03
-2.946776403666491809e-02
2.553190128793949784e-02
2.031206024403469507e-02
-2.831343095804514983e-03
-1.317243857361541739e-04
1.829775608485525919e-03
-5.454997757990180662e-03
-8.715172145136115128e-03
-3.054049975579274309e-02
-6.291297827538283594e-02
-8.277349092542228559e-02
-8.114546547579624958e-02
3.918209822902664341e-02
3.108080105462487745e-03
-3.912801369259399920e-02
7.488247958864116538e-03
2.161815220758420697e-01
-1.905960930924164307e-03
-1.247481977931944562e-02
2.903261940422051293e-03
4.545685393804609412e-03
-4.062283002598277362e-03
5.346852360565184509e-03
6.936047225938025106e-03
-1.288783207887979777e-03
2.452736392851897779e-03
-5.815845737279240089e-04
-8.775527275992755106e-04
-3.643298746343163162e-03
4.450736239753738839e-03
3.484279420662218883e-03
-1.139510073435374147e-03
-4.145805932162116396e-03
2.782947173267356650e-04
5.280258695094922940e-03
-2.127928453733262510e-04
8.469425386165433875e-03
-1.574845728288656660e-04
4.753047487862958193e-03
-6.931446596015270953e-03
-1.147930227223258569e-02
-1.954942821961957664e-02
2.118217043180755516e-02
-9.345071953099975612e-03
2.356365448093449000e-02
3.728506454740207650e-03
-6.236052661840737338e-03
-2.967443590133421027e-03
-1.037633494278854610e-02
0.000000000000000000e+00
0.000000000000000000e+00
0.000000000000000000e+00
0.000000000000000000e+00
0.000000000000000000e+00
0.000000000000000000e+00
0.000000000000000000e+00
0.000000000000000000e+00
1.090422445930300070e-02
1.544252495088670662e-03
9.296325338749605221e-04
1.084132861370668173e-02
-4.030292383965011251e-03
-6.527831297170874278e-03
-3.122406097029141545e-03
-1.053890832380829402e-02
1.182606112398475358e-02
9.004152839132910369e-03
3.636898837348480351e-02
2.661455401305782512e-03
-1.570553194193397353e-02
7.527085499873546401e-03
-1.773067693462962446e-02
-3.395153436121822049e-02
1.700013640551439800e-03
-3.846451091650946244e-03
-1.813218924938615056e-02
-3.521743778797079699e-03
-5.249775789414537139e-03
1.552617486495305255e-03
1.022555761475503304e-02
1.727197116744693534e-02
-1.425797722801997944e-02
1.666075943725441738e-02
2.604676863074632809e-03
-6.893276366515765051e-04
3.131843151853645583e-03
8.008313122420805674e-03
2.481726202102131542e-03
-1.794001391203408832e-02
-7.527151253577425705e-03
-7.566407520698201390e-03
-9.813284190659673188e-04
9.297647289890097200e-03
7.665386180184410522e-03
-1.039282523237469291e-03
1.815685527428094568e-04
-3.043230623824474674e-05
2.496842210012786660e-03
1.211146692407694125e-02
-1.008440537325107182e-02
-9.024387330606519571e-05
-3.095846971308657825e-03
4.517748315892316895e-03
1.016126209500538106e-02
-1.601682332712161747e-02
-8.774145779489541828e-04
2.644049458431020280e-02
-4.263861937358714820e-03
-3.348712111914594995e-03
-4.156433570110148502e-03
-1.067026795634543328e-04
-5.118989738092484705e-03
-8.568379969321844244e-03
-1.732847749795748959e-02
-1.630838482182196680e-02
-3.683428047307344549e-03
4.974804281576412565e-03
1.343881737278227080e-02
2.451970067348712909e-02
1.073386294882418789e-03
-6.686418255641410346e-03
1.479141383019413067e-03
-4.259274077370323324e-04
-3.722250529243763695e-04
-2.388060958469467973e-04
-1.467577900604794320e-04
-1.090739931503912220e-04
-6.838656187779557126e-05
-1.179644814223917629e-04
3.484119999952067261e-03
-1.135840882873509483e-03
-1.354706179967691236e-02
1.255275839423396211e-02
4.627140237767001472e-03
-9.435816505772706350e-03
-3.003409577852767659e-03
6.458110134222871945e-03
-1.066210927179297649e-02
-1.918215875903481193e-02
-7.483881458889431182e-03
6.620869932349009992e-04
-4.093889551568483456e-03
1.999522402813459082e-02
1.328600538045234111e-03
1.943612748187097811e-02
8.411839508746185318e-04
4.465456279968605183e-03
3.608323953764824583e-03
4.553747197334809434e-03
-1.778536417765331709e-03
-2.041132859571633679e-03
-2.730396259815676303e-03
-6.918645844790219726e-03
-6.373003970316482025e-03
-8.520237268223342358e-04
4.938136088359730211e-03
-1.114717885411944595e-02
1.509927408681488795e-02
-6.030365550645045390e-03
9.209786212604641545e-03
-4.844624285875942342e-03
5.112091826665836510e-03
-1.695479574177020249e-02
7.999461274477797073e-04
8.458598411295837130e-03
1.047577313515225816e-02
-1.543578625192163108e-03
-1.179388863088670115e-02
5.445853497287348952e-03
1.980301127711942694e-02
2.548608691829441341e-03
-3.158792153922902312e-03
-3.307037400549806081e-03
-1.527802517499577458e-03
-4.067047962225871748e-03
4.292935198015048262e-03
-1.458387513276575287e-02
-1.108053221197504009e-03
1.459529191089364158e-03
-1.447767021825917353e-03
1.389044601883645006e-03
3.760772019092552959e-03
-1.121517423111918592e-03
-9.010353030812237552e-04
-2.030972842848999607e-03
9.595387621280723354e-05
-5.177365893662826428e-04
-2.273658669023439257e-04
-1.241080179399131709e-03
1.417774602165073131e-03
-1.545774573463257542e-03
4.933801250424297213e-04
1.524848605710705423e-03
-9.059979955640246312e-04
8.028479364678475826e-04
1.384054563016232173e-03
4.397034979698702557e-04
-8.661003734466660251e-04
-6.939272955801383804e-04
1.166754095055931324e-03
-1.327334427919051648e-03
-1.162641668024409075e-03
2.818332043388338190e-02
2.870190273292027444e-02
3.464052058750008347e-03
7.609160962588559438e-03
3.537289275683113809e-03
-1.451004820962964285e-02
-5.582303558617125738e-02
3.401445030434521732e-02
1.521730756030704665e-02
-1.071103542084171287e-02
-4.894440542590999810e-03
-8.152567883062393495e-03
-4.403233971220616404e-03
-7.743764158229400271e-03
-1.332671588870711424e-02
-4.287347449540507976e-02
-2.652450624835039211e-02
-8.137129252352109585e-03
-3.301053845278621376e-03
1.768669141493822705e-02
-6.785593029476170990e-03
1.663023154616628113e-02
5.330483390975790381e-02
1.078719371241876855e-02
1.063457530771284507e-02
4.066027766933155707e-03
4.509261122305880352e-03
5.096639204866353079e-03
-3.213036725694546833e-03
-8.678728163412524968e-03
-2.320193222512995090e-02
-1.619053144028901464e-02
-1.762042162990110419e-02
-7.767049425410323116e-03
1.292650034384979982e-02
1.716161216007772161e-02
-8.214542214006290144e-03
-3.684542838410049138e-03
2.338897504408926284e-02
-1.897564266315776918e-02
7.492741850830733803e-03
6.007915426360722726e-03
2.006317022186744625e-02
-6.766449224088549701e-03
-5.564646291054784789e-03
-2.779562939522471285e-03
5.224736187646624157e-04
1.374585165949069321e-01
3.405539616643338957e-02
1.859415784232514718e-02
-2.423387037359134646e-02
-4.546791762458253505e-02
-3.477223859261301814e-02
-3.335980904293407712e-02
-5.227423496994448165e-02
6.931342398805955115e-04
7.001546840557710226e-03
5.550976228685091524e-02
-4.752095648222374666e-03
-1.905959304512539962e-02
-6.006591361900552421e-03
-8.777278176018556838e-03
-2.460888513602236746e-02
3.898392162307015140e-03
1.312068656434852007e-03
5.146787971561224591e-03
2.006430487952117533e-03
2.516423509876372731e-03
-4.773286761015666999e-03
-2.800993738052800401e-04
-9.826716653310630517e-03
3.103251242919177083e-04
-4.546003530256825711e-04
8.690798784287535536e-03
-2.245342732747501995e-03
-1.669222180029394324e-03
-1.266986431935792582e-03
-1.040896139502872717e-03
-2.324076071338207917e-03
1.459973313906249995e-03
1.377700241492050030e-03
-4.873985265620387071e-04
-4.187391147163714968e-04
-3.919760492370063338e-04
-3.141378387054989088e-04
-2.703020057462163163e-04
-9.551200204311697259e-04
-5.946341441128985723e-03
-3.325357733838190874e-03
8.168376774165621995e-03
2.640675466936077357e-03
1.055629984870051601e-03
-2.738583262960952655e-04
-2.400653166358049435e-05
-2.295118193044897847e-03
1.076141853186147850e-02
1.803333183249664767e-02
-9.225289292055323734e-03
2.163894083938019269e-03
-5.032719165533530194e-03
-2.228670563903956386e-03
1.078734996432513353e-03
-1.555070042323584804e-02
1.289358527194378948e-02
9.010125367542663744e-03
9.046424595595443582e-03
-7.884386174694632196e-03
-4.467264866660828476e-03
-2.484080102878063329e-03
-6.023886371308525590e-03
-1.009051771953984808e-02
1.530531714892335166e-02
3.541264593953645946e-03
8.563361190060116103e-04
-1.975703341512348443e-03
2.726146804323270351e-03
-2.357907432965786285e-03
-1.207434386731130564e-02
-6.021110024416835398e-03
-2.154982322810852433e-03
-4.420290747675172972e-03
1.512296963213078087e-03
1.091118552862383601e-02
5.272562764123129957e-04
-1.883560827345441991e-03
4.148085243724466313e-04
-4.906713394790211853e-03
6.661224712367937520e-03
-1.724168459013107266e-02
-1.008322189917170569e-02
7.158344801802525061e-03
-8.205943963409461847e-03
2.591527247542094615e-04
-3.096072835997248918e-03
2.454820104978481729e-02
-8.342451374659129535e-04
2.440753713201438812e-03
-6.766119588782410540e-04
-3.705196520654967934e-04
-1.830888480498783744e-04
-1.164947965000107355e-04
-8.400316039626539041e-05
-1.757901598456328737e-04
-8.883890399266358446e-04
1.214493930068685605e-02
-7.707645258033760105e-03
3.387807533452396030e-03
7.025561985436854125e-03
-3.724225649809885432e-03
-2.866010867078730862e-03
-7.372038004727095480e-03
1.158113818709117018e-02
2.963516733261904127e-04
4.226252440095823286e-03
-3.540994946387898603e-03
-4.887701504313446410e-03
1.693044155338459429e-04
-2.305155470905563379e-03
-5.539194794440118613e-03
-7.412896133665465830e-04
-1.457216088587857646e-03
-6.694829418708075821e-04
1.012145580859663552e-02
5.644749626114942348e-04
-1.793593555206874626e-03
1.886069275725083373e-03
-7.910417847901127231e-03
-9.940658119611913909e-03
1.430402387112913488e-02
1.445318078743355536e-02
3.265178720353127933e-03
-1.210863483742500874e-03
-3.914943955870626296e-03
-1.114756027246876146e-03
-1.584116179244391548e-02
2.814055705477388689e-02
-6.438397765312822013e-03
-9.897091626931831324e-03
-4.153960975880948044e-03
1.056827154043047615e-03
9.402071643016114656e-04
-1.663435943707590372e-03
-7.984705061285348252e-03
2.972848291181104038e-02
5.324995110315342700e-02
-1.194218636037632300e-02
1.177677112644098974e-02
-1.029285847485124361e-02
-1.161140806762159770e-02
-1.266092610733173321e-02
-4.824782613122456654e-02
7.720523735878161153e-02
3.029388537239031606e-02
-7.708423554901679998e-04
-2.678184499292123391e-02
-2.640435182212876042e-02
-9.631313041300337136e-03
-5.295040360309137550e-03
-3.861573015902230316e-02
2.128119692783887317e-04
-6.264521141415102523e-02
-8.004871094779614921e-03
-1.785898925782484353e-02
-1.722230490552640117e-02
5.171327049589604860e-03
3.545601887457830101e-03
9.680163576595610109e-02
0.000000000000000000e+00
0.000000000000000000e+00
0.000000000000000000e+00
0.000000000000000000e+00
0.000000000000000000e+00
0.000000000000000000e+00
0.000000000000000000e+00
0.000000000000000000e+00
-8.552546487752221704e-03
3.607151184452378999e-03
1.126040903425622099e-03
-6.374709678879774549e-03
8.038341531602141710e-03
-8.755592178066613079e-03
-6.191249267042132562e-03
1.710256399226059085e-02
3.231627483676608251e-03
6.707069405026741928e-04
-1.459387500592325112e-03
3.744989571434602111e-03
1.445151147002196254e-02
3.464134131256577445e-03
-5.575626740574923627e-03
-1.852795535572517027e-02
1.029368628328475137e-02
-3.797188127894493125e-03
3.298655607116514777e-03
-7.055529133499010945e-03
-1.080637282661011007e-02
-7.556347096267207464e-03
-8.242487317230500279e-03
2.386558261110005574e-02
5.617313949243666824e-03
1.266037200691968317e-02
-1.703825380376228216e-02
1.548105272839671136e-02
-1.563650100320593261e-02
-1.564100376027898831e-03
-1.773607363714566759e-02
1.821619013558174391e-02
-3.369303565031793414e-04
-2.655253940994153558e-02
-2.075543270003884014e-02
2.631344681297100203e-03
-2.931721704173170275e-03
-1.129475084631619518e-02
1.961619556642943407e-02
3.962383476924638548e-02
-1.640212093999775592e-02
1.828561345270493218e-03
2.000338810056663530e-02
-6.297329960083350442e-03
-9.790723148006186607e-03
9.303456892852503615e-04
7.811307597031052173e-03
1.916571315933852590e-03
1.862806650508047265e-02
7.441215424002594475e-03
-2.333987156445658379e-02
-1.311299057119550381e-02
5.683218727940801684e-03
-3.811341877840035679e-03
-2.046670921540621330e-02
2.897841257187446645e-02
-1.869152049577237767e-02
-2.055387180711324563e-02
1.111073184564725751e-02
6.610629567134944720e-03
2.097697248287287708e-02
1.550227714048978654e-02
-7.187694032366864945e-03
-7.767524700892386273e-03
7.776336438453859169e-03
1.308185613324741418e-02
-1.443083182477180020e-04
-3.709816052427341877e-03
-3.250080454767802218e-03
8.390620906251096411e-03
-3.432344100296326299e-03
-1.871226455221318766e-02
-1.223700064666607967e-02
7.554162427706186123e-03
5.972178979161061989e-03
2.871538004884148076e-03
-1.713513134830467813e-03
3.975415138302525186e-03
9.878287070043312215e-04
-7.410609475561703158e-03
1.060839062880613096e-02
-4.535757267931300046e-03
-8.531908063172201351e-03
-1.315948303277590268e-03
-9.350223898498665615e-03
-9.622875322008251145e-03
1.134902305483705999e-02
1.139929917124480295e-02
-8.001121976833685048e-03
-2.790628546970545104e-02
-7.762243039296209783e-03
-4.523271013360323847e-03
-2.088212320711668474e-04
2.015968852684887902e-02
4.071920382922178047e-03
2.417013382149577755e-02
-1.453857376942305907e-02
2.891211116845076451e-02
-1.294918659292499221e-03
2.459411565322440658e-03
2.949575451072437935e-03
-7.040064672032380656e-03
-8.112424245092357295e-05
-1.136641684164677035e-02
-4.876096904161417514e-03
6.490738851238098475e-03
-4.274924347334610117e-03
-6.010104792319498693e-03
-6.435082404663777268e-03
-6.235444837003701951e-04
-4.299288413056515275e-03
2.002830249399810067e-02
8.520860389439848318e-03
7.891654039950068977e-03
-4.077089480066410990e-03
3.289049675039364736e-03
-7.391838509395332740e-03
-6.737144273634271090e-03
-8.100959046602615454e-03
6.605467205269350411e-03
1.610480647793090594e-02
-2.434329480698881401e-02
-2.357039323255434582e-02
-9.473354227269805208e-03
3.030617926993582362e-03
1.769596025045178794e-02
9.552197628806269325e-03
1.100345998263041990e-02
-1.416272292375743078e-02
4.089032003087140349e-02
9.593946176956748631e-03
-1.629598227618693496e-02
-5.258889315873453360e-03
-1.136486295591727404e-02
-5.428942667606757172e-03
2.027133931513681701e-03
-4.788539867756259893e-02
-2.725931204290813880e-03
1.368990057408617581e-02
1.648874728968922898e-02
8.548984329669941443e-03
4.496371999120185765e-03
1.221793624522752621e-02
-4.830610555939651891e-03
-1.073831546270593131e-03
1.333164832370437904e-02
-1.541725741867332709e-02
-2.018473817029504264e-02
-3.592011934134782102e-03
-1.054730105190062120e-02
-7.678457944451696181e-03
4.516194974202165924e-02
8.492464362571068570e-03
-1.240970776019038879e-02
6.501775372449846574e-03
-3.350022039517436007e-03
-1.303834968828471684e-02
5.994315066393458066e-05
-1.839667091522190906e-02
3.214056751752962515e-02
6.557804273472203783e-06
2.800763542526544039e-03
2.109626114368801184e-03
5.950598097060675988e-03
3.154891139044000326e-04
-4.048716827126075044e-03
2.775194807131679993e-03
-9.909512652139499181e-03
2.607240446823328155e-03
-8.691976195107019645e-03
1.868295753788110666e-04
-5.560820661924274246e-03
4.991472293148373034e-03
-1.793314408997564503e-04
-3.218569037864621712e-03
9.865155020445165110e-03
7.814565855480024373e-03
1.992536746607948342e-02
6.174934162509970736e-03
-6.601429350756617132e-03
-8.125768468284132184e-03
-6.710670834610335880e-03
-5.525148121478872659e-03
-6.951850708939525877e-03
2.802739277513736568e-02
2.440967386714165081e-03
5.423913672068874335e-03
-2.318891511786751181e-02
-6.047922862542297849e-03
-4.473227598735494970e-03
-2.943846213324335589e-03
7.616379585492495359e-04
-3.729578156863060101e-02
-3.170608456973590585e-03
4.187145196665108433e-03
-7.904562489907653033e-03
-1.131193397555827434e-04
2.757521826120459471e-02
3.628802877677938989e-03
1.309290551971977606e-02
-6.708533723023196033e-03
-2.084982394846605913e-03
3.255765804532322061e-02
1.921940646594337771e-03
-1.946889657530295661e-03
-5.375473815675983758e-03
-4.995320795758222479e-03
-1.336839830508327123e-02
-4.264123702582246593e-03
-7.609694354145253234e-03
-9.868863959881027381e-04
7.432485815863180793e-03
3.470384073966709896e-03
6.103056130302737282e-03
3.278987559625088158e-03
-7.424209127042117468e-03
2.214359130231733763e-03
-1.606927943517620552e-03
-1.029359967871367127e-03
5.099969648190644592e-04
7.232946696388985620e-04
1.849664599380589211e-03
-8.542034265357636253e-04
-1.806824026145532848e-03
-9.654906577439727536e-03
2.762303187182717223e-02
-6.171712059869053496e-03
4.253077635043476211e-03
-1.145021067262949306e-03
1.662857010490406944e-03
-3.240046896710882963e-03
-1.332727991607846572e-02
-3.476552280105532026e-03
6.478417169103745966e-03
4.312260496154623514e-03
-6.378358150631784594e-03
3.584611596746792306e-03
-2.966881323333712874e-04
-1.541551758056938998e-03
-2.682138940877538784e-03
1.903665902174200147e-02
1.116211435465673703e-02
-1.367179839150156964e-02
-1.511020481661496696e-02
1.146899216922429073e-03
-7.481881690938770296e-04
-4.539303851270600626e-03
2.723822635159851673e-03
1.644081594202557658e-02
-7.209186378081073633e-03
4.419116654578580244e-02
3.258082386765511363e-03
-7.723832534302383507e-03
-7.466548887493494428e-03
-7.100715556556391750e-03
-3.438978151814353623e-02
-2.660054237209303479e-02
5.124735600647435489e-03
2.312975233910705142e-02
1.559798399173548209e-03
4.246431178942940490e-03
-2.097878273713211887e-03
-2.921102216489153067e-03
-2.441194655575568487e-03
-3.219182545103469427e-03
1.309483742718764096e-02
-3.772709133113408709e-03
-6.408142539744928791e-03
-8.047997018087334892e-03
2.511707354652134116e-04
-8.107023611909233663e-04
8.912725434587209783e-03
2.360688931207336611e-02
6.765781807821362979e-03
-7.481019005496216540e-03
-6.038210830571718625e-03
-5.116596260929306972e-03
-3.288865180239826293e-03
-2.891013491941934674e-03
-5.556966350715738558e-03
-1.674054597046351067e-02
-2.231434061784906206e-02
-2.137295394948429683e-02
-1.158590769372629461e-02
-7.441177998707194409e-03
3.456591733220638028e-03
4.063558013175926596e-03
7.193477648383382606e-02
-2.346916925995212039e-02
2.816464927953830216e-02
3.074791494138405523e-02
-8.519347942411828510e-04
-3.913669165139456625e-03
-1.613918576583832712e-02
4.221661902623322256e-03
-1.876026713837457977e-02
1.041690775413249559e-02
2.271218954583219610e-02
-8.268451449354423041e-03
1.317854044771375743e-02
1.999088492842566230e-03
1.241956386777234595e-03
7.253379573477517113e-03
-4.853361075142136050e-02
-5.137489807559797970e-03
1.459140007697997668e-03
5.769943893587816189e-03
3.068342480860592608e-03
9.922342934696071204e-03
1.456408480899495537e-03
-4.238685065950724765e-03
-1.230000292423144743e-02
2.530966773390886000e-03
4.602894020252469576e-03
9.904887191446267499e-04
-1.763696430236479182e-03
7.704134883987073931e-04
-3.613050337175288478e-04
1.608891088857676739e-03
-8.378652626090362168e-03
1.087970657933007941e-03
-4.239787521556148166e-03
1.154257342701103719e-03
2.142499044617071288e-03
6.623987356476635120e-03
2.971353484906217430e-04
-8.081334224371305736e-04
-6.257928806225161560e-03
1.519793266036874356e-03
1.224510390759878456e-02
2.325136013741243776e-02
1.353171291957512047e-02
-2.085031764288621664e-02
-4.548754760753302706e-03
-1.777596715648045722e-02
-7.372930670503231691e-03
-7.587759363265066158e-04
-9.025055203211771555e-04
9.162784633738348247e-04
1.100619262909437656e-03
-4.799389075721458659e-04
-3.737536942074235857e-04
-3.008351725333285008e-04
7.989115046773088633e-04
-9.355808959353189083e-03
1.956799186767782528e-02
2.394417529830420669e-03
8.481923782827333058e-03
-1.426060832740223956e-05
-5.273662751411573729e-03
-1.222283171358052624e-02
-3.577769147662904648e-03
-9.309750936720775916e-03
1.751260692644346362e-02
9.401398816803852032e-03
9.014296412620984023e-03
4.876962989174509866e-04
-2.043826418280459203e-02
-6.495639620097400611e-03
-1.723437151629750232e-04
-1.214888006638735127e-02
-2.246519074295854138e-02
-2.042978751011787636e-02
-1.030577614396924364e-02
-4.328131340927104075e-03
1.675036892614510491e-03
2.383394294911138963e-03
6.561933461683444602e-02
-3.148036541490737122e-03
6.218545094032453500e-03
4.473707119236172529e-03
-3.155047379303556245e-03
2.852759074846307821e-03
-1.893474738454803625e-03
-1.509750190202429568e-03
-3.838702438663404038e-03
-2.241452408307548910e-03
3.557731023765831491e-03
3.292007483137266311e-03
1.672897406542616424e-03
-8.558539760353673894e-04
-2.045442848220000494e-03
1.637466660702839843e-04
-3.543633346953080441e-03
1.318373798899014418e-02
1.134331626703517608e-02
1.647262986984349142e-02
-1.633584861002028085e-02
-1.223437008613046870e-02
7.010451477709636614e-03
-4.385010478876437585e-03
-1.505490642855125856e-02
-2.072471027562539266e-03
1.158314084001618727e-02
7.921359405076334884e-04
-4.673490823071887318e-03
5.723347613567849896e-04
-3.532212618548707331e-03
9.027989194133397444e-04
-3.572235992110811900e-03
7.272629258986635162e-04
-1.618511396130280265e-03
8.933785304131549232e-04
3.431235842427705213e-03
-1.261485793987085838e-03
-9.855613942841600413e-04
-7.473429332317887367e-04
-4.389757811062082286e-04
-7.780850720706418769e-03
7.215240673559742204e-03
-1.939974929317387275e-03
-1.557888181761294538e-02
-2.760809775678959785e-03
-4.235612436145250702e-03
4.807798536942461259e-03
2.027309046895876821e-02
2.840946651817250618e-02
1.055606243124311734e-02
1.579015443641950886e-02
-9.035102383760351338e-03
-1.045424943483914439e-02
-6.822796552112662775e-03
-6.691085584407272836e-03
-2.175244943071572706e-02
-1.037674941622758126e-02
7.011469343727629901e-03
-5.852051131681716353e-03
-7.041003685001499205e-04
-1.218364820964210017e-03
1.370195237800287324e-03
-3.636890970039443564e-03
1.340649212588518151e-02
-1.761077252137478732e-02
4.335624016883176876e-03
4.438043744874757383e-03
-3.563988020807099238e-03
-4.026042419422764390e-03
-4.585682356474835540e-03
5.569224414288863854e-03
1.544359314203270876e-02
-2.397081866619596435e-02
-2.865878743518604846e-02
-8.769003908923109561e-03
3.847272351940331236e-02
1.291087850938499142e-03
-1.719278421426012962e-02
3.783508879735110269e-04
3.844923196624992073e-02
2.563438158798236541e-02
7.577104569419140616e-03
-3.847767421182886945e-03
5.228741362469068723e-04
-1.001232852237761602e-02
1.842560516352877154e-02
-1.795393099350559019e-02
-2.034593852011108706e-02
-3.070358532046270697e-02
-1.177338230227438498e-02
2.125712893398594774e-02
3.757235788552391181e-02
9.632887972571790164e-03
-1.166428027552715053e-03
7.892159100854693674e-03
-3.271113824264653552e-02
5.367241194577757057e-02
-3.261538990272423982e-03
-3.811990006636448245e-03
-3.893468039262742986e-02
-5.045096828346242943e-03
-5.302277901645759128e-03
-2.724559412085484755e-03
5.407731585836205758e-03
-2.924273762115551026e-02
-1.988473723141269411e-02
-9.150038304379652654e-03
5.700264193923424219e-03
1.265794236229247569e-02
1.190773676737593226e-02
1.447759137665872303e-02
1.353397845669731397e-02
3.021349577110894399e-02
-4.125220685787708494e-03
1.432315540611505192e-02
1.578186921170484855e-02
-1.340848216543390377e-02
4.075638227441062971e-04
-3.341127065685873133e-03
-3.985125429476542996e-02
-5.748813561036286192e-03
-6.766491182274434607e-03
6.985443413351248229e-04
2.795624021875640214e-03
5.434917591277034325e-03
-1.232005592564506570e-02
9.295589578124029487e-03
6.610685136343959385e-03
-2.917677181813920721e-03
2.403190223206587081e-02
-5.820063952017279349e-04
-9.161554802471256684e-03
8.291877693428815685e-03
-5.812149838183775820e-03
-7.778783883725524234e-03
-6.071607824098507883e-03
-1.110645523257362127e-02
-3.733542616688640108e-03
2.764233163423138878e-02
2.084648160053193065e-03
1.046701636524302072e-02
-4.305152098101207303e-03
3.281839482649418199e-03
-2.433068569481356205e-02
-1.407633590347660661e-02
1.013022973716675053e-02
1.262837147112091940e-02
-1.236351763175945993e-02
-4.544061719382855649e-03
4.503077788870502203e-03
7.601414580875969201e-04
2.962094799373170707e-03
3.248932020134425586e-02
-7.783463715578679658e-03
-7.481413179859348894e-03
1.037044705354356854e-02
-7.402373557381745212e-04
-7.154686511965952650e-04
-6.323934930378552000e-04
-2.550679085947719915e-02
-4.007926352492291087e-04
-1.039356484706740634e-03
7.350337691851120420e-04
3.146700922380251276e-03
2.130295227025650923e-04
-1.126554411964074713e-03
8.907669054702865071e-04
-2.418827587818171872e-03
2.425710738744821585e-02
1.546838004312344091e-02
6.673445400541684093e-03
-1.054327379446956883e-02
9.950592401863331965e-03
-8.149406485705064374e-03
-8.189080916137115446e-03
-2.946776403666491809e-02
2.553190128793949784e-02
2.031206024403469507e-02
-2.831343095804514983e-03
-1.317243857361541739e-04
1.829775608485525919e-03
-5.454997757990180662e-03
-8.715172145136115128e-03
-3.054049975579274309e-02
3.745600610037456719e-03
7.723303837574985002e-03
3.665544861915694813e-02
2.201667754396472842e-03
1.611821668222588461e-02
-1.167975420349598795e-03
-8.480104330500708859e-03
-5.679615775254143184e-02
4.929992707809333075e-02
2.772794345189593182e-02
-1.257351263984462370e-02
1.713895061180406923e-02
-7.705661036641301906e-03
-1.358262815661641192e-02
-4.354985288570300053e-03
-5.595003402012069943e-02
-1.589636561192115868e-02
-1.872566967970379359e-02
-2.073225296345598129e-02
-1.285870674188508214e-02
-1.159638032954132467e-02
-8.639130123145790513e-03
7.581040839513238701e-04
8.769040136570183108e-02
-1.067295671897218468e-02
-7.179652194648278307e-03
6.012744577500272851e-03
6.079273232013756786e-03
-2.167452606205719137e-03
1.262834189104210768e-02
-4.483063508769209726e-03
-2.172346719607488852e-04
1.730686161755823349e-02
9.803594926767553869e-03
3.195580576017061775e-02
-1.190459688990234965e-02
-6.135393813274011773e-03
-8.111801611760288341e-03
-1.468811560956670209e-03
-3.144565842860309879e-02
-1.940025744854049702e-02
-2.277154410631662337e-02
-2.788646632780103149e-02
9.514778703739881771e-02
3.975489082475038016e-02
-6.683457315113737474e-03
-2.254447236166947505e-02
-3.561648030270778836e-02
-3.727731776284446547e-02
-4.095034772213673735e-02
-2.692315051863498204e-02
4.916202843969126948e-03
-7.426400321763627346e-04
-5.727617804606279991e-03
9.378636081926513407e-03
9.732623491450316522e-02
2.010051841740985445e-02
1.993755090161702589e-02
1.287140195462087994e-02
-2.910741753262487217e-03
-1.432612613654393914e-02
-1.527205668263952910e-02
5.487503082164097053e-03
-2.588804978336588583e-02
4.866679752312689199e-03
-5.928108666287544744e-03
-4.577769098848316447e-03
5.887027781031920967e-03
3.501809520833197575e-03
8.778582511963070947e-03
-9.977669166719820015e-03
-2.550552634285198784e-03
-7.378411951904183599e-03
3.470689001206594265e-02
-2.275836889271793187e-02
8.202498151986626425e-05
-9.707791830892592913e-03
-7.567044911736376701e-03
-3.690322211660829708e-03
1.631302480532610330e-02
-5.567915584841197710e-03
-5.545709932458242793e-03
-3.482166475434876878e-03
-4.186755801293465078e-03
4.471342635373120006e-04
-4.527149929600503405e-04
-5.095616823958108201e-04
1.929769020584633579e-02
-4.487425624673752750e-02
-6.229175345340078745e-02
-7.824745777132532942e-03
-4.254565514483057281e-02
1.169091631458878990e-02
6.773939291784720172e-03
1.243114849204217734e-02
1.266404065236857723e-01
-1.905960930924164307e-03
-1.247481977931944562e-02
2.903261940422051293e-03
4.545685393804609412e-03
-4.062283002598277362e-03
5.346852360565184509e-03
6.936047225938025106e-03
-1.288783207887979777e-03
2.452736392851897779e-03
-5.815845737279240089e-04
-8.775527275992755106e-04
-3.643298746343163162e-03
4.450736239753738839e-03
3.484279420662218883e-03
-1.139510073435374147e-03
-4.145805932162116396e-03
-4.975078029972731380e-02
3.821563322821176084e-02
2.556954344633508014e-02
3.353228675582860252e-02
-7.431556833097302701e-03
-2.763832703512440411e-02
-9.854616467442876143e-03
-2.642182794983553677e-03
3.755765100734841100e-02
-2.185804250530538548e-02
-4.286848173311687271e-02
-1.367191286238863233e-02
-5.325145065712947982e-03
5.169411924447362035e-03
3.071466487335248671e-03
3.792505274739282894e-02
2.148274435920791148e-02
3.208641035566146132e-02
-3.610914290705590640e-02
-2.725716597972955776e-02
2.566161350054120202e-02
1.567591987588219660e-02
5.754236837388766214e-03
-3.729461604189607260e-02
1.215833580195597313e-01
-1.365008596668531443e-02
1.549826737216523399e-02
-3.636060263567648942e-02
-2.133639191197077636e-02
-1.933195738947273562e-02
-3.064807947243335801e-02
-1.575450801548623075e-02
-1.186571744671559465e-02
-1.035339454995882862e-02
-1.673112355865360307e-02
-8.134324657960510796e-03
-1.235078951444330657e-02
-8.347674063649213744e-03
-7.135307816485359812e-03
7.491833160786640078e-02
-3.840588921750368728e-02
-4.634222946430042317e-03
2.525156714685782358e-02
1.536506426328821014e-02
-1.211883138803481266e-03
1.033213951340527896e-02
1.153959074497483764e-02
-1.823636636578891690e-02
1.196777716658386766e-04
-5.823694181332879838e-04
1.288827638777371824e-02
-9.204953831227982372e-03
9.435092483300703018e-04
-4.215376149386868172e-03
5.108597754126398141e-04
-4.596237844341283718e-04
-1.647749686526720631e-02
-2.190177169973695978e-02
-1.459165987719998267e-02
2.024117674039211875e-02
2.258929336298910392e-03
4.715312830989915049e-03
7.484726887406448377e-03
1.827078264711677266e-02
-8.864421487406308822e-03
9.619348224291479274e-03
2.309573036109090205e-02
-9.304890471226063067e-03
-5.305493393462042129e-03
1.250353310980727162e-02
3.195877830054473685e-03
-2.493968417314970307e-02
-1.591649589933612219e-02
-2.516723210912425249e-02
2.348040280794078810e-02
1.274308545530138462e-03
6.188234451283011750e-03
3.354351013243384461e-03
1.904832968695620863e-03
4.881598221767433424e-03
-4.535540021136156424e-02
-3.637929782460071204e-02
-2.077475587693259490e-02
-4.121036878460457818e-03
2.666294721204291035e-02
2.001358868341632583e-02
1.218967475086041308e-02
4.776428014503568409e-02
2.160956004827293761e-02
-2.517538176777974965e-02
-4.551053981601960174e-02
-2.588064130592615184e-02
-6.412397403104510944e-03
1.402700326782118506e-02
1.036472453878682989e-02
5.697767243794907982e-02
-2.230044299823815551e-02
7.176440681471986383e-02
3.522186688196998067e-02
8.032055552129655981e-03
-3.089260224862988829e-03
-1.787284239622615942e-02
-1.912921961649897626e-02
-5.262656401299324604e-02
3.647915258216868212e-02
-1.954246947882426477e-02
1.030141130130501209e-02
-1.104917018023262448e-02
1.165280664024659352e-02
-1.281525354131286300e-02
1.564677165346421359e-02
-3.067324897681475079e-02
-2.108402656531034938e-02
-2.799182964785679878e-02
2.373570331631203248e-02
1.913559890059564339e-02
7.228847007566618389e-03
-4.126179438332086558e-03
5.465235479424531036e-03
-2.363349052399606621e-03
-1.420494221781268100e-02
-1.143110761696439128e-03
-1.080945117967486990e-02
6.156593919636815185e-04
-6.941976102376823908e-03
4.930153100242056462e-03
8.463367811645862784e-03
1.909029995770920862e-02
8.181770369909079077e-02
2.125468224838819803e-04
-1.180785891623678877e-02
-2.456916173815571966e-02
-1.147387598440280029e-02
-8.925561713162359287e-03
-1.423224506828545549e-05
-2.523955992454870664e-02
4.260060759611406303e-03
-1.027724606608291548e-02
-1.451500242940708665e-03
-9.070273808943971061e-03
-1.060551826132976932e-04
-8.234204338645190191e-03
-9.165845875695865369e-03
3.404506475531054316e-02
-3.304276221575286332e-02
1.299657315689693097e-04
-5.232691735743632503e-04
4.836668688555860462e-03
8.211934296063708866e-03
1.045982356936321980e-02
-1.130946343714311214e-03
1.105858544748974243e-02
-2.573329502776002323e-02
-9.188127506306690076e-03
-7.923846472778373756e-03
2.153641319775470922e-02
-9.264367266590739849e-03
-1.037191234599238281e-02
1.084816152634836620e-02
3.009697389532513950e-02
9.861913058058634218e-03
-2.133761184952064419e-02
-4.050136228423845824e-02
-1.664620491642769887e-02
-1.159893780266845441e-02
5.751023337241775377e-03
-2.115138581442062814e-03
7.658631903899691673e-02
-3.289219892978063192e-02
2.890962504068975841e-02
3.697109853753587777e-02
7.818187783823839264e-04
6.394330944682494709e-03
-4.504680850698523399e-03
3.921273094443274675e-03
-3.958126661525461498e-02
7.293670237180145677e-02
-1.402220614111924970e-03
-1.080351886020202573e-02
-9.871784077850750353e-04
-2.136334773580308294e-02
-9.728873437714313441e-03
-1.759743448333607116e-02
-1.105412883284898236e-02
-2.085035017621427941e-02
3.447323114867879151e-02
3.952253002437287888e-02
3.871188666833327158e-02
-5.022686568723181560e-03
-1.674520856026975174e-02
-5.679365002289571765e-03
-6.441003753388817310e-02
9.205016653671900528e-02
3.385797747501603436e-03
-1.290290136960197710e-02
5.137019281346082329e-03
-1.728287145533067767e-02
-1.232824213300480476e-02
-1.180346101798993713e-02
-4.625550758963919984e-02
-2.327655839263642612e-02
-1.280425962395832047e-03
1.049147129339731040e-02
4.090977771704133736e-03
3.349511159841638951e-03
8.819467961446036605e-03
-1.242576973302112614e-02
1.023132590166427047e-02
2.267388690226996781e-02
-4.282481395532299756e-02
-1.836132610555570380e-02
-1.260515801907611221e-02
3.775096236839610778e-03
2.310152054656130702e-02
1.063574863915313709e-02
1.360504575513080475e-02
-1.448385946526996143e-05
5.883168731951023828e-02
-1.161934973491620879e-02
-2.887253887996577353e-02
1.834183709464930548e-02
-8.645776590802753273e-04
-7.240095609084314446e-03
-2.856247867164771886e-02
4.965700603167098708e-03
-1.348809100512572950e-03
-4.947245209895106358e-04
-1.429099457084203250e-03
-8.212321901195429119e-04
1.201554294035735290e-03
-4.555147239937074499e-04
-1.617874904503293493e-03
8.332834961494983358e-03
-3.953642181992855949e-03
1.419575055093486894e-02
-2.073926627657094249e-02
9.820900012492152741e-04
3.009372022738071150e-04
-4.377274944100237666e-03
5.258570686711148620e-03
-1.473934957226863624e-03
-1.134986188586547791e-03
-1.134404225783248749e-03
-1.031214765524944565e-03
-8.638242072853215183e-04
-8.555924883915683610e-04
9.652757856724272128e-04
5.528681047126069240e-03
-6.135448727263407426e-02
-3.065460871674412224e-03
-2.586874458801553117e-02
3.683277986046597924e-02
2.244128262012841379e-02
1.495499419998318029e-02
-3.918649481609859375e-03
1.997828553335633320e-02
-4.790573083838070567e-02
-2.885512446387707500e-02
-2.045465824934906279e-02
1.693617638739806919e-02
-2.622799956024693055e-02
-1.097693627507191454e-02
1.359770026123484701e-02
1.038865727382927845e-01
-4.851980095739573916e-03
-4.169752189957978694e-02
-2.537403417919477724e-02
3.880338862530366677e-03
-1.876541465555093408e-02
-6.604280881752682721e-03
1.130562691421940422e-02
8.210726593506799398e-02
-5.122528591490457112e-02
-1.916137241167516561e-02
1.044616477963126143e-02
-3.232893341693346499e-03
3.226419459606771900e-02
1.902403724232448051e-02
7.765042967114808153e-04
1.110865075353813930e-02
4.709271183505246705e-02
-7.582524548331311988e-03
9.509758526822474634e-03
-2.819009344621057137e-02
-1.900086713218703677e-02
-1.502430718725021770e-02
-2.858018794802439939e-03
1.605334074690662610e-02
3.624058176416213722e-02
2.609220115962314693e-02
3.902593351316202466e-03
-2.068340469920445721e-02
2.183119385184033312e-02
-4.252733839496511230e-03
-6.737864318510284646e-03
-5.639256726973061046e-02
1.727225424213689464e-02
9.143312363120539507e-03
1.966947846163058164e-03
-1.350679883733366463e-02
-1.429706355536390291e-02
5.368077267000866473e-03
-2.110730926896719947e-05
-5.925622016454837673e-03
-6.822060736160986960e-02
3.803677407162951024e-02
3.907308590313244429e-02
-1.329337194532202076e-04
-1.030830745177789901e-02
5.181967629488499951e-04
7.422614074761968439e-03
-6.388822279631769727e-03
3.860194627864294709e-02
-1.562064423774661877e-02
-3.612603463599683984e-02
2.245424962414157080e-02
-8.035655518508178288e-03
-2.279380958959820874e-02
1.181346643816583164e-02
9.706481640899520397e-03
-3.665782322187600278e-02
1.401789436146144230e-03
4.449235150173269648e-02
-7.334701376087775400e-03
-1.166077256905798630e-02
1.794530412505639799e-02
6.365211201352459838e-03
-1.455135909726593471e-02
2.782947173267356650e-04
5.280258695094922940e-03
-2.127928453733262510e-04
8.469425386165433875e-03
-1.574845728288656660e-04
4.753047487862958193e-03
-6.931446596015270953e-03
-1.147930227223258569e-02
-1.332048020823622600e-02
2.855351847061611895e-02
-4.369196410059167715e-03
2.919759642380277687e-02
7.953793626334713929e-03
-3.954499983769323157e-03
-2.850836823894229138e-03
-4.120989509479466156e-02
-2.753707205658854299e-03
4.527574148986564760e-03
-3.994416644739622892e-04
-9.264316405512896570e-04
7.024340980951985667e-04
-2.799077378096781281e-04
-1.615114862295613561e-03
7.445948637076323312e-04
0.000000000000000000e+00
0.000000000000000000e+00
0.000000000000000000e+00
0.000000000000000000e+00
0.000000000000000000e+00
0.000000000000000000e+00
0.000000000000000000e+00
0.000000000000000000e+00
1.090422445930300070e-02
1.544252495088670662e-03
9.296325338749605221e-04
1.084132861370668173e-02
-4.030292383965011251e-03
-6.527831297170874278e-03
-3.122406097029141545e-03
-1.053890832380829402e-02
-1.081161576849098103e-02
-2.038122815681759140e-02
-1.286478756643462396e-02
-1.113066794111972763e-02
1.162629894067168657e-02
1.192488749798764625e-02
1.067775326522609446e-02
2.095935972897751409e-02
1.182606112398475358e-02
9.004152839132910369e-03
3.636898837348480351e-02
2.661455401305782512e-03
-1.570553194193397353e-02
7.527085499873546401e-03
-1.773067693462962446e-02
-3.395153436121822049e-02
1.251162940904242127e-02
1.653477706516665036e-02
-5.267401682951516201e-03
7.608924162322641856e-03
-1.687607473008622544e-02
-1.037227001149234121e-02
-4.521956504710589772e-04
-3.687388561530583961e-03
-1.425797722801997944e-02
1.666075943725441738e-02
2.604676863074632809e-03
-6.893276366515765051e-04
3.131843151853645583e-03
8.008313122420805674e-03
2.481726202102131542e-03
-1.794001391203408832e-02
2.496842210012786660e-03
1.211146692407694125e-02
-1.008440537325107182e-02
-9.024387330606519571e-05
-3.095846971308657825e-03
4.517748315892316895e-03
1.016126209500538106e-02
-1.601682332712161747e-02
-8.774145779489541828e-04
2.644049458431020280e-02
-4.263861937358714820e-03
-3.348712111914594995e-03
-4.156433570110148502e-03
-1.067026795634543328e-04
-5.118989738092484705e-03
-8.568379969321844244e-03
-7.180138293815541313e-03
-6.216732567029342738e-03
5.986338039240448466e-04
-1.142343833099241810e-03
4.287175521781847604e-03
1.377096249141962492e-02
4.144758637050736071e-03
-8.262315760232128228e-03
-1.014833920414194568e-02
-1.009165225479263447e-02
-4.282061851231390263e-03
6.117148114675652858e-03
9.151641851000419728e-03
1.074873818206748682e-02
-3.071372342168315981e-03
1.575897504590717015e-03
1.479141383019413067e-03
-4.259274077370323324e-04
-3.722250529243763695e-04
-2.388060958469467973e-04
-1.467577900604794320e-04
-1.090739931503912220e-04
-6.838656187779557126e-05
-1.179644814223917629e-04
-7.527151253577425705e-03
-7.566407520698201390e-03
-9.813284190659673188e-04
9.297647289890097200e-03
7.665386180184410522e-03
-1.039282523237469291e-03
1.815685527428094568e-04
-3.043230623824474674e-05
3.484119999952067261e-03
-1.135840882873509483e-03
-1.354706179967691236e-02
1.255275839423396211e-02
4.627140237767001472e-03
-9.435816505772706350e-03
-3.003409577852767659e-03
6.458110134222871945e-03
-1.066210927179297649e-02
-1.918215875903481193e-02
-7.483881458889431182e-03
6.620869932349009992e-04
-4.093889551568483456e-03
1.999522402813459082e-02
1.328600538045234111e-03
1.943612748187097811e-02
8.411839508746185318e-04
4.465456279968605183e-03
3.608323953764824583e-03
4.553747197334809434e-03
-1.778536417765331709e-03
-2.041132859571633679e-03
-2.730396259815676303e-03
-6.918645844790219726e-03
-6.373003970316482025e-03
-8.520237268223342358e-04
4.938136088359730211e-03
-1.114717885411944595e-02
1.509927408681488795e-02
-6.030365550645045390e-03
9.209786212604641545e-03
-4.844624285875942342e-03
5.112091826665836510e-03
-1.695479574177020249e-02
7.999461274477797073e-04
8.458598411295837130e-03
1.047577313515225816e-02
-1.543578625192163108e-03
-1.179388863088670115e-02
5.445853497287348952e-03
1.980301127711942694e-02
2.548608691829441341e-03
-3.158792153922902312e-03
-3.307037400549806081e-03
-1.527802517499577458e-03
-4.067047962225871748e-03
4.292935198015048262e-03
-1.458387513276575287e-02
-9.059979955640246312e-04
8.028479364678475826e-04
1.384054563016232173e-03
4.397034979698702557e-04
-8.661003734466660251e-04
-6.939272955801383804e-04
1.166754095055931324e-03
-1.327334427919051648e-03
-1.108053221197504009e-03
1.459529191089364158e-03
-1.447767021825917353e-03
1.389044601883645006e-03
3.760772019092552959e-03
-1.121517423111918592e-03
-9.010353030812237552e-04
-2.030972842848999607e-03
9.595387621280723354e-05
-5.177365893662826428e-04
-2.273658669023439257e-04
-1.241080179399131709e-03
1.417774602165073131e-03
-1.545774573463257542e-03
4.933801250424297213e-04
1.524848605710705423e-03
-1.446003612550153181e-02
-1.607631204688488025e-02
1.135562812102341654e-02
-3.300035103518067156e-03
4.854064345515453002e-03
-2.403301634803901117e-04
-4.219579414656922725e-03
2.208660038750292001e-02
-1.162641668024409075e-03
2.818332043388338190e-02
2.870190273292027444e-02
3.464052058750008347e-03
7.609160962588559438e-03
3.537289275683113809e-03
-1.451004820962964285e-02
-5.582303558617125738e-02
3.401445030434521732e-02
1.521730756030704665e-02
-1.071103542084171287e-02
-4.894440542590999810e-03
-8.152567883062393495e-03
-4.403233971220616404e-03
-7.743764158229400271e-03
-1.332671588870711424e-02
4.398978298428789235e-02
2.545544085632628004e-02
-3.843263708913055576e-02
-1.175804499511394832e-02
-1.135105301961938581e-02
-1.103921265328288923e-02
-1.082300485157428136e-03
4.218024401690016224e-03
5.318743786046022798e-02
-8.345835988942286801e-03
-1.231785279446752021e-02
-1.684854002190546221e-02
2.671720017351262612e-03
-1.501438705389858408e-02
-3.501470938096503706e-03
1.689289194988689922e-04
-4.287347449540507976e-02
-2.652450624835039211e-02
-8.137129252352109585e-03
-3.301053845278621376e-03
1.768669141493822705e-02
-6.785593029476170990e-03
1.663023154616628113e-02
5.330483390975790381e-02
1.078719371241876855e-02
1.063457530771284507e-02
4.066027766933155707e-03
4.509261122305880352e-03
5.096639204866353079e-03
-3.213036725694546833e-03
-8.678728163412524968e-03
-2.320193222512995090e-02
-1.619053144028901464e-02
-1.762042162990110419e-02
-7.767049425410323116e-03
1.292650034384979982e-02
1.716161216007772161e-02
-8.214542214006290144e-03
-3.684542838410049138e-03
2.338897504408926284e-02
-9.251807949765386910e-03
2.977179243704796210e-02
-1.048605945295463283e-02
2.527372384972119412e-02
-1.833525286376727972e-02
-1.080340483569107446e-02
-1.074641703808754210e-03
-5.094349480782012045e-03
2.563438158798236541e-02
7.577104569419140616e-03
-3.847767421182886945e-03
5.228741362469068723e-04
-1.001232852237761602e-02
1.842560516352877154e-02
-1.795393099350559019e-02
-2.034593852011108706e-02
6.931342398805955115e-04
7.001546840557710226e-03
5.550976228685091524e-02
-4.752095648222374666e-03
-1.905959304512539962e-02
-6.006591361900552421e-03
-8.777278176018556838e-03
-2.460888513602236746e-02
3.898392162307015140e-03
1.312068656434852007e-03
5.146787971561224591e-03
2.006430487952117533e-03
2.516423509876372731e-03
-4.773286761015666999e-03
-2.800993738052800401e-04
-9.826716653310630517e-03
-9.723834713392377066e-03
-2.227905058621721876e-02
1.649397487931535122e-02
-5.210553627853734861e-03
1.156880363967873089e-02
5.238758544636293139e-03
-1.704921235713717075e-03
5.616823099546672075e-03
3.103251242919177083e-04
-4.546003530256825711e-04
8.690798784287535536e-03
-2.245342732747501995e-03
-1.669222180029394324e-03
-1.266986431935792582e-03
-1.040896139502872717e-03
-2.324076071338207917e-03
1.459973313906249995e-03
1.377700241492050030e-03
-4.873985265620387071e-04
-4.187391147163714968e-04
-3.919760492370063338e-04
-3.141378387054989088e-04
-2.703020057462163163e-04
-9.551200204311697259e-04
-5.946341441128985723e-03
-3.325357733838190874e-03
8.168376774165621995e-03
2.640675466936077357e-03
1.055629984870051601e-03
-2.738583262960952655e-04
-2.400653166358049435e-05
-2.295118193044897847e-03
1.076141853186147850e-02
1.803333183249664767e-02
-9.225289292055323734e-03
2.163894083938019269e-03
-5.032719165533530194e-03
-2.228670563903956386e-03
1.078734996432513353e-03
-1.555070042323584804e-02
1.289358527194378948e-02
9.010125367542663744e-03
9.046424595595443582e-03
-7.884386174694632196e-03
-4.467264866660828476e-03
-2.484080102878063329e-03
-6.023886371308525590e-03
-1.009051771953984808e-02
1.817535327858009475e-02
1.112656822986019672e-02
5.741554915739454160e-03
3.170575131183864682e-03
5.502563995884663176e-03
-2.630038008288808349e-03
-1.267897992401514039e-02
-2.840759761894433300e-02
-2.870036129656749167e-03
-7.585303635906549477e-03
-4.885218796733443308e-03
-5.146278472696215293e-03
-2.776417191561396727e-03
2.721305753230217925e-04
6.046360567038342035e-04
2.238648759452750020e-02
-2.154982322810852433e-03
-4.420290747675172972e-03
1.512296963213078087e-03
1.091118552862383601e-02
5.272562764123129957e-04
-1.883560827345441991e-03
4.148085243724466313e-04
-4.906713394790211853e-03
6.661224712367937520e-03
-1.724168459013107266e-02
-1.008322189917170569e-02
7.158344801802525061e-03
-8.205943963409461847e-03
2.591527247542094615e-04
-3.096072835997248918e-03
2.454820104978481729e-02
-8.342451374659129535e-04
2.440753713201438812e-03
-6.766119588782410540e-04
-3.705196520654967934e-04
-1.830888480498783744e-04
-1.164947965000107355e-04
-8.400316039626539041e-05
-1.757901598456328737e-04
-8.883890399266358446e-04
1.214493930068685605e-02
-7.707645258033760105e-03
3.387807533452396030e-03
7.025561985436854125e-03
-3.724225649809885432e-03
-2.866010867078730862e-03
-7.372038004727095480e-03
1.158113818709117018e-02
2.963516733261904127e-04
4.226252440095823286e-03
-3.540994946387898603e-03
-4.887701504313446410e-03
1.693044155338459429e-04
-2.305155470905563379e-03
-5.539194794440118613e-03
-7.412896133665465830e-04
-1.457216088587857646e-03
-6.694829418708075821e-04
1.012145580859663552e-02
5.644749626114942348e-04
-1.793593555206874626e-03
1.886069275725083373e-03
-7.910417847901127231e-03
-9.940658119611913909e-03
1.430402387112913488e-02
1.445318078743355536e-02
3.265178720353127933e-03
-1.210863483742500874e-03
-3.914943955870626296e-03
-1.114756027246876146e-03
-1.584116179244391548e-02
2.814055705477388689e-02
-6.438397765312822013e-03
-9.897091626931831324e-03
-4.153960975880948044e-03
1.056827154043047615e-03
9.402071643016114656e-04
-1.663435943707590372e-03
-7.984705061285348252e-03
2.972848291181104038e-02
5.324995110315342700e-02
-1.194218636037632300e-02
1.177677112644098974e-02
-1.029285847485124361e-02
-1.161140806762159770e-02
-1.266092610733173321e-02
-4.824782613122456654e-02
7.720523735878161153e-02
3.029388537239031606e-02
-7.708423554901679998e-04
-2.678184499292123391e-02
-2.640435182212876042e-02
-9.631313041300337136e-03
-5.295040360309137550e-03
-3.861573015902230316e-02
-6.158518103373725357e-03
-6.567776550615099518e-03
4.538286596315827871e-04
1.802683003906284821e-03
1.204341311011076967e-03
1.709807568101000741e-03
2.521328889747915841e-04
7.303501222364091119e-03
2.128119692783887317e-04
-6.264521141415102523e-02
-8.004871094779614921e-03
-1.785898925782484353e-02
-1.722230490552640117e-02
5.171327049589604860e-03
3.545601887457830101e-03
9.680163576595610109e-02
0.000000000000000000e+00
0.000000000000000000e+00
0.000000000000000000e+00
0.000000000000000000e+00
0.000000000000000000e+00
0.000000000000000000e+00
0.000000000000000000e+00
0.000000000000000000e+00
-2.394028384378494613e-03
1.017492773506748459e-02
6.722122437940395833e-04
-8.177392682786064140e-03
6.834000220591061707e-03
-1.046539974616760883e-02
-6.443382156016925176e-03
9.799062769896504932e-03
-9.620937821403784162e-04
-1.352178087483588403e-03
-1.337467244121544113e-03
-9.487815061469784912e-04
-7.577405464266059138e-04
-5.419822852261212479e-04
1.275998622100852145e-03
4.624244829444366066e-03
4.193721265816985691e-03
2.022885027986262053e-03
-1.219202564707817034e-04
4.693771077581580277e-03
1.520925201644856770e-02
4.006116416482695224e-03
-6.851625362675771436e-03
-2.315220018516954067e-02
1.029368628328475137e-02
-3.797188127894493125e-03
3.298655607116514777e-03
-7.055529133499010945e-03
-1.080637282661011007e-02
-7.556347096267207464e-03
-8.242487317230500279e-03
2.386558261110005574e-02
5.617313949243666824e-03
1.266037200691968317e-02
-1.703825380376228216e-02
1.548105272839671136e-02
-1.563650100320593261e-02
-1.564100376027898831e-03
-1.773607363714566759e-02
1.821619013558174391e-02
-3.369303565031793414e-04
-2.655253940994153558e-02
-2.075543270003884014e-02
2.631344681297100203e-03
-2.931721704173170275e-03
-1.129475084631619518e-02
1.961619556642943407e-02
3.962383476924638548e-02
-1.683194153283122663e-02
8.610902148009386137e-03
2.518184633653634125e-02
-1.047607694107616531e-03
2.221803415398765846e-05
5.329515457600876409e-03
-4.743220710838759631e-03
-1.652171203852298778e-02
-1.640212093999775592e-02
1.828561345270493218e-03
2.000338810056663530e-02
-6.297329960083350442e-03
-9.790723148006186607e-03
9.303456892852503615e-04
7.811307597031052173e-03
1.916571315933852590e-03
1.862806650508047265e-02
7.441215424002594475e-03
-2.333987156445658379e-02
-1.311299057119550381e-02
5.683218727940801684e-03
-3.811341877840035679e-03
-2.046670921540621330e-02
2.897841257187446645e-02
-2.077073860171799874e-02
-1.001621966593819503e-02
-1.488753754439327802e-02
1.647163138181938213e-02
1.896872396932472449e-02
1.773043543023476373e-02
-1.852973040052625225e-02
1.103343543119685369e-02
2.079218105945610656e-03
-1.053765214117504193e-02
2.599826939004053900e-02
-9.861001814684437414e-03
2.008248513548162566e-03
-2.228158289744968084e-03
1.134203636815937603e-02
-1.880096013208923736e-02
-1.223700064666607967e-02
7.554162427706186123e-03
5.972178979161061989e-03
2.871538004884148076e-03
-1.713513134830467813e-03
3.975415138302525186e-03
9.878287070043312215e-04
-7.410609475561703158e-03
7.776336438453859169e-03
1.308185613324741418e-02
-1.443083182477180020e-04
-3.709816052427341877e-03
-3.250080454767802218e-03
8.390620906251096411e-03
-3.432344100296326299e-03
-1.871226455221318766e-02
1.060839062880613096e-02
-4.535757267931300046e-03
-8.531908063172201351e-03
-1.315948303277590268e-03
-9.350223898498665615e-03
-9.622875322008251145e-03
1.134902305483705999e-02
1.139929917124480295e-02
-8.001121976833685048e-03
-2.790628546970545104e-02
-7.762243039296209783e-03
-4.523271013360323847e-03
-2.088212320711668474e-04
2.015968852684887902e-02
4.071920382922178047e-03
2.417013382149577755e-02
-1.453857376942305907e-02
2.891211116845076451e-02
-1.294918659292499221e-03
2.459411565322440658e-03
2.949575451072437935e-03
-7.040064672032380656e-03
-8.112424245092357295e-05
-1.136641684164677035e-02
1.642845997295710320e-02
-8.184916890052941919e-04
2.671460915612980033e-03
-1.954668282588529029e-04
-6.115762679356450716e-03
-3.534462105661131687e-03
-2.622770677057477970e-04
-8.173460518582602655e-03
-4.876096904161417514e-03
6.490738851238098475e-03
-4.274924347334610117e-03
-6.010104792319498693e-03
-6.435082404663777268e-03
-6.235444837003701951e-04
-4.299288413056515275e-03
2.002830249399810067e-02
8.520860389439848318e-03
7.891654039950068977e-03
-4.077089480066410990e-03
3.289049675039364736e-03
-7.391838509395332740e-03
-6.737144273634271090e-03
-8.100959046602615454e-03
6.605467205269350411e-03
1.610480647793090594e-02
-2.434329480698881401e-02
-2.357039323255434582e-02
-9.473354227269805208e-03
3.030617926993582362e-03
1.769596025045178794e-02
9.552197628806269325e-03
1.100345998263041990e-02
-1.416272292375743078e-02
4.089032003087140349e-02
9.593946176956748631e-03
-1.629598227618693496e-02
-5.258889315873453360e-03
-1.136486295591727404e-02
-5.428942667606757172e-03
2.027133931513681701e-03
-1.686155088995201778e-02
4.545603351056295982e-02
-2.761168618900937486e-03
-8.936792030458790698e-03
-5.587869569947215590e-04
-6.665812781253146503e-03
-1.257565766522302994e-02
2.903735432219682958e-03
-4.788539867756259893e-02
-2.725931204290813880e-03
1.368990057408617581e-02
1.648874728968922898e-02
8.548984329669941443e-03
4.496371999120185765e-03
1.221793624522752621e-02
-4.830610555939651891e-03
1.578771934368141533e-02
-3.212438518685854782e-02
-1.265608879977238484e-02
-1.124794613983624500e-02
-3.033224977140059134e-03
-3.881488270647482069e-03
4.897199720771329423e-03
4.225821430980200577e-02
1.623619746335606961e-02
-3.042545341916068607e-04
1.494934813397948842e-02
5.185822614441999538e-03
-1.020222619301852131e-02
2.343568152532177293e-03
-1.840533908502207244e-02
-9.803116552077537071e-03
6.557804273472203783e-06
2.800763542526544039e-03
2.109626114368801184e-03
5.950598097060675988e-03
3.154891139044000326e-04
-4.048716827126075044e-03
2.775194807131679993e-03
-9.909512652139499181e-03
2.607240446823328155e-03
-8.691976195107019645e-03
1.868295753788110666e-04
-5.560820661924274246e-03
4.991472293148373034e-03
-1.793314408997564503e-04
-3.218569037864621712e-03
9.865155020445165110e-03
7.814565855480024373e-03
1.992536746607948342e-02
6.174934162509970736e-03
-6.601429350756617132e-03
-8.125768468284132184e-03
-6.710670834610335880e-03
-5.525148121478872659e-03
-6.951850708939525877e-03
2.802739277513736568e-02
2.440967386714165081e-03
5.423913672068874335e-03
-2.318891511786751181e-02
-6.047922862542297849e-03
-4.473227598735494970e-03
-2.943846213324335589e-03
7.616379585492495359e-04
-3.729578156863060101e-02
-3.170608456973590585e-03
4.187145196665108433e-03
-7.904562489907653033e-03
-1.131193397555827434e-04
2.757521826120459471e-02
3.628802877677938989e-03
1.309290551971977606e-02
-6.708533723023196033e-03
-2.084982394846605913e-03
3.255765804532322061e-02
1.921940646594337771e-03
-1.946889657530295661e-03
-5.375473815675983758e-03
-4.995320795758222479e-03
-1.336839830508327123e-02
-4.264123702582246593e-03
-7.609694354145253234e-03
-9.868863959881027381e-04
7.432485815863180793e-03
3.470384073966709896e-03
6.103056130302737282e-03
3.278987559625088158e-03
-7.424209127042117468e-03
2.214359130231733763e-03
-1.606927943517620552e-03
-1.029359967871367127e-03
5.099969648190644592e-04
7.232946696388985620e-04
1.849664599380589211e-03
-8.542034265357636253e-04
-1.806824026145532848e-03
-6.901199371780870201e-03
2.309545772284062742e-02
-5.772270395395091153e-03
5.179509275594768904e-03
-1.847455165358147765e-03
1.942764748300085127e-03
-1.624932034415268751e-03
-1.407187477978609665e-02
-3.476552280105532026e-03
6.478417169103745966e-03
4.312260496154623514e-03
-6.378358150631784594e-03
3.584611596746792306e-03
-2.966881323333712874e-04
-1.541551758056938998e-03
-2.682138940877538784e-03
1.903665902174200147e-02
1.116211435465673703e-02
-1.367179839150156964e-02
-1.511020481661496696e-02
1.146899216922429073e-03
-7.481881690938770296e-04
-4.539303851270600626e-03
2.723822635159851673e-03
1.644081594202557658e-02
-7.209186378081073633e-03
4.419116654578580244e-02
3.258082386765511363e-03
-7.723832534302383507e-03
-7.466548887493494428e-03
-7.100715556556391750e-03
-3.438978151814353623e-02
-3.219182545103469427e-03
1.309483742718764096e-02
-3.772709133113408709e-03
-6.408142539744928791e-03
-8.047997018087334892e-03
2.511707354652134116e-04
-8.107023611909233663e-04
8.912725434587209783e-03
-2.660054237209303479e-02
5.124735600647435489e-03
2.312975233910705142e-02
1.559798399173548209e-03
4.246431178942940490e-03
-2.097878273713211887e-03
-2.921102216489153067e-03
-2.441194655575568487e-03
-1.674054597046351067e-02
-2.231434061784906206e-02
-2.137295394948429683e-02
-1.158590769372629461e-02
-7.441177998707194409e-03
3.456591733220638028e-03
4.063558013175926596e-03
7.193477648383382606e-02
-2.346916925995212039e-02
2.816464927953830216e-02
3.074791494138405523e-02
-8.519347942411828510e-04
-3.913669165139456625e-03
-1.613918576583832712e-02
4.221661902623322256e-03
-1.876026713837457977e-02
1.041690775413249559e-02
2.271218954583219610e-02
-8.268451449354423041e-03
1.317854044771375743e-02
1.999088492842566230e-03
1.241956386777234595e-03
7.253379573477517113e-03
-4.853361075142136050e-02
-5.137489807559797970e-03
1.459140007697997668e-03
5.769943893587816189e-03
3.068342480860592608e-03
9.922342934696071204e-03
1.456408480899495537e-03
-4.238685065950724765e-03
-1.230000292423144743e-02
2.530966773390886000e-03
4.602894020252469576e-03
9.904887191446267499e-04
-1.763696430236479182e-03
7.704134883987073931e-04
-3.613050337175288478e-04
1.608891088857676739e-03
-8.378652626090362168e-03
1.087970657933007941e-03
-4.239787521556148166e-03
1.154257342701103719e-03
2.142499044617071288e-03
6.623987356476635120e-03
2.971353484906217430e-04
-8.081334224371305736e-04
-6.257928806225161560e-03
1.519793266036874356e-03
1.224510390759878456e-02
2.325136013741243776e-02
1.353171291957512047e-02
-2.085031764288621664e-02
-4.548754760753302706e-03
-1.777596715648045722e-02
-7.372930670503231691e-03
-7.587759363265066158e-04
-9.025055203211771555e-04
9.162784633738348247e-04
1.100619262909437656e-03
-4.799389075721458659e-04
-3.737536942074235857e-04
-3.008351725333285008e-04
7.989115046773088633e-04
-9.355808959353189083e-03
1.956799186767782528e-02
2.394417529830420669e-03
8.481923782827333058e-03
-1.426060832740223956e-05
-5.273662751411573729e-03
-1.222283171358052624e-02
-3.577769147662904648e-03
-1.684544997034152433e-02
1.666492053514357502e-02
1.376247488212300508e-02
-8.501157093915408941e-03
3.976187681960796812e-03
-1.417815037999843771e-02
-2.976692620702361004e-03
8.097866965730355499e-03
-1.214888006638735127e-02
-2.246519074295854138e-02
-2.042978751011787636e-02
-1.030577614396924364e-02
-4.328131340927104075e-03
1.675036892614510491e-03
2.383394294911138963e-03
6.561933461683444602e-02
7.535699033620747549e-03
8.476863912998777555e-04
-4.361076065319156522e-03
1.751545350653638602e-02
-3.488491383043344253e-03
-6.260113802806151727e-03
-3.518946999395039174e-03
-8.270210680893320954e-03
-3.148036541490737122e-03
6.218545094032453500e-03
4.473707119236172529e-03
-3.155047379303556245e-03
2.852759074846307821e-03
-1.893474738454803625e-03
-1.509750190202429568e-03
-3.838702438663404038e-03
-2.241452408307548910e-03
3.557731023765831491e-03
3.292007483137266311e-03
1.672897406542616424e-03
-8.558539760353673894e-04
-2.045442848220000494e-03
1.637466660702839843e-04
-3.543633346953080441e-03
1.318373798899014418e-02
1.134331626703517608e-02
1.647262986984349142e-02
-1.633584861002028085e-02
-1.223437008613046870e-02
7.010451477709636614e-03
-4.385010478876437585e-03
-1.505490642855125856e-02
-2.072471027562539266e-03
1.158314084001618727e-02
7.921359405076334884e-04
-4.673490823071887318e-03
5.723347613567849896e-04
-3.532212618548707331e-03
9.027989194133397444e-04
-3.572235992110811900e-03
7.272629258986635162e-04
-1.618511396130280265e-03
8.933785304131549232e-04
3.431235842427705213e-03
-1.261485793987085838e-03
-9.855613942841600413e-04
-7.473429332317887367e-04
-4.389757811062082286e-04
-7.780850720706418769e-03
7.215240673559742204e-03
-1.939974929317387275e-03
-1.557888181761294538e-02
-2.760809775678959785e-03
-4.235612436145250702e-03
4.807798536942461259e-03
2.027309046895876821e-02
2.840946651817250618e-02
1.055606243124311734e-02
1.579015443641950886e-02
-9.035102383760351338e-03
-1.045424943483914439e-02
-6.822796552112662775e-03
-6.691085584407272836e-03
-2.175244943071572706e-02
-1.037674941622758126e-02
7.011469343727629901e-03
-5.852051131681716353e-03
-7.041003685001499205e-04
-1.218364820964210017e-03
1.370195237800287324e-03
-3.636890970039443564e-03
1.340649212588518151e-02
-1.761077252137478732e-02
4.335624016883176876e-03
4.438043744874757383e-03
-3.563988020807099238e-03
-4.026042419422764390e-03
-4.585682356474835540e-03
5.569224414288863854e-03
1.544359314203270876e-02
-2.397081866619596435e-02
-2.865878743518604846e-02
-8.769003908923109561e-03
3.847272351940331236e-02
1.291087850938499142e-03
-1.719278421426012962e-02
3.783508879735110269e-04
3.844923196624992073e-02
-3.070358532046270697e-02
-1.177338230227438498e-02
2.125712893398594774e-02
3.757235788552391181e-02
9.632887972571790164e-03
-1.166428027552715053e-03
7.892159100854693674e-03
-3.271113824264653552e-02
5.367241194577757057e-02
-3.261538990272423982e-03
-3.811990006636448245e-03
-3.893468039262742986e-02
-5.045096828346242943e-03
-5.302277901645759128e-03
-2.724559412085484755e-03
5.407731585836205758e-03
-2.924273762115551026e-02
-1.988473723141269411e-02
-9.150038304379652654e-03
5.700264193923424219e-03
1.265794236229247569e-02
1.190773676737593226e-02
1.447759137665872303e-02
1.353397845669731397e-02
3.021349577110894399e-02
-4.125220685787708494e-03
1.432315540611505192e-02
1.578186921170484855e-02
-1.340848216543390377e-02
4.075638227441062971e-04
-3.341127065685873133e-03
-3.985125429476542996e-02
-5.748813561036286192e-03
-6.766491182274434607e-03
6.985443413351248229e-04
2.795624021875640214e-03
5.434917591277034325e-03
-1.232005592564506570e-02
9.295589578124029487e-03
6.610685136343959385e-03
-2.917677181813920721e-03
2.403190223206587081e-02
-5.820063952017279349e-04
-9.161554802471256684e-03
8.291877693428815685e-03
-5.812149838183775820e-03
-7.778783883725524234e-03
-6.071607824098507883e-03
-1.110645523257362127e-02
-3.733542616688640108e-03
2.764233163423138878e-02
2.084648160053193065e-03
1.046701636524302072e-02
-4.305152098101207303e-03
3.281839482649418199e-03
-2.433068569481356205e-02
-1.407633590347660661e-02
1.013022973716675053e-02
1.262837147112091940e-02
-1.236351763175945993e-02
-4.544061719382855649e-03
4.503077788870502203e-03
7.601414580875969201e-04
2.962094799373170707e-03
3.248932020134425586e-02
-7.783463715578679658e-03
-7.481413179859348894e-03
1.037044705354356854e-02
-7.402373557381745212e-04
-7.154686511965952650e-04
-6.323934930378552000e-04
-2.550679085947719915e-02
-4.007926352492291087e-04
-1.039356484706740634e-03
7.350337691851120420e-04
3.146700922380251276e-03
2.130295227025650923e-04
-1.126554411964074713e-03
8.907669054702865071e-04
-2.418827587818171872e-03
2.425710738744821585e-02
1.546838004312344091e-02
6.673445400541684093e-03
-1.054327379446956883e-02
9.950592401863331965e-03
-8.149406485705064374e-03
-8.189080916137115446e-03
-2.946776403666491809e-02
2.553190128793949784e-02
2.031206024403469507e-02
-2.831343095804514983e-03
-1.317243857361541739e-04
1.829775608485525919e-03
-5.454997757990180662e-03
-8.715172145136115128e-03
-3.054049975579274309e-02
3.745600610037456719e-03
7.723303837574985002e-03
3.665544861915694813e-02
2.201667754396472842e-03
1.611821668222588461e-02
-1.167975420349598795e-03
-8.480104330500708859e-03
-5.679615775254143184e-02
4.929992707809333075e-02
2.772794345189593182e-02
-1.257351263984462370e-02
1.713895061180406923e-02
-7.705661036641301906e-03
-1.358262815661641192e-02
-4.354985288570300053e-03
-5.595003402012069943e-02
-1.589636561192115868e-02
-1.872566967970379359e-02
-2.073225296345598129e-02
-1.285870674188508214e-02
-1.159638032954132467e-02
-8.639130123145790513e-03
7.581040839513238701e-04
8.769040136570183108e-02
-3.162512055053473548e-02
-3.535630034727659660e-02
-3.052680557235127809e-02
-2.116441478545144639e-02
-1.116937736968234667e-02
-3.447805319362338191e-04
3.072226691536590962e-02
9.946453224186668773e-02
-1.067295671897218468e-02
-7.179652194648278307e-03
6.012744577500272851e-03
6.079273232013756786e-03
-2.167452606205719137e-03
1.262834189104210768e-02
-4.483063508769209726e-03
-2.172346719607488852e-04
1.730686161755823349e-02
9.803594926767553869e-03
3.195580576017061775e-02
-1.190459688990234965e-02
-6.135393813274011773e-03
-8.111801611760288341e-03
-1.468811560956670209e-03
-3.144565842860309879e-02
7.669315089383034294e-03
1.539837584657671732e-02
9.546888725912497766e-04
4.116125828165954209e-03
3.627088343229089781e-03
2.419559674979430801e-03
-5.185023270592144587e-03
-2.900013038433333842e-02
-1.050909644849223716e-02
-7.206325561621196134e-03
1.487284545654113648e-03
8.603269313027220658e-03
9.807312577136755808e-04
-6.403445298225190867e-03
2.785510925596668911e-03
1.026207126634695078e-02
-3.027791886283970335e-02
-4.610753731943568329e-02
-2.599732682476454948e-02
8.967339028476900564e-02
3.873122735599415084e-02
-1.143268684241754464e-02
-1.494610568431635998e-02
3.569578930107441053e-04
2.010051841740985445e-02
1.993755090161702589e-02
1.287140195462087994e-02
-2.910741753262487217e-03
-1.432612613654393914e-02
-1.527205668263952910e-02
5.487503082164097053e-03
-2.588804978336588583e-02
4.866679752312689199e-03
-5.928108666287544744e-03
-4.577769098848316447e-03
5.887027781031920967e-03
3.501809520833197575e-03
8.778582511963070947e-03
-9.977669166719820015e-03
-2.550552634285198784e-03
3.208346324916167697e-03
7.937617366542354738e-03
-2.843828375627742520e-03
1.358270924463868918e-03
-2.603424874472854821e-03
2.329669852324376365e-03
-2.413343406760962671e-03
-6.973307811385213127e-03
-7.378411951904183599e-03
3.470689001206594265e-02
-2.275836889271793187e-02
8.202498151986626425e-05
-9.707791830892592913e-03
-7.567044911736376701e-03
-3.690322211660829708e-03
1.631302480532610330e-02
-2.676822131435222657e-02
-3.374402216051554382e-02
-2.841043506428908919e-02
-3.687066469058089806e-03
-1.723371289890039725e-03
6.758274936189119595e-04
6.593125156329848399e-03
8.706416364815629250e-02
-5.567915584841197710e-03
-5.545709932458242793e-03
-3.482166475434876878e-03
-4.186755801293465078e-03
4.471342635373120006e-04
-4.527149929600503405e-04
-5.095616823958108201e-04
1.929769020584633579e-02
-3.041422012123599916e-02
-4.621544140651587945e-02
-1.918037389815595295e-02
-3.924562004131251086e-02
6.836851969073340363e-03
7.014269455265113862e-03
1.665072790669909486e-02
1.045538061361828558e-01
-1.905960930924164307e-03
-1.247481977931944562e-02
2.903261940422051293e-03
4.545685393804609412e-03
-4.062283002598277362e-03
5.346852360565184509e-03
6.936047225938025106e-03
-1.288783207887979777e-03
2.452736392851897779e-03
-5.815845737279240089e-04
-8.775527275992755106e-04
-3.643298746343163162e-03
4.450736239753738839e-03
3.484279420662218883e-03
-1.139510073435374147e-03
-4.145805932162116396e-03
-2.911874631949130585e-02
-1.313125738192944848e-02
-1.147084960254239963e-02
2.747833103212252506e-02
-1.669369199872449945e-03
-1.105394433875125438e-04
-5.290474088268071542e-03
3.331290500336868410e-02
3.755765100734841100e-02
-2.185804250530538548e-02
-4.286848173311687271e-02
-1.367191286238863233e-02
-5.325145065712947982e-03
5.169411924447362035e-03
3.071466487335248671e-03
3.792505274739282894e-02
-5.004759212751410530e-02
4.034510682939506515e-02
4.010947270947235084e-03
-8.702543128272932508e-04
3.859514616734993023e-03
4.964802394056938920e-03
9.146037522335675671e-03
-1.140856219312849466e-02
5.353787050853223151e-02
-4.493844689026457728e-03
-3.753527087403493029e-02
-3.020042884356595805e-02
2.053111916049812566e-02
-6.514408453362783256e-03
-7.397977465504379860e-03
1.207294065646420840e-02
1.215833580195597313e-01
-1.365008596668531443e-02
1.549826737216523399e-02
-3.636060263567648942e-02
-2.133639191197077636e-02
-1.933195738947273562e-02
-3.064807947243335801e-02
-1.575450801548623075e-02
-1.186571744671559465e-02
-1.035339454995882862e-02
-1.673112355865360307e-02
-8.134324657960510796e-03
-1.235078951444330657e-02
-8.347674063649213744e-03
-7.135307816485359812e-03
7.491833160786640078e-02
-3.840588921750368728e-02
-4.634222946430042317e-03
2.525156714685782358e-02
1.536506426328821014e-02
-1.211883138803481266e-03
1.033213951340527896e-02
1.153959074497483764e-02
-1.823636636578891690e-02
-2.063203398023599408e-02
5.134689061014121453e-02
3.704039304887747630e-02
6.053955723706073121e-03
-5.762187633224852105e-03
-2.752778759173688666e-02
-4.564142379174807203e-03
-3.595508779835224905e-02
1.196777716658386766e-04
-5.823694181332879838e-04
1.288827638777371824e-02
-9.204953831227982372e-03
9.435092483300703018e-04
-4.215376149386868172e-03
5.108597754126398141e-04
-4.596237844341283718e-04
-1.647749686526720631e-02
-2.190177169973695978e-02
-1.459165987719998267e-02
2.024117674039211875e-02
2.258929336298910392e-03
4.715312830989915049e-03
7.484726887406448377e-03
1.827078264711677266e-02
-8.864421487406308822e-03
9.619348224291479274e-03
2.309573036109090205e-02
-9.304890471226063067e-03
-5.305493393462042129e-03
1.250353310980727162e-02
3.195877830054473685e-03
-2.493968417314970307e-02
-1.591649589933612219e-02
-2.516723210912425249e-02
2.348040280794078810e-02
1.274308545530138462e-03
6.188234451283011750e-03
3.354351013243384461e-03
1.904832968695620863e-03
4.881598221767433424e-03
-4.535540021136156424e-02
-3.637929782460071204e-02
-2.077475587693259490e-02
-4.121036878460457818e-03
2.666294721204291035e-02
2.001358868341632583e-02
1.218967475086041308e-02
4.776428014503568409e-02
2.160956004827293761e-02
-2.517538176777974965e-02
-4.551053981601960174e-02
-2.588064130592615184e-02
-6.412397403104510944e-03
1.402700326782118506e-02
1.036472453878682989e-02
5.697767243794907982e-02
9.315061690670357842e-04
1.500571651796149021e-02
3.159132845952974250e-02
-5.082471870809624793e-03
-2.343066762397339603e-02
5.599291703477470017e-04
-1.577814577040946228e-02
-3.797195051713526427e-03
-2.230044299823815551e-02
7.176440681471986383e-02
3.522186688196998067e-02
8.032055552129655981e-03
-3.089260224862988829e-03
-1.787284239622615942e-02
-1.912921961649897626e-02
-5.262656401299324604e-02
3.647915258216868212e-02
-1.954246947882426477e-02
1.030141130130501209e-02
-1.104917018023262448e-02
1.165280664024659352e-02
-1.281525354131286300e-02
1.564677165346421359e-02
-3.067324897681475079e-02
-2.573329502776002323e-02
-9.188127506306690076e-03
-7.923846472778373756e-03
2.153641319775470922e-02
-9.264367266590739849e-03
-1.037191234599238281e-02
1.084816152634836620e-02
3.009697389532513950e-02
-1.420494221781268100e-02
-1.143110761696439128e-03
-1.080945117967486990e-02
6.156593919636815185e-04
-6.941976102376823908e-03
4.930153100242056462e-03
8.463367811645862784e-03
1.909029995770920862e-02
8.181770369909079077e-02
2.125468224838819803e-04
-1.180785891623678877e-02
-2.456916173815571966e-02
-1.147387598440280029e-02
-8.925561713162359287e-03
-1.423224506828545549e-05
-2.523955992454870664e-02
4.260060759611406303e-03
-1.027724606608291548e-02
-1.451500242940708665e-03
-9.070273808943971061e-03
-1.060551826132976932e-04
-8.234204338645190191e-03
-9.165845875695865369e-03
3.404506475531054316e-02
-3.121092324225435352e-02
-9.758882801390009881e-03
1.050659709231431191e-02
1.458540920702781733e-02
8.634277460834423670e-03
-6.893334351871792214e-03
8.602035819179986928e-03
5.534820816159599297e-03
-6.623883603622201383e-03
2.990555608804175425e-02
3.061871617219789204e-02
1.122631227367724277e-02
-1.655112854892773142e-02
7.260600017182533908e-03
-1.578215530718371160e-02
-4.005401709136577337e-02
9.861913058058629014e-03
-2.133761184952064766e-02
-4.050136228423846518e-02
-1.664620491642770234e-02
-1.159893780266844920e-02
5.751023337241775377e-03
-2.115138581442063247e-03
7.658631903899691673e-02
-1.681275687526294013e-03
3.866850784207974401e-02
2.646450144522156239e-02
-1.380359042864544826e-02
-2.239946516151929395e-03
2.388653501173266646e-03
-4.680762724736709651e-03
-4.511608743141424377e-02
7.293670237180145677e-02
-1.402220614111924970e-03
-1.080351886020202573e-02
-9.871784077850750353e-04
-2.136334773580308294e-02
-9.728873437714313441e-03
-1.759743448333607116e-02
-1.105412883284898236e-02
8.749162888048606437e-03
3.185226520890728497e-02
-3.671738811802639779e-02
-6.259464316669475538e-03
-2.867795379011011617e-03
-8.635623686507979194e-03
-3.327488381813705626e-03
1.720633178507266839e-02
-2.085035017621427941e-02
3.447323114867879151e-02
3.952253002437287888e-02
3.871188666833327158e-02
-5.022686568723181560e-03
-1.674520856026975174e-02
-5.679365002289571765e-03
-6.441003753388817310e-02
9.205016653671900528e-02
3.385797747501603436e-03
-1.290290136960197710e-02
5.137019281346082329e-03
-1.728287145533067767e-02
-1.232824213300480476e-02
-1.180346101798993713e-02
-4.625550758963919984e-02
-2.327655839263642612e-02
-1.280425962395832047e-03
1.049147129339731040e-02
4.090977771704133736e-03
3.349511159841638951e-03
8.819467961446036605e-03
-1.242576973302112614e-02
1.023132590166427047e-02
2.267388690226996781e-02
-4.282481395532299756e-02
-1.836132610555570380e-02
-1.260515801907611221e-02
3.775096236839610778e-03
2.310152054656130702e-02
1.063574863915313709e-02
1.360504575513080475e-02
1.994516290612914633e-02
3.256972202197033761e-02
-1.845969496299630771e-03
-4.331763772302611032e-02
1.652489293571687487e-02
-1.386729086196939603e-02
-7.679138423174601547e-03
-2.329741359346590435e-03
3.780831626491560488e-02
-2.132635961095363797e-02
-5.177697967135348051e-02
3.832982577798210722e-02
-7.377953055487191693e-03
-2.932691639936221058e-03
-3.169822463606346871e-04
7.592824181193451490e-03
4.965700603167098708e-03
-1.348809100512572950e-03
-4.947245209895106358e-04
-1.429099457084203250e-03
-8.212321901195429119e-04
1.201554294035735290e-03
-4.555147239937074499e-04
-1.617874904503293493e-03
-7.103515632974971572e-02
-4.992344259854322036e-02
-2.074268492951884812e-02
4.817471604794506396e-02
4.873974562311283315e-02
2.303068871614340901e-02
1.518698467061331200e-02
6.569148799997179093e-03
-2.616128029627580454e-02
-2.174707915119468080e-02
1.827787986630364202e-03
-1.265519842066916908e-02
1.668111282023405917e-02
-4.246201756883300621e-03
-4.589212798288870403e-03
5.089007161644739513e-02
2.144220827783174799e-02
-7.454370104999412036e-03
1.654468023360604681e-02
-1.997854278947978207e-02
1.663015263607891267e-03
1.945196650140992639e-03
-1.735142358181408773e-02
3.189236051106587953e-03
-1.310937331633676463e-02
3.500727923006559557e-03
-2.348929682671188277e-03
-7.607234870911598742e-04
-6.809252623586744754e-04
-1.644259447867186174e-03
1.297414863771386047e-02
2.069334635604561969e-03
-3.833642772850837099e-03
3.114046905231761600e-03
-1.278061911072262650e-04
2.881825200159820327e-03
-1.013133655630886650e-03
-5.421099718968799613e-04
1.514446633024261286e-03
-1.993626146930016843e-03
-1.473934957226863624e-03
-1.134986188586547791e-03
-1.134404225783248749e-03
-1.031214765524944565e-03
-8.638242072853215183e-04
-8.555924883915683610e-04
9.652757856724272128e-04
5.528681047126069240e-03
-4.851980095739573916e-03
-4.169752189957978694e-02
-2.537403417919477724e-02
3.880338862530366677e-03
-1.876541465555093408e-02
-6.604280881752682721e-03
1.130562691421940422e-02
8.210726593506799398e-02
-5.122528591490457112e-02
-1.916137241167516561e-02
1.044616477963126143e-02
-3.232893341693346499e-03
3.226419459606771900e-02
1.902403724232448051e-02
7.765042967114808153e-04
1.110865075353813930e-02
4.709271183505246705e-02
-7.582524548331311988e-03
9.509758526822474634e-03
-2.819009344621057137e-02
-1.900086713218703677e-02
-1.502430718725021770e-02
-2.858018794802439939e-03
1.605334074690662610e-02
-9.761622469495075810e-03
7.260574791603016317e-03
-3.177820319020500939e-02
-2.104912135408050847e-02
2.989539968877653192e-02
2.221049146342033570e-02
2.157407430807142118e-02
-1.835159323809072360e-02
1.727225424213689464e-02
9.143312363120539507e-03
1.966947846163058164e-03
-1.350679883733366463e-02
-1.429706355536390291e-02
5.368077267000866473e-03
-2.110730926896719947e-05
-5.925622016454837673e-03
-2.108402656531034938e-02
-2.799182964785679878e-02
2.373570331631203248e-02
1.913559890059564339e-02
7.228847007566618389e-03
-4.126179438332086558e-03
5.465235479424531036e-03
-2.363349052399606621e-03
-6.822060736160986960e-02
3.803677407162951024e-02
3.907308590313244429e-02
-1.329337194532202076e-04
-1.030830745177789901e-02
5.181967629488499951e-04
7.422614074761968439e-03
-6.388822279631769727e-03
6.474453906676249509e-03
-1.775148227312894553e-02
3.023282187359830481e-02
2.296951785063872792e-02
4.475066736853100871e-03
-1.462990066834241737e-02
-5.951127628852644937e-03
-2.581934979744237094e-02
-1.995964676559441181e-02
2.626196529753991801e-02
-9.773380238616581270e-03
1.444509884306034719e-02
1.816944158932429308e-03
1.300271320288912645e-02
4.390428140902911123e-04
-2.623273731230111108e-02
-3.304276221575286332e-02
1.299657315689693097e-04
-5.232691735743632503e-04
4.836668688555860462e-03
8.211934296063708866e-03
1.045982356936321980e-02
-1.130946343714311214e-03
1.105858544748974243e-02
-1.119392940368030710e-04
-1.851873568850744348e-02
9.339694550712100002e-03
2.622538541377494523e-02
-5.619832845099026301e-03
-1.100628313231138272e-02
3.494506680655116667e-04
-6.577396725979040883e-04
-3.282418044902515181e-02
-1.712257469085619972e-03
4.462015769283993877e-02
-1.021652657624760006e-02
-1.064763891342708838e-02
1.848741409695328977e-02
4.850764568328198335e-03
-1.255773295033591266e-02
3.871388557267972652e-02
2.898091450760834683e-03
-4.546572918670896413e-02
-3.771135789633380930e-03
-2.415822673409156324e-03
-1.178752645728682949e-02
1.146401577010031612e-02
1.036422131349742058e-02
1.799246597818982690e-02
-3.764851784707128318e-03
-2.584819303968231580e-03
3.813517176663715549e-03
1.270979723308097000e-03
1.722552593518804007e-02
4.006176780557466933e-03
-3.795899450523176205e-02
2.385283577720169468e-02
1.776428298805469291e-02
6.667318681031023098e-02
4.568181471686915372e-03
-3.067282194295797154e-02
-5.184176779770410977e-03
-2.851376055197437850e-02
-4.848772777255078853e-02
5.635969185981220403e-02
2.797220649313970908e-02
-1.973387166861344591e-02
-2.155619350165507639e-02
-1.256149060794328753e-02
-1.716284009217529036e-02
-1.761759028689031253e-02
4.300087804325497878e-03
-2.130376265286356915e-02
1.966905855750611040e-02
2.940262283552742828e-02
1.199651541859349203e-03
-7.810653406383733822e-03
-1.071386236349868883e-02
3.563783697702154786e-03
-1.400683820984906756e-02
-7.743733100784996708e-03
-1.210545322599877738e-02
-8.447572761529655722e-03
-8.535844653959434244e-03
-2.836123495266192930e-03
-2.283625001868241303e-03
8.668169800153671263e-06
4.194368406960715528e-02
2.360688931207336611e-02
6.765781807821362979e-03
-7.481019005496216540e-03
-6.038210830571718625e-03
-5.116596260929306972e-03
-3.288865180239826293e-03
-2.891013491941934674e-03
-5.556966350715738558e-03
-6.228948011383356707e-03
-7.371348038808554250e-03
-4.975875543040805295e-03
-5.633941942868278194e-03
-4.225287171594504544e-03
-2.281552678071418951e-03
-1.166067662391939491e-04
3.083356015200610506e-02
-2.241292034157784177e-02
-2.664156517504008906e-02
-6.462098636389371209e-02
-1.714992965725584476e-02
1.327131142084813156e-02
-4.604464449738646017e-04
2.727662915940365362e-02
9.073790740248963149e-02
2.782947173267356650e-04
5.280258695094922940e-03
-2.127928453733262510e-04
8.469425386165433875e-03
-1.574845728288656660e-04
4.753047487862958193e-03
-6.931446596015270953e-03
-1.147930227223258569e-02
1.076141853186147850e-02
1.803333183249664767e-02
-9.225289292055323734e-03
2.163894083938019269e-03
-5.032719165533530194e-03
-2.228670563903956386e-03
1.078734996432513353e-03
-1.555070042323584804e-02
3.484119999952067261e-03
-1.135840882873509483e-03
-1.354706179967691236e-02
1.255275839423396211e-02
4.627140237767001472e-03
-9.435816505772706350e-03
-3.003409577852767659e-03
6.458110134222871945e-03
2.496842210012786660e-03
1.211146692407694125e-02
-1.008440537325107182e-02
-9.024387330606519571e-05
-3.095846971308657825e-03
4.517748315892316895e-03
1.016126209500538106e-02
-1.601682332712161747e-02
-3.476552280105532026e-03
6.478417169103745966e-03
4.312260496154623514e-03
-6.378358150631784594e-03
3.584611596746792306e-03
-2.966881323333712874e-04
-1.541551758056938998e-03
-2.682138940877538784e-03
9.861913058058634218e-03
-2.133761184952064419e-02
-4.050136228423845824e-02
-1.664620491642769887e-02
-1.159893780266845441e-02
5.751023337241775377e-03
-2.115138581442062814e-03
7.658631903899691673e-02
3.898392162307015140e-03
1.312068656434852007e-03
5.146787971561224591e-03
2.006430487952117533e-03
2.516423509876372731e-03
-4.773286761015666999e-03
-2.800993738052800401e-04
-9.826716653310630517e-03
-5.567915584841197710e-03
-5.545709932458242793e-03
-3.482166475434876878e-03
-4.186755801293465078e-03
4.471342635373120006e-04
-4.527149929600503405e-04
-5.095616823958108201e-04
1.929769020584633579e-02
-4.264123702582246593e-03
-7.609694354145253234e-03
-9.868863959881027381e-04
7.432485815863180793e-03
3.470384073966709896e-03
6.103056130302737282e-03
3.278987559625088158e-03
-7.424209127042117468e-03
-2.063203398023599408e-02
5.134689061014121453e-02
3.704039304887747630e-02
6.053955723706073121e-03
-5.762187633224852105e-03
-2.752778759173688666e-02
-4.564142379174807203e-03
-3.595508779835224905e-02
-2.911874631949130585e-02
-1.313125738192944848e-02
-1.147084960254239963e-02
2.747833103212252506e-02
-1.669369199872449945e-03
-1.105394433875125438e-04
-5.290474088268071542e-03
3.331290500336868410e-02
-1.647749686526720631e-02
-2.190177169973695978e-02
-1.459165987719998267e-02
2.024117674039211875e-02
2.258929336298910392e-03
4.715312830989915049e-03
7.484726887406448377e-03
1.827078264711677266e-02
-7.780850720706418769e-03
7.215240673559742204e-03
-1.939974929317387275e-03
-1.557888181761294538e-02
-2.760809775678959785e-03
-4.235612436145250702e-03
4.807798536942461259e-03
2.027309046895876821e-02
-8.864421487406308822e-03
9.619348224291479274e-03
2.309573036109090205e-02
-9.304890471226063067e-03
-5.305493393462042129e-03
1.250353310980727162e-02
3.195877830054473685e-03
-2.493968417314970307e-02
-8.774145779489541828e-04
2.644049458431020280e-02
-4.263861937358714820e-03
-3.348712111914594995e-03
-4.156433570110148502e-03
-1.067026795634543328e-04
-5.118989738092484705e-03
-8.568379969321844244e-03
4.398978298428789235e-02
2.545544085632628004e-02
-3.843263708913055576e-02
-1.175804499511394832e-02
-1.135105301961938581e-02
-1.103921265328288923e-02
-1.082300485157428136e-03
4.218024401690016224e-03
-1.186571744671559465e-02
-1.035339454995882862e-02
-1.673112355865360307e-02
-8.134324657960510796e-03
-1.235078951444330657e-02
-8.347674063649213744e-03
-7.135307816485359812e-03
7.491833160786640078e-02
1.519793266036874356e-03
1.224510390759878456e-02
2.325136013741243776e-02
1.353171291957512047e-02
-2.085031764288621664e-02
-4.548754760753302706e-03
-1.777596715648045722e-02
-7.372930670503231691e-03
-8.883890399266358446e-04
1.214493930068685605e-02
-7.707645258033760105e-03
3.387807533452396030e-03
7.025561985436854125e-03
-3.724225649809885432e-03
-2.866010867078730862e-03
-7.372038004727095480e-03
-2.917677181813920721e-03
2.403190223206587081e-02
-5.820063952017279349e-04
-9.161554802471256684e-03
8.291877693428815685e-03
-5.812149838183775820e-03
-7.778783883725524234e-03
-6.071607824098507883e-03
-1.110645523257362127e-02
-3.733542616688640108e-03
2.764233163423138878e-02
2.084648160053193065e-03
1.046701636524302072e-02
-4.305152098101207303e-03
3.281839482649418199e-03
-2.433068569481356205e-02
8.411839508746185318e-04
4.465456279968605183e-03
3.608323953764824583e-03
4.553747197334809434e-03
-1.778536417765331709e-03
-2.041132859571633679e-03
-2.730396259815676303e-03
-6.918645844790219726e-03
-5.137489807559797970e-03
1.459140007697997668e-03
5.769943893587816189e-03
3.068342480860592608e-03
9.922342934696071204e-03
1.456408480899495537e-03
-4.238685065950724765e-03
-1.230000292423144743e-02
2.607240446823328155e-03
-8.691976195107019645e-03
1.868295753788110666e-04
-5.560820661924274246e-03
4.991472293148373034e-03
-1.793314408997564503e-04
-3.218569037864621712e-03
9.865155020445165110e-03
-7.587759363265066158e-04
-9.025055203211771555e-04
9.162784633738348247e-04
1.100619262909437656e-03
-4.799389075721458659e-04
-3.737536942074235857e-04
-3.008351725333285008e-04
7.989115046773088633e-04
-3.148036541490737122e-03
6.218545094032453500e-03
4.473707119236172529e-03
-3.155047379303556245e-03
2.852759074846307821e-03
-1.893474738454803625e-03
-1.509750190202429568e-03
-3.838702438663404038e-03
5.112091826665836510e-03
-1.695479574177020249e-02
7.999461274477797073e-04
8.458598411295837130e-03
1.047577313515225816e-02
-1.543578625192163108e-03
-1.179388863088670115e-02
5.445853497287348952e-03
2.814055705477388689e-02
-6.438397765312822013e-03
-9.897091626931831324e-03
-4.153960975880948044e-03
1.056827154043047615e-03
9.402071643016114656e-04
-1.663435943707590372e-03
-7.984705061285348252e-03
-4.535540021136156424e-02
-3.637929782460071204e-02
-2.077475587693259490e-02
-4.121036878460457818e-03
2.666294721204291035e-02
2.001358868341632583e-02
1.218967475086041308e-02
4.776428014503568409e-02
1.318373798899014418e-02
1.134331626703517608e-02
1.647262986984349142e-02
-1.633584861002028085e-02
-1.223437008613046870e-02
7.010451477709636614e-03
-4.385010478876437585e-03
-1.505490642855125856e-02
1.980301127711942694e-02
2.548608691829441341e-03
-3.158792153922902312e-03
-3.307037400549806081e-03
-1.527802517499577458e-03
-4.067047962225871748e-03
4.292935198015048262e-03
-1.458387513276575287e-02
1.623619746335606961e-02
-3.042545341916068607e-04
1.494934813397948842e-02
5.185822614441999538e-03
-1.020222619301852131e-02
2.343568152532177293e-03
-1.840533908502207244e-02
-9.803116552077537071e-03
-7.743733100784996708e-03
-1.210545322599877738e-02
-8.447572761529655722e-03
-8.535844653959434244e-03
-2.836123495266192930e-03
-2.283625001868241303e-03
8.668169800153671263e-06
4.194368406960715528e-02
0.000000000000000000e+00
0.000000000000000000e+00
0.000000000000000000e+00
0.000000000000000000e+00
0.000000000000000000e+00
0.000000000000000000e+00
0.000000000000000000e+00
0.000000000000000000e+00
1.642845997295710320e-02
-8.184916890052941919e-04
2.671460915612980033e-03
-1.954668282588529029e-04
-6.115762679356450716e-03
-3.534462105661131687e-03
-2.622770677057477970e-04
-8.173460518582602655e-03
9.595387621280723354e-05
-5.177365893662826428e-04
-2.273658669023439257e-04
-1.241080179399131709e-03
1.417774602165073131e-03
-1.545774573463257542e-03
4.933801250424297213e-04
1.524848605710705423e-03
-1.037674941622758126e-02
7.011469343727629901e-03
-5.852051131681716353e-03
-7.041003685001499205e-04
-1.218364820964210017e-03
1.370195237800287324e-03
-3.636890970039443564e-03
1.340649212588518151e-02
-8.001121976833685048e-03
-2.790628546970545104e-02
-7.762243039296209783e-03
-4.523271013360323847e-03
-2.088212320711668474e-04
2.015968852684887902e-02
4.071920382922178047e-03
2.417013382149577755e-02
-4.007926352492291087e-04
-1.039356484706740634e-03
7.350337691851120420e-04
3.146700922380251276e-03
2.130295227025650923e-04
-1.126554411964074713e-03
8.907669054702865071e-04
-2.418827587818171872e-03
-1.684544997034152433e-02
1.666492053514357502e-02
1.376247488212300508e-02
-8.501157093915408941e-03
3.976187681960796812e-03
-1.417815037999843771e-02
-2.976692620702361004e-03
8.097866965730355499e-03
7.535699033620747549e-03
8.476863912998777555e-04
-4.361076065319156522e-03
1.751545350653638602e-02
-3.488491383043344253e-03
-6.260113802806151727e-03
-3.518946999395039174e-03
-8.270210680893320954e-03
-4.851980095739573916e-03
-4.169752189957978694e-02
-2.537403417919477724e-02
3.880338862530366677e-03
-1.876541465555093408e-02
-6.604280881752682721e-03
1.130562691421940422e-02
8.210726593506799398e-02
-4.287347449540507976e-02
-2.652450624835039211e-02
-8.137129252352109585e-03
-3.301053845278621376e-03
1.768669141493822705e-02
-6.785593029476170990e-03
1.663023154616628113e-02
5.330483390975790381e-02
7.814565855480024373e-03
